{"learner":{"attributes":{"scikit_learn":"{\"_estimator_type\": \"classifier\"}"},"feature_names":[],"feature_types":[],"gradient_booster":{"model":{"cats":{"enc":[],"feature_segments":[],"sorted_idx":[]},"gbtree_model_param":{"num_parallel_tree":"1","num_trees":"2100"},"iteration_indptr":[0,3,6,9,12,15,18,21,24,27,30,33,36,39,42,45,48,51,54,57,60,63,66,69,72,75,78,81,84,87,90,93,96,99,102,105,108,111,114,117,120,123,126,129,132,135,138,141,144,147,150,153,156,159,162,165,168,171,174,177,180,183,186,189,192,195,198,201,204,207,210,213,216,219,222,225,228,231,234,237,240,243,246,249,252,255,258,261,264,267,270,273,276,279,282,285,288,291,294,297,300,303,306,309,312,315,318,321,324,327,330,333,336,339,342,345,348,351,354,357,360,363,366,369,372,375,378,381,384,387,390,393,396,399,402,405,408,411,414,417,420,423,426,429,432,435,438,441,444,447,450,453,456,459,462,465,468,471,474,477,480,483,486,489,492,495,498,501,504,507,510,513,516,519,522,525,528,531,534,537,540,543,546,549,552,555,558,561,564,567,570,573,576,579,582,585,588,591,594,597,600,603,606,609,612,615,618,621,624,627,630,633,636,639,642,645,648,651,654,657,660,663,666,669,672,675,678,681,684,687,690,693,696,699,702,705,708,711,714,717,720,723,726,729,732,735,738,741,744,747,750,753,756,759,762,765,768,771,774,777,780,783,786,789,792,795,798,801,804,807,810,813,816,819,822,825,828,831,834,837,840,843,846,849,852,855,858,861,864,867,870,873,876,879,882,885,888,891,894,897,900,903,906,909,912,915,918,921,924,927,930,933,936,939,942,945,948,951,954,957,960,963,966,969,972,975,978,981,984,987,990,993,996,999,1002,1005,1008,1011,1014,1017,1020,1023,1026,1029,1032,1035,1038,1041,1044,1047,1050,1053,1056,1059,1062,1065,1068,1071,1074,1077,1080,1083,1086,1089,1092,1095,1098,1101,1104,1107,1110,1113,1116,1119,1122,1125,1128,1131,1134,1137,1140,1143,1146,1149,1152,1155,1158,1161,1164,1167,1170,1173,1176,1179,1182,1185,1188,1191,1194,1197,1200,1203,1206,1209,1212,1215,1218,1221,1224,1227,1230,1233,1236,1239,1242,1245,1248,1251,1254,1257,1260,1263,1266,1269,1272,1275,1278,1281,1284,1287,1290,1293,1296,1299,1302,1305,1308,1311,1314,1317,1320,1323,1326,1329,1332,1335,1338,1341,1344,1347,1350,1353,1356,1359,1362,1365,1368,1371,1374,1377,1380,1383,1386,1389,1392,1395,1398,1401,1404,1407,1410,1413,1416,1419,1422,1425,1428,1431,1434,1437,1440,1443,1446,1449,1452,1455,1458,1461,1464,1467,1470,1473,1476,1479,1482,1485,1488,1491,1494,1497,1500,1503,1506,1509,1512,1515,1518,1521,1524,1527,1530,1533,1536,1539,1542,1545,1548,1551,1554,1557,1560,1563,1566,1569,1572,1575,1578,1581,1584,1587,1590,1593,1596,1599,1602,1605,1608,1611,1614,1617,1620,1623,1626,1629,1632,1635,1638,1641,1644,1647,1650,1653,1656,1659,1662,1665,1668,1671,1674,1677,1680,1683,1686,1689,1692,1695,1698,1701,1704,1707,1710,1713,1716,1719,1722,1725,1728,1731,1734,1737,1740,1743,1746,1749,1752,1755,1758,1761,1764,1767,1770,1773,1776,1779,1782,1785,1788,1791,1794,1797,1800,1803,1806,1809,1812,1815,1818,1821,1824,1827,1830,1833,1836,1839,1842,1845,1848,1851,1854,1857,1860,1863,1866,1869,1872,1875,1878,1881,1884,1887,1890,1893,1896,1899,1902,1905,1908,1911,1914,1917,1920,1923,1926,1929,1932,1935,1938,1941,1944,1947,1950,1953,1956,1959,1962,1965,1968,1971,1974,1977,1980,1983,1986,1989,1992,1995,1998,2001,2004,2007,2010,2013,2016,2019,2022,2025,2028,2031,2034,2037,2040,2043,2046,2049,2052,2055,2058,2061,2064,2067,2070,2073,2076,2079,2082,2085,2088,2091,2094,2097,2100],"tree_info":[0,1,2,0,1,2,0,1,2,0,1,2,0,1,2,0,1,2,0,1,2,0,1,2,0,1,2,0,1,2,0,1,2,0,1,2,0,1,2,0,1,2,0,1,2,0,1,2,0,1,2,0,1,2,0,1,2,0,1,2,0,1,2,0,1,2,0,1,2,0,1,2,0,1,2,0,1,2,0,1,2,0,1,2,0,1,2,0,1,2,0,1,2,0,1,2,0,1,2,0,1,2,0,1,2,0,1,2,0,1,2,0,1,2,0,1,2,0,1,2,0,1,2,0,1,2,0,1,2,0,1,2,0,1,2,0,1,2,0,1,2,0,1,2,0,1,2,0,1,2,0,1,2,0,1,2,0,1,2,0,1,2,0,1,2,0,1,2,0,1,2,0,1,2,0,1,2,0,1,2,0,1,2,0,1,2,0,1,2,0,1,2,0,1,2,0,1,2,0,1,2,0,1,2,0,1,2,0,1,2,0,1,2,0,1,2,0,1,2,0,1,2,0,1,2,0,1,2,0,1,2,0,1,2,0,1,2,0,1,2,0,1,2,0,1,2,0,1,2,0,1,2,0,1,2,0,1,2,0,1,2,0,1,2,0,1,2,0,1,2,0,1,2,0,1,2,0,1,2,0,1,2,0,1,2,0,1,2,0,1,2,0,1,2,0,1,2,0,1,2,0,1,2,0,1,2,0,1,2,0,1,2,0,1,2,0,1,2,0,1,2,0,1,2,0,1,2,0,1,2,0,1,2,0,1,2,0,1,2,0,1,2,0,1,2,0,1,2,0,1,2,0,1,2,0,1,2,0,1,2,0,1,2,0,1,2,0,1,2,0,1,2,0,1,2,0,1,2,0,1,2,0,1,2,0,1,2,0,1,2,0,1,2,0,1,2,0,1,2,0,1,2,0,1,2,0,1,2,0,1,2,0,1,2,0,1,2,0,1,2,0,1,2,0,1,2,0,1,2,0,1,2,0,1,2,0,1,2,0,1,2,0,1,2,0,1,2,0,1,2,0,1,2,0,1,2,0,1,2,0,1,2,0,1,2,0,1,2,0,1,2,0,1,2,0,1,2,0,1,2,0,1,2,0,1,2,0,1,2,0,1,2,0,1,2,0,1,2,0,1,2,0,1,2,0,1,2,0,1,2,0,1,2,0,1,2,0,1,2,0,1,2,0,1,2,0,1,2,0,1,2,0,1,2,0,1,2,0,1,2,0,1,2,0,1,2,0,1,2,0,1,2,0,1,2,0,1,2,0,1,2,0,1,2,0,1,2,0,1,2,0,1,2,0,1,2,0,1,2,0,1,2,0,1,2,0,1,2,0,1,2,0,1,2,0,1,2,0,1,2,0,1,2,0,1,2,0,1,2,0,1,2,0,1,2,0,1,2,0,1,2,0,1,2,0,1,2,0,1,2,0,1,2,0,1,2,0,1,2,0,1,2,0,1,2,0,1,2,0,1,2,0,1,2,0,1,2,0,1,2,0,1,2,0,1,2,0,1,2,0,1,2,0,1,2,0,1,2,0,1,2,0,1,2,0,1,2,0,1,2,0,1,2,0,1,2,0,1,2,0,1,2,0,1,2,0,1,2,0,1,2,0,1,2,0,1,2,0,1,2,0,1,2,0,1,2,0,1,2,0,1,2,0,1,2,0,1,2,0,1,2,0,1,2,0,1,2,0,1,2,0,1,2,0,1,2,0,1,2,0,1,2,0,1,2,0,1,2,0,1,2,0,1,2,0,1,2,0,1,2,0,1,2,0,1,2,0,1,2,0,1,2,0,1,2,0,1,2,0,1,2,0,1,2,0,1,2,0,1,2,0,1,2,0,1,2,0,1,2,0,1,2,0,1,2,0,1,2,0,1,2,0,1,2,0,1,2,0,1,2,0,1,2,0,1,2,0,1,2,0,1,2,0,1,2,0,1,2,0,1,2,0,1,2,0,1,2,0,1,2,0,1,2,0,1,2,0,1,2,0,1,2,0,1,2,0,1,2,0,1,2,0,1,2,0,1,2,0,1,2,0,1,2,0,1,2,0,1,2,0,1,2,0,1,2,0,1,2,0,1,2,0,1,2,0,1,2,0,1,2,0,1,2,0,1,2,0,1,2,0,1,2,0,1,2,0,1,2,0,1,2,0,1,2,0,1,2,0,1,2,0,1,2,0,1,2,0,1,2,0,1,2,0,1,2,0,1,2,0,1,2,0,1,2,0,1,2,0,1,2,0,1,2,0,1,2,0,1,2,0,1,2,0,1,2,0,1,2,0,1,2,0,1,2,0,1,2,0,1,2,0,1,2,0,1,2,0,1,2,0,1,2,0,1,2,0,1,2,0,1,2,0,1,2,0,1,2,0,1,2,0,1,2,0,1,2,0,1,2,0,1,2,0,1,2,0,1,2,0,1,2,0,1,2,0,1,2,0,1,2,0,1,2,0,1,2,0,1,2,0,1,2,0,1,2,0,1,2,0,1,2,0,1,2,0,1,2,0,1,2,0,1,2,0,1,2,0,1,2,0,1,2,0,1,2,0,1,2,0,1,2,0,1,2,0,1,2,0,1,2,0,1,2,0,1,2,0,1,2,0,1,2,0,1,2,0,1,2,0,1,2,0,1,2,0,1,2,0,1,2,0,1,2,0,1,2,0,1,2,0,1,2,0,1,2,0,1,2,0,1,2,0,1,2,0,1,2,0,1,2,0,1,2,0,1,2,0,1,2,0,1,2,0,1,2,0,1,2,0,1,2,0,1,2,0,1,2,0,1,2,0,1,2,0,1,2,0,1,2,0,1,2,0,1,2,0,1,2,0,1,2,0,1,2,0,1,2,0,1,2,0,1,2,0,1,2,0,1,2,0,1,2,0,1,2,0,1,2,0,1,2,0,1,2,0,1,2,0,1,2,0,1,2,0,1,2,0,1,2,0,1,2,0,1,2,0,1,2,0,1,2,0,1,2,0,1,2,0,1,2,0,1,2,0,1,2,0,1,2,0,1,2,0,1,2,0,1,2,0,1,2,0,1,2,0,1,2,0,1,2,0,1,2,0,1,2,0,1,2,0,1,2,0,1,2,0,1,2,0,1,2,0,1,2,0,1,2,0,1,2,0,1,2,0,1,2,0,1,2,0,1,2,0,1,2,0,1,2,0,1,2,0,1,2,0,1,2,0,1,2,0,1,2,0,1,2,0,1,2,0,1,2,0,1,2,0,1,2,0,1,2,0,1,2,0,1,2,0,1,2,0,1,2,0,1,2,0,1,2,0,1,2,0,1,2,0,1,2,0,1,2,0,1,2,0,1,2,0,1,2,0,1,2,0,1,2,0,1,2,0,1,2,0,1,2,0,1,2,0,1,2,0,1,2,0,1,2,0,1,2,0,1,2,0,1,2,0,1,2,0,1,2,0,1,2,0,1,2,0,1,2,0,1,2,0,1,2,0,1,2,0,1,2,0,1,2,0,1,2,0,1,2,0,1,2,0,1,2,0,1,2,0,1,2,0,1,2,0,1,2,0,1,2,0,1,2,0,1,2,0,1,2,0,1,2,0,1,2,0,1,2,0,1,2,0,1,2,0,1,2,0,1,2,0,1,2,0,1,2,0,1,2,0,1,2,0,1,2,0,1,2,0,1,2,0,1,2,0,1,2,0,1,2,0,1,2,0,1,2,0,1,2,0,1,2,0,1,2,0,1,2,0,1,2,0,1,2,0,1,2,0,1,2,0,1,2,0,1,2,0,1,2,0,1,2,0,1,2,0,1,2,0,1,2,0,1,2,0,1,2,0,1,2,0,1,2,0,1,2,0,1,2,0,1,2,0,1,2,0,1,2,0,1,2,0,1,2,0,1,2,0,1,2,0,1,2,0,1,2,0,1,2,0,1,2,0,1,2,0,1,2,0,1,2,0,1,2,0,1,2,0,1,2,0,1,2,0,1,2,0,1,2,0,1,2,0,1,2,0,1,2,0,1,2,0,1,2,0,1,2,0,1,2,0,1,2,0,1,2,0,1,2,0,1,2,0,1,2,0,1,2,0,1,2,0,1,2,0,1,2,0,1,2,0,1,2,0,1,2,0,1,2,0,1,2,0,1,2,0,1,2,0,1,2,0,1,2,0,1,2,0,1,2,0,1,2,0,1,2,0,1,2,0,1,2,0,1,2,0,1,2,0,1,2,0,1,2,0,1,2,0,1,2,0,1,2,0,1,2,0,1,2,0,1,2,0,1,2,0,1,2,0,1,2,0,1,2,0,1,2,0,1,2,0,1,2,0,1,2,0,1,2,0,1,2,0,1,2,0,1,2,0,1,2,0,1,2,0,1,2,0,1,2,0,1,2,0,1,2,0,1,2,0,1,2,0,1,2,0,1,2,0,1,2,0,1,2,0,1,2,0,1,2,0,1,2,0,1,2,0,1,2,0,1,2,0,1,2,0,1,2,0,1,2,0,1,2,0,1,2,0,1,2,0,1,2,0,1,2,0,1,2,0,1,2,0,1,2,0,1,2,0,1,2,0,1,2,0,1,2,0,1,2,0,1,2,0,1,2,0,1,2,0,1,2,0,1,2,0,1,2,0,1,2,0,1,2,0,1,2,0,1,2,0,1,2,0,1,2,0,1,2,0,1,2,0,1,2,0,1,2,0,1,2,0,1,2,0,1,2,0,1,2,0,1,2,0,1,2,0,1,2,0,1,2,0,1,2,0,1,2,0,1,2,0,1,2,0,1,2],"trees":[{"base_weights":[-0E0,-1.5872197E-1,9.389454E-3,-5.0697834E-3,5.7453457E-3],"categories":[],"categories_nodes":[],"categories_segments":[],"categories_sizes":[],"default_left":[0,0,0,0,0],"id":0,"left_children":[1,3,-1,-1,-1],"loss_changes":[1.4538967E1,7.0259233E0,0E0,0E0,0E0],"parents":[2147483647,0,0,1,1],"right_children":[2,4,-1,-1,-1],"split_conditions":[4E0,1E0,9.389454E-3,-5.0697834E-3,5.7453457E-3],"split_indices":[19,4602,0,0,0],"split_type":[0,0,0,0,0],"sum_hessian":[1.6101657E2,1.2618995E2,3.482662E1,1.1126426E2,1.4925693E1],"tree_param":{"num_deleted":"0","num_feature":"6170","num_nodes":"5","size_leaf_vector":"1"}},{"base_weights":[-2.603795E-2,3.1608912E-1,-2.8664327E-1,8.550955E-3,-0E0,-6.688036E-3,6.388711E-4],"categories":[],"categories_nodes":[],"categories_segments":[],"categories_sizes":[],"default_left":[0,0,0,0,0,0,0],"id":1,"left_children":[1,3,5,-1,-1,-1,-1],"loss_changes":[1.637963E1,2.7974353E0,2.0654545E0,0E0,0E0,0E0,0E0],"parents":[2147483647,0,0,1,1,2,2],"right_children":[2,4,6,-1,-1,-1,-1],"split_conditions":[1E0,1E0,1E0,8.550955E-3,-0E0,-6.688036E-3,6.388711E-4],"split_indices":[4,0,1789,0,0,0,0],"split_type":[0,0,0,0,0,0,0],"sum_hessian":[1.5379745E2,6.3457977E1,9.033948E1,4.3186676E1,2.0271297E1,8.064451E1,9.694968E0],"tree_param":{"num_deleted":"0","num_feature":"6170","num_nodes":"7","size_leaf_vector":"1"}},{"base_weights":[-7.472701E-2,-1.315364E-1,6.275014E-3,-7.5286225E-4,-5.4399697E-3],"categories":[],"categories_nodes":[],"categories_segments":[],"categories_sizes":[],"default_left":[0,0,0,0,0],"id":2,"left_children":[1,3,-1,-1,-1],"loss_changes":[4.1755342E0,1.6549742E0,0E0,0E0,0E0],"parents":[2147483647,0,0,1,1],"right_children":[2,4,-1,-1,-1],"split_conditions":[1E0,1E0,6.275014E-3,-7.5286225E-4,-5.4399697E-3],"split_indices":[704,8,0,0,0],"split_type":[0,0,0,0,0],"sum_hessian":[1.5440837E2,1.4561017E2,8.798198E0,1.0293891E2,4.2671257E1],"tree_param":{"num_deleted":"0","num_feature":"6170","num_nodes":"5","size_leaf_vector":"1"}},{"base_weights":[5.771208E-2,-3.4382012E-1,5.7492036E-1,-9.376733E-3,-1.6164347E-3,1.735028E-3,1.4046484E-2],"categories":[],"categories_nodes":[],"categories_segments":[],"categories_sizes":[],"default_left":[0,0,0,0,0,0,0],"id":3,"left_children":[1,3,5,-1,-1,-1,-1],"loss_changes":[3.9193188E1,2.3630877E0,3.425356E0,0E0,0E0,0E0,0E0],"parents":[2147483647,0,0,1,1,2,2],"right_children":[2,4,6,-1,-1,-1,-1],"split_conditions":[4E0,3E0,1E0,-9.376733E-3,-1.6164347E-3,1.735028E-3,1.4046484E-2],"split_indices":[16,16,13,0,0,0,0],"split_type":[0,0,0,0,0,0,0],"sum_hessian":[1.5833292E2,9.08765E1,6.745642E1,5.106195E1,3.981455E1,2.0804264E1,4.6652157E1],"tree_param":{"num_deleted":"0","num_feature":"6170","num_nodes":"7","size_leaf_vector":"1"}},{"base_weights":[1.3266419E-2,1.8138246E-1,-2.1352616E-1,4.9035177E-3,-2.6532938E-3,1.2332898E-4,-5.5516814E-3],"categories":[],"categories_nodes":[],"categories_segments":[],"categories_sizes":[],"default_left":[0,0,0,0,0,0,0],"id":4,"left_children":[1,3,5,-1,-1,-1,-1],"loss_changes":[7.455612E0,2.8978357E0,1.4436896E0,0E0,0E0,0E0,0E0],"parents":[2147483647,0,0,1,1,2,2],"right_children":[2,4,6,-1,-1,-1,-1],"split_conditions":[1E0,1E0,3E0,4.9035177E-3,-2.6532938E-3,1.2332898E-4,-5.5516814E-3],"split_indices":[7,2022,16,0,0,0,0],"split_type":[0,0,0,0,0,0,0],"sum_hessian":[1.661504E2,9.96758E1,6.647461E1,8.82276E1,1.1448193E1,1.4543048E1,5.1931564E1],"tree_param":{"num_deleted":"0","num_feature":"6170","num_nodes":"7","size_leaf_vector":"1"}},{"base_weights":[-8.158053E-2,3.0679265E-2,-2.0528579E-1,2.7585384E-3,-2.3889423E-3,-5.13003E-3,6.6775864E-4],"categories":[],"categories_nodes":[],"categories_segments":[],"categories_sizes":[],"default_left":[0,0,0,0,0,0,0],"id":5,"left_children":[1,3,5,-1,-1,-1,-1],"loss_changes":[2.5416408E0,1.7887841E0,1.378892E0,0E0,0E0,0E0,0E0],"parents":[2147483647,0,0,1,1,2,2],"right_children":[2,4,6,-1,-1,-1,-1],"split_conditions":[1E0,4E0,1E0,2.7585384E-3,-2.3889423E-3,-5.13003E-3,6.6775864E-4],"split_indices":[4691,18,5422,0,0,0,0],"split_type":[0,0,0,0,0,0,0],"sum_hessian":[1.4864536E2,7.960332E1,6.904203E1,5.102904E1,2.8574278E1,5.9371258E1,9.670773E0],"tree_param":{"num_deleted":"0","num_feature":"6170","num_nodes":"7","size_leaf_vector":"1"}},{"base_weights":[5.5276867E-2,-2.9946667E-1,5.422326E-1,-8.984708E-3,-7.3267734E-6,7.5733877E-4,1.4866367E-2],"categories":[],"categories_nodes":[],"categories_segments":[],"categories_sizes":[],"default_left":[0,0,0,0,0,0,0],"id":6,"left_children":[1,3,5,-1,-1,-1,-1],"loss_changes":[3.333193E1,4.5263987E0,7.043442E0,0E0,0E0,0E0,0E0],"parents":[2147483647,0,0,1,1,2,2],"right_children":[2,4,6,-1,-1,-1,-1],"split_conditions":[4E0,1E0,1E0,-8.984708E-3,-7.3267734E-6,7.5733877E-4,1.4866367E-2],"split_indices":[16,3,3,0,0,0,0],"split_type":[0,0,0,0,0,0,0],"sum_hessian":[1.6244978E2,9.6136696E1,6.631309E1,5.6814983E1,3.9321712E1,2.5400633E1,4.0912457E1],"tree_param":{"num_deleted":"0","num_feature":"6170","num_nodes":"7","size_leaf_vector":"1"}},{"base_weights":[-2.2826448E-2,2.1933553E-1,-3.0296853E-1,-2.3434088E-3,8.692428E-3,-7.2966184E-4,-6.8548503E-3],"categories":[],"categories_nodes":[],"categories_segments":[],"categories_sizes":[],"default_left":[0,0,0,0,0,0,0],"id":7,"left_children":[1,3,5,-1,-1,-1,-1],"loss_changes":[1.2567688E1,8.152505E0,3.5239267E-1,0E0,0E0,0E0,0E0],"parents":[2147483647,0,0,1,1,2,2],"right_children":[2,4,6,-1,-1,-1,-1],"split_conditions":[1E0,1E0,3E0,-2.3434088E-3,8.692428E-3,-7.2966184E-4,-6.8548503E-3],"split_indices":[3,6,19,0,0,0,0],"split_type":[0,0,0,0,0,0,0],"sum_hessian":[1.5432957E2,8.2607635E1,7.172193E1,3.3084915E1,4.952272E1,1.631468E1,5.5407253E1],"tree_param":{"num_deleted":"0","num_feature":"6170","num_nodes":"7","size_leaf_vector":"1"}},{"base_weights":[-1.6477384E-2,5.8797877E-2,-6.1774156E-3,3.3600375E-3,-1.3606969E-3],"categories":[],"categories_nodes":[],"categories_segments":[],"categories_sizes":[],"default_left":[0,0,0,0,0],"id":8,"left_children":[1,3,-1,-1,-1],"loss_changes":[4.2282147E0,2.2628126E0,0E0,0E0,0E0],"parents":[2147483647,0,0,1,1],"right_children":[2,4,-1,-1,-1],"split_conditions":[1E0,1E0,-6.1774156E-3,3.3600375E-3,-1.3606969E-3],"split_indices":[289,4691,0,0,0],"split_type":[0,0,0,0,0],"sum_hessian":[1.5336574E2,1.2877644E2,2.4589294E1,7.081749E1,5.7958946E1],"tree_param":{"num_deleted":"0","num_feature":"6170","num_nodes":"5","size_leaf_vector":"1"}},{"base_weights":[2.4584211E-2,-3.01536E-1,4.8258832E-1,-9.33501E-3,-5.2605956E-5,-8.650896E-5,1.5093931E-2],"categories":[],"categories_nodes":[],"categories_segments":[],"categories_sizes":[],"default_left":[0,0,0,0,0,0,0],"id":9,"left_children":[1,3,5,-1,-1,-1,-1],"loss_changes":[2.894232E1,5.0378714E0,1.1538065E1,0E0,0E0,0E0,0E0],"parents":[2147483647,0,0,1,1,2,2],"right_children":[2,4,6,-1,-1,-1,-1],"split_conditions":[4E0,1E0,1E0,-9.33501E-3,-5.2605956E-5,-8.650896E-5,1.5093931E-2],"split_indices":[16,3,3,0,0,0,0],"split_type":[0,0,0,0,0,0,0],"sum_hessian":[1.6294402E2,9.689286E1,6.605115E1,5.4822334E1,4.2070526E1,2.765375E1,3.83974E1],"tree_param":{"num_deleted":"0","num_feature":"6170","num_nodes":"7","size_leaf_vector":"1"}},{"base_weights":[-3.5895987E-3,3.119199E-1,-2.4741146E-1,1.6369785E-3,9.599587E-3,-0E0,-7.3382803E-3],"categories":[],"categories_nodes":[],"categories_segments":[],"categories_sizes":[],"default_left":[0,0,0,0,0,0,0],"id":10,"left_children":[1,3,5,-1,-1,-1,-1],"loss_changes":[1.4927593E1,2.0674505E0,2.9661264E0,0E0,0E0,0E0,0E0],"parents":[2147483647,0,0,1,1,2,2],"right_children":[2,4,6,-1,-1,-1,-1],"split_conditions":[1E0,1E0,1E0,1.6369785E-3,9.599587E-3,-0E0,-7.3382803E-3],"split_indices":[4,2,3,0,0,0,0],"split_type":[0,0,0,0,0,0,0],"sum_hessian":[1.648369E2,6.8241066E1,9.6595825E1,4.0733337E1,2.7507729E1,3.8822468E1,5.777336E1],"tree_param":{"num_deleted":"0","num_feature":"6170","num_nodes":"7","size_leaf_vector":"1"}},{"base_weights":[-5.148805E-4,1.5904205E-1,-1.7602609E-1,5.0218017E-3,-1.5142227E-3,2.1654334E-4,-5.1959585E-3],"categories":[],"categories_nodes":[],"categories_segments":[],"categories_sizes":[],"default_left":[0,0,0,0,0,0,0],"id":11,"left_children":[1,3,5,-1,-1,-1,-1],"loss_changes":[5.163817E0,2.476852E0,1.7074904E0,0E0,0E0,0E0,0E0],"parents":[2147483647,0,0,1,1,2,2],"right_children":[2,4,6,-1,-1,-1,-1],"split_conditions":[1E0,4E0,3E0,5.0218017E-3,-1.5142227E-3,2.1654334E-4,-5.1959585E-3],"split_indices":[6,19,19,0,0,0,0],"split_type":[0,0,0,0,0,0,0],"sum_hessian":[1.5379356E2,7.8311035E1,7.548253E1,5.8563766E1,1.9747269E1,2.3713543E1,5.1768986E1],"tree_param":{"num_deleted":"0","num_feature":"6170","num_nodes":"7","size_leaf_vector":"1"}},{"base_weights":[4.4111993E-2,-3.3003926E-1,5.647881E-1,-8.335071E-3,7.535164E-4,-8.111698E-5,1.4292355E-2],"categories":[],"categories_nodes":[],"categories_segments":[],"categories_sizes":[],"default_left":[0,0,0,0,0,0,0],"id":12,"left_children":[1,3,5,-1,-1,-1,-1],"loss_changes":[3.565781E1,3.988223E0,7.2892666E0,0E0,0E0,0E0,0E0],"parents":[2147483647,0,0,1,1,2,2],"right_children":[2,4,6,-1,-1,-1,-1],"split_conditions":[4E0,4E0,1E0,-8.335071E-3,7.535164E-4,-8.111698E-5,1.4292355E-2],"split_indices":[16,19,4,0,0,0,0],"split_type":[0,0,0,0,0,0,0],"sum_hessian":[1.524799E2,9.080209E1,6.1677814E1,7.40571E1,1.674499E1,1.4509747E1,4.7168068E1],"tree_param":{"num_deleted":"0","num_feature":"6170","num_nodes":"7","size_leaf_vector":"1"}},{"base_weights":[-1.1254075E-2,1.674808E-1,-2.3272881E-1,5.9508854E-3,-1.8715308E-3,-0E0,-5.9707663E-3],"categories":[],"categories_nodes":[],"categories_segments":[],"categories_sizes":[],"default_left":[0,0,0,0,0,0,0],"id":13,"left_children":[1,3,5,-1,-1,-1,-1],"loss_changes":[7.246621E0,3.9642262E0,1.1894975E0,0E0,0E0,0E0,0E0],"parents":[2147483647,0,0,1,1,2,2],"right_children":[2,4,6,-1,-1,-1,-1],"split_conditions":[1E0,1E0,1E0,5.9508854E-3,-1.8715308E-3,-0E0,-5.9707663E-3],"split_indices":[3,866,4311,0,0,0,0],"split_type":[0,0,0,0,0,0,0],"sum_hessian":[1.5164558E2,8.3445206E1,6.820037E1,5.685374E1,2.6591465E1,1.9291859E1,4.8908512E1],"tree_param":{"num_deleted":"0","num_feature":"6170","num_nodes":"7","size_leaf_vector":"1"}},{"base_weights":[-5.2311006E-3,2.109137E-1,-3.2187322E-1,6.4598643E-3,-0E0,-6.900864E-3,-1.2151546E-4],"categories":[],"categories_nodes":[],"categories_segments":[],"categories_sizes":[],"default_left":[0,0,0,0,0,0,0],"id":14,"left_children":[1,3,5,-1,-1,-1,-1],"loss_changes":[1.2382164E1,2.1906147E0,1.6268206E-1,0E0,0E0,0E0,0E0],"parents":[2147483647,0,0,1,1,2,2],"right_children":[2,4,6,-1,-1,-1,-1],"split_conditions":[4E0,4E0,1E0,6.4598643E-3,-0E0,-6.900864E-3,-1.2151546E-4],"split_indices":[16,18,5313,0,0,0,0],"split_type":[0,0,0,0,0,0,0],"sum_hessian":[1.4941853E2,8.990109E1,5.9517437E1,5.0728455E1,3.9172638E1,5.1204823E1,8.312617E0],"tree_param":{"num_deleted":"0","num_feature":"6170","num_nodes":"7","size_leaf_vector":"1"}},{"base_weights":[1.3927704E-2,-1.4126581E-1,3.0354232E-1,-4.4111735E-3,4.5927456E-3,-0E0,9.057208E-3],"categories":[],"categories_nodes":[],"categories_segments":[],"categories_sizes":[],"default_left":[0,0,0,0,0,0,0],"id":15,"left_children":[1,3,5,-1,-1,-1,-1],"loss_changes":[8.619521E0,4.3146544E0,2.9107227E0,0E0,0E0,0E0,0E0],"parents":[2147483647,0,0,1,1,2,2],"right_children":[2,4,6,-1,-1,-1,-1],"split_conditions":[1E0,1E0,4E0,-4.4111735E-3,4.5927456E-3,-0E0,9.057208E-3],"split_indices":[1,336,18,0,0,0,0],"split_type":[0,0,0,0,0,0,0],"sum_hessian":[1.588528E2,1.06183586E2,5.266921E1,9.471206E1,1.1471526E1,2.3074373E1,2.9594835E1],"tree_param":{"num_deleted":"0","num_feature":"6170","num_nodes":"7","size_leaf_vector":"1"}},{"base_weights":[-2.331984E-2,-2.3441035E-1,2.1113819E-1,-0E0,-6.684513E-3,7.542923E-3,-1.8862883E-3],"categories":[],"categories_nodes":[],"categories_segments":[],"categories_sizes":[],"default_left":[0,0,0,0,0,0,0],"id":16,"left_children":[1,3,5,-1,-1,-1,-1],"loss_changes":[8.812009E0,2.2392182E0,5.008559E0,0E0,0E0,0E0,0E0],"parents":[2147483647,0,0,1,1,2,2],"right_children":[2,4,6,-1,-1,-1,-1],"split_conditions":[1E0,1E0,1E0,-0E0,-6.684513E-3,7.542923E-3,-1.8862883E-3],"split_indices":[6,4311,3,0,0,0,0],"split_type":[0,0,0,0,0,0,0],"sum_hessian":[1.475791E2,7.9905594E1,6.76735E1,2.8176332E1,5.172926E1,4.3684765E1,2.3988739E1],"tree_param":{"num_deleted":"0","num_feature":"6170","num_nodes":"7","size_leaf_vector":"1"}},{"base_weights":[-2.5457116E-2,2.1137406E-1,-3.452428E-1,6.2569943E-3,-1.0387178E-3,-7.355907E-3,-3.4792282E-4],"categories":[],"categories_nodes":[],"categories_segments":[],"categories_sizes":[],"default_left":[0,0,0,0,0,0,0],"id":17,"left_children":[1,3,5,-1,-1,-1,-1],"loss_changes":[1.4038604E1,3.3017154E0,1.0634804E-1,0E0,0E0,0E0,0E0],"parents":[2147483647,0,0,1,1,2,2],"right_children":[2,4,6,-1,-1,-1,-1],"split_conditions":[4E0,1E0,1E0,6.2569943E-3,-1.0387178E-3,-7.355907E-3,-3.4792282E-4],"split_indices":[16,8,991,0,0,0,0],"split_type":[0,0,0,0,0,0,0],"sum_hessian":[1.541433E2,8.968287E1,6.4460434E1,6.543924E1,2.4243626E1,5.5747585E1,8.712851E0],"tree_param":{"num_deleted":"0","num_feature":"6170","num_nodes":"7","size_leaf_vector":"1"}},{"base_weights":[2.2852827E-2,-1.2685362E-1,9.281005E-3,-4.5908657E-3,5.957793E-3],"categories":[],"categories_nodes":[],"categories_segments":[],"categories_sizes":[],"default_left":[0,0,0,0,0],"id":18,"left_children":[1,3,-1,-1,-1],"loss_changes":[1.2909285E1,7.16069E0,0E0,0E0,0E0],"parents":[2147483647,0,0,1,1],"right_children":[2,4,-1,-1,-1],"split_conditions":[4E0,1E0,9.281005E-3,-4.5908657E-3,5.957793E-3],"split_indices":[19,809,0,0,0],"split_type":[0,0,0,0,0],"sum_hessian":[1.619731E2,1.27224205E2,3.4748898E1,1.09901405E2,1.7322798E1],"tree_param":{"num_deleted":"0","num_feature":"6170","num_nodes":"5","size_leaf_vector":"1"}},{"base_weights":[-3.987947E-2,-2.5624928E-1,1.9070955E-1,-2.0199729E-4,-6.6459677E-3,6.9714156E-3,-1.7519983E-3],"categories":[],"categories_nodes":[],"categories_segments":[],"categories_sizes":[],"default_left":[0,0,0,0,0,0,0],"id":19,"left_children":[1,3,5,-1,-1,-1,-1],"loss_changes":[9.172291E0,1.3898153E0,4.5680866E0,0E0,0E0,0E0,0E0],"parents":[2147483647,0,0,1,1,2,2],"right_children":[2,4,6,-1,-1,-1,-1],"split_conditions":[1E0,3E0,1E0,-2.0199729E-4,-6.6459677E-3,6.9714156E-3,-1.7519983E-3],"split_indices":[6,16,1,0,0,0,0],"split_type":[0,0,0,0,0,0,0],"sum_hessian":[1.528351E2,8.0224815E1,7.261028E1,2.6049967E1,5.417485E1,4.6207157E1,2.6403124E1],"tree_param":{"num_deleted":"0","num_feature":"6170","num_nodes":"7","size_leaf_vector":"1"}},{"base_weights":[-0E0,7.617676E-2,-1.2902975E-1,2.3644415E-3,-1.7217244E-3,-4.228943E-3,-0E0],"categories":[],"categories_nodes":[],"categories_segments":[],"categories_sizes":[],"default_left":[0,0,0,0,0,0,0],"id":20,"left_children":[1,3,5,-1,-1,-1,-1],"loss_changes":[1.9021099E0,9.77372E-1,8.935269E-1,0E0,0E0,0E0,0E0],"parents":[2147483647,0,0,1,1,2,2],"right_children":[2,4,6,-1,-1,-1,-1],"split_conditions":[1E0,1E0,1E0,2.3644415E-3,-1.7217244E-3,-4.228943E-3,-0E0],"split_indices":[2816,1315,10,0,0,0,0],"split_type":[0,0,0,0,0,0,0],"sum_hessian":[1.5993062E2,1.0117274E2,5.8757885E1,8.848003E1,1.2692713E1,3.2450294E1,2.6307589E1],"tree_param":{"num_deleted":"0","num_feature":"6170","num_nodes":"7","size_leaf_vector":"1"}},{"base_weights":[-3.2579622E-3,-3.6712083E-1,3.5780558E-1,-8.386975E-3,3.4272115E-4,-0E0,9.481071E-3],"categories":[],"categories_nodes":[],"categories_segments":[],"categories_sizes":[],"default_left":[0,0,0,0,0,0,0],"id":21,"left_children":[1,3,5,-1,-1,-1,-1],"loss_changes":[2.4990484E1,2.4370232E0,4.217881E0,0E0,0E0,0E0,0E0],"parents":[2147483647,0,0,1,1,2,2],"right_children":[2,4,6,-1,-1,-1,-1],"split_conditions":[1E0,1E0,1E0,-8.386975E-3,3.4272115E-4,-0E0,9.481071E-3],"split_indices":[3,4602,4,0,0,0,0],"split_type":[0,0,0,0,0,0,0],"sum_hessian":[1.6015009E2,8.101994E1,7.9130135E1,7.2410515E1,8.6094265E0,2.1736109E1,5.7394028E1],"tree_param":{"num_deleted":"0","num_feature":"6170","num_nodes":"7","size_leaf_vector":"1"}},{"base_weights":[-1.3729791E-2,-1.2719156E-1,2.9095453E-1,-0E0,-5.569171E-3,8.37788E-3,-0E0],"categories":[],"categories_nodes":[],"categories_segments":[],"categories_sizes":[],"default_left":[0,0,0,0,0,0,0],"id":22,"left_children":[1,3,5,-1,-1,-1,-1],"loss_changes":[6.0290923E0,2.7650287E0,1.6624134E0,0E0,0E0,0E0,0E0],"parents":[2147483647,0,0,1,1,2,2],"right_children":[2,4,6,-1,-1,-1,-1],"split_conditions":[1E0,1E0,1E0,-0E0,-5.569171E-3,8.37788E-3,-0E0],"split_indices":[4852,0,1709,0,0,0,0],"split_type":[0,0,0,0,0,0,0],"sum_hessian":[1.4808209E2,1.16659424E2,3.1422663E1,6.853038E1,4.8129044E1,1.6870022E1,1.4552642E1],"tree_param":{"num_deleted":"0","num_feature":"6170","num_nodes":"7","size_leaf_vector":"1"}},{"base_weights":[-2.860126E-2,3.3607442E-2,-5.47324E-3,-8.698355E-5,5.4103103E-3],"categories":[],"categories_nodes":[],"categories_segments":[],"categories_sizes":[],"default_left":[0,0,0,0,0],"id":23,"left_children":[1,3,-1,-1,-1],"loss_changes":[2.9446986E0,1.5821321E0,0E0,0E0,0E0],"parents":[2147483647,0,0,1,1],"right_children":[2,4,-1,-1,-1],"split_conditions":[1E0,1E0,-5.47324E-3,-8.698355E-5,5.4103103E-3],"split_indices":[289,1453,0,0,0],"split_type":[0,0,0,0,0],"sum_hessian":[1.5336359E2,1.2938219E2,2.3981396E1,1.2056866E2,8.813524E0],"tree_param":{"num_deleted":"0","num_feature":"6170","num_nodes":"5","size_leaf_vector":"1"}},{"base_weights":[-0E0,-3.4060866E-1,4.6850446E-1,-9.164822E-3,6.620818E-4,1.6719252E-5,1.1284257E-2],"categories":[],"categories_nodes":[],"categories_segments":[],"categories_sizes":[],"default_left":[0,0,0,0,0,0,0],"id":24,"left_children":[1,3,5,-1,-1,-1,-1],"loss_changes":[3.039899E1,5.4595537E0,3.0400105E0,0E0,0E0,0E0,0E0],"parents":[2147483647,0,0,1,1,2,2],"right_children":[2,4,6,-1,-1,-1,-1],"split_conditions":[4E0,4E0,3E0,-9.164822E-3,6.620818E-4,1.6719252E-5,1.1284257E-2],"split_indices":[16,19,19,0,0,0,0],"split_type":[0,0,0,0,0,0,0],"sum_hessian":[1.6004506E2,9.434465E1,6.570041E1,7.12124E1,2.313225E1,1.5506929E1,5.019348E1],"tree_param":{"num_deleted":"0","num_feature":"6170","num_nodes":"7","size_leaf_vector":"1"}},{"base_weights":[-3.078347E-2,-1.6072908E-1,3.6003217E-1,1.7191487E-3,-5.604018E-3,9.516915E-3,-0E0],"categories":[],"categories_nodes":[],"categories_segments":[],"categories_sizes":[],"default_left":[0,0,0,0,0,0,0],"id":25,"left_children":[1,3,5,-1,-1,-1,-1],"loss_changes":[9.506595E0,4.7668514E0,2.3647752E0,0E0,0E0,0E0,0E0],"parents":[2147483647,0,0,1,1,2,2],"right_children":[2,4,6,-1,-1,-1,-1],"split_conditions":[1E0,3E0,1E0,1.7191487E-3,-5.604018E-3,9.516915E-3,-0E0],"split_indices":[296,16,14,0,0,0,0],"split_type":[0,0,0,0,0,0,0],"sum_hessian":[1.5902625E2,1.2789208E2,3.113416E1,4.03711E1,8.752098E1,2.1854036E1,9.280123E0],"tree_param":{"num_deleted":"0","num_feature":"6170","num_nodes":"7","size_leaf_vector":"1"}},{"base_weights":[1.1556882E-2,2.451674E-1,-2.7791756E-1,6.9763884E-3,-3.2075306E-3,-6.746659E-3,-1.0322023E-3],"categories":[],"categories_nodes":[],"categories_segments":[],"categories_sizes":[],"default_left":[0,0,0,0,0,0,0],"id":26,"left_children":[1,3,5,-1,-1,-1,-1],"loss_changes":[1.2489265E1,5.3988686E0,4.3993998E-1,0E0,0E0,0E0,0E0],"parents":[2147483647,0,0,1,1,2,2],"right_children":[2,4,6,-1,-1,-1,-1],"split_conditions":[4E0,1E0,4E0,6.9763884E-3,-3.2075306E-3,-6.746659E-3,-1.0322023E-3],"split_indices":[16,289,17,0,0,0,0],"split_type":[0,0,0,0,0,0,0],"sum_hessian":[1.5505685E2,8.899052E1,6.606634E1,7.451047E1,1.4480042E1,4.2999435E1,2.3066902E1],"tree_param":{"num_deleted":"0","num_feature":"6170","num_nodes":"7","size_leaf_vector":"1"}},{"base_weights":[6.480894E-2,-2.8639713E-2,8.378092E-3,-2.4326548E-3,6.6900593E-3],"categories":[],"categories_nodes":[],"categories_segments":[],"categories_sizes":[],"default_left":[0,0,0,0,0],"id":27,"left_children":[1,3,-1,-1,-1],"loss_changes":[6.6462407E0,5.7022147E0,0E0,0E0,0E0],"parents":[2147483647,0,0,1,1],"right_children":[2,4,-1,-1,-1],"split_conditions":[1E0,1E0,8.378092E-3,-2.4326548E-3,6.6900593E-3],"split_indices":[1315,336,0,0,0],"split_type":[0,0,0,0,0],"sum_hessian":[1.6862222E2,1.4208702E2,2.6535208E1,1.23253914E2,1.883311E1],"tree_param":{"num_deleted":"0","num_feature":"6170","num_nodes":"5","size_leaf_vector":"1"}},{"base_weights":[-4.262713E-2,1.5626833E-1,-2.828082E-1,5.731985E-3,-1.3235264E-3,-1.9536344E-3,-7.237216E-3],"categories":[],"categories_nodes":[],"categories_segments":[],"categories_sizes":[],"default_left":[0,0,0,0,0,0,0],"id":28,"left_children":[1,3,5,-1,-1,-1,-1],"loss_changes":[9.1149025E0,3.4828222E0,2.770586E-1,0E0,0E0,0E0,0E0],"parents":[2147483647,0,0,1,1,2,2],"right_children":[2,4,6,-1,-1,-1,-1],"split_conditions":[1E0,1E0,1E0,5.731985E-3,-1.3235264E-3,-1.9536344E-3,-7.237216E-3],"split_indices":[3,14,6027,0,0,0,0],"split_type":[0,0,0,0,0,0,0],"sum_hessian":[1.5927867E2,8.771686E1,7.156181E1,5.5417175E1,3.2299683E1,3.5234287E1,3.6327526E1],"tree_param":{"num_deleted":"0","num_feature":"6170","num_nodes":"7","size_leaf_vector":"1"}},{"base_weights":[-5.1591374E-2,1.6094068E-1,-7.3292684E-3,7.0626973E-3,-2.0971128E-3],"categories":[],"categories_nodes":[],"categories_segments":[],"categories_sizes":[],"default_left":[0,0,0,0,0],"id":29,"left_children":[1,3,-1,-1,-1],"loss_changes":[1.2719107E1,6.539085E0,0E0,0E0,0E0],"parents":[2147483647,0,0,1,1],"right_children":[2,4,-1,-1,-1],"split_conditions":[4E0,1E0,-7.3292684E-3,7.0626973E-3,-2.0971128E-3],"split_indices":[16,6,0,0,0],"split_type":[0,0,0,0,0],"sum_hessian":[1.5877214E2,9.727243E1,6.1499706E1,5.5775337E1,4.1497093E1],"tree_param":{"num_deleted":"0","num_feature":"6170","num_nodes":"5","size_leaf_vector":"1"}},{"base_weights":[8.574605E-2,-3.0788645E-1,4.8728982E-1,-7.3909387E-3,1.0290563E-3,1.1145868E-2,-0E0],"categories":[],"categories_nodes":[],"categories_segments":[],"categories_sizes":[],"default_left":[0,0,0,0,0,0,0],"id":30,"left_children":[1,3,5,-1,-1,-1,-1],"loss_changes":[3.0335852E1,2.7545109E0,2.7977524E0,0E0,0E0,0E0,0E0],"parents":[2147483647,0,0,1,1,2,2],"right_children":[2,4,6,-1,-1,-1,-1],"split_conditions":[1E0,1E0,1E0,-7.3909387E-3,1.0290563E-3,1.1145868E-2,-0E0],"split_indices":[3,336,6152,0,0,0,0],"split_type":[0,0,0,0,0,0,0],"sum_hessian":[1.6155244E2,8.208901E1,7.946343E1,7.20777E1,1.0011319E1,6.6230446E1,1.3232986E1],"tree_param":{"num_deleted":"0","num_feature":"6170","num_nodes":"7","size_leaf_vector":"1"}},{"base_weights":[-1.27936015E-2,2.720649E-1,-2.3145033E-1,7.165944E-3,-7.392709E-4,-5.7134926E-3,1.1669213E-3],"categories":[],"categories_nodes":[],"categories_segments":[],"categories_sizes":[],"default_left":[0,0,0,0,0,0,0],"id":31,"left_children":[1,3,5,-1,-1,-1,-1],"loss_changes":[1.1568096E1,2.632125E0,2.1580029E0,0E0,0E0,0E0,0E0],"parents":[2147483647,0,0,1,1,2,2],"right_children":[2,4,6,-1,-1,-1,-1],"split_conditions":[1E0,1E0,1E0,7.165944E-3,-7.392709E-4,-5.7134926E-3,1.1669213E-3],"split_indices":[4,5229,4472,0,0,0,0],"split_type":[0,0,0,0,0,0,0],"sum_hessian":[1.5621231E2,6.425973E1,9.195258E1,5.09007E1,1.3359023E1,8.054559E1,1.1406986E1],"tree_param":{"num_deleted":"0","num_feature":"6170","num_nodes":"7","size_leaf_vector":"1"}},{"base_weights":[-3.245698E-2,1.8482997E-1,-2.5369677E-1,6.1656376E-3,-1.5107733E-3,-5.7798782E-3,-0E0],"categories":[],"categories_nodes":[],"categories_segments":[],"categories_sizes":[],"default_left":[0,0,0,0,0,0,0],"id":32,"left_children":[1,3,5,-1,-1,-1,-1],"loss_changes":[8.972341E0,3.5538394E0,1.0918784E0,0E0,0E0,0E0,0E0],"parents":[2147483647,0,0,1,1,2,2],"right_children":[2,4,6,-1,-1,-1,-1],"split_conditions":[1E0,1E0,1E0,6.1656376E-3,-1.5107733E-3,-5.7798782E-3,-0E0],"split_indices":[6,1,3143,0,0,0,0],"split_type":[0,0,0,0,0,0,0],"sum_hessian":[1.5557794E2,7.745521E1,7.8122734E1,5.3275433E1,2.4179775E1,6.9837906E1,8.28483E0],"tree_param":{"num_deleted":"0","num_feature":"6170","num_nodes":"7","size_leaf_vector":"1"}},{"base_weights":[8.623735E-2,-6.607628E-2,3.2614604E-1,-3.739455E-3,2.3285984E-3,7.150309E-5,8.465459E-3],"categories":[],"categories_nodes":[],"categories_segments":[],"categories_sizes":[],"default_left":[0,0,0,0,0,0,0],"id":33,"left_children":[1,3,5,-1,-1,-1,-1],"loss_changes":[6.9850254E0,2.9804049E0,1.8409848E0,0E0,0E0,0E0,0E0],"parents":[2147483647,0,0,1,1,2,2],"right_children":[2,4,6,-1,-1,-1,-1],"split_conditions":[1E0,1E0,1E0,-3.739455E-3,2.3285984E-3,7.150309E-5,8.465459E-3],"split_indices":[10,1709,4350,0,0,0,0],"split_type":[0,0,0,0,0,0,0],"sum_hessian":[1.6019046E2,1.0208131E2,5.810915E1,6.448023E1,3.7601078E1,1.942944E1,3.867971E1],"tree_param":{"num_deleted":"0","num_feature":"6170","num_nodes":"7","size_leaf_vector":"1"}},{"base_weights":[-2.1302214E-2,2.864587E-1,-2.8749552E-1,6.7469715E-3,-3.1100662E-4,-6.9001936E-3,-0E0],"categories":[],"categories_nodes":[],"categories_segments":[],"categories_sizes":[],"default_left":[0,0,0,0,0,0,0],"id":34,"left_children":[1,3,5,-1,-1,-1,-1],"loss_changes":[1.486085E1,1.6746283E0,1.9665804E0,0E0,0E0,0E0,0E0],"parents":[2147483647,0,0,1,1,2,2],"right_children":[2,4,6,-1,-1,-1,-1],"split_conditions":[1E0,1E0,1E0,6.7469715E-3,-3.1100662E-4,-6.9001936E-3,-0E0],"split_indices":[4,3509,1257,0,0,0,0],"split_type":[0,0,0,0,0,0,0],"sum_hessian":[1.5130652E2,6.790228E1,8.3404236E1,5.9441982E1,8.460301E0,6.98518E1,1.3552435E1],"tree_param":{"num_deleted":"0","num_feature":"6170","num_nodes":"7","size_leaf_vector":"1"}},{"base_weights":[-5.5238113E-2,1.4419627E-1,-3.4006983E-1,4.835408E-3,-2.7579537E-3,-7.761085E-3,-1.369616E-4],"categories":[],"categories_nodes":[],"categories_segments":[],"categories_sizes":[],"default_left":[0,0,0,0,0,0,0],"id":35,"left_children":[1,3,5,-1,-1,-1,-1],"loss_changes":[1.0616031E1,3.5971742E0,7.9231644E-1,0E0,0E0,0E0,0E0],"parents":[2147483647,0,0,1,1,2,2],"right_children":[2,4,6,-1,-1,-1,-1],"split_conditions":[4E0,1E0,1E0,4.835408E-3,-2.7579537E-3,-7.761085E-3,-1.369616E-4],"split_indices":[16,4852,2297,0,0,0,0],"split_type":[0,0,0,0,0,0,0],"sum_hessian":[1.5548788E2,9.374477E1,6.174312E1,7.3879486E1,1.9865278E1,4.9190342E1,1.2552775E1],"tree_param":{"num_deleted":"0","num_feature":"6170","num_nodes":"7","size_leaf_vector":"1"}},{"base_weights":[4.8264015E-2,-1.3683091E-1,3.6950073E-1,-4.498707E-3,4.946947E-3,2.881077E-4,9.373098E-3],"categories":[],"categories_nodes":[],"categories_segments":[],"categories_sizes":[],"default_left":[0,0,0,0,0,0,0],"id":36,"left_children":[1,3,5,-1,-1,-1,-1],"loss_changes":[1.1162361E1,4.789288E0,1.8297052E0,0E0,0E0,0E0,0E0],"parents":[2147483647,0,0,1,1,2,2],"right_children":[2,4,6,-1,-1,-1,-1],"split_conditions":[1E0,1E0,1E0,-4.498707E-3,4.946947E-3,2.881077E-4,9.373098E-3],"split_indices":[1,6078,13,0,0,0,0],"split_type":[0,0,0,0,0,0,0],"sum_hessian":[1.5606332E2,1.02500725E2,5.3562607E1,9.055422E1,1.1946499E1,1.7643055E1,3.591955E1],"tree_param":{"num_deleted":"0","num_feature":"6170","num_nodes":"7","size_leaf_vector":"1"}},{"base_weights":[-6.479322E-2,2.1668214E-1,-2.6698175E-1,1.174752E-3,7.367203E-3,-6.077367E-3,-0E0],"categories":[],"categories_nodes":[],"categories_segments":[],"categories_sizes":[],"default_left":[0,0,0,0,0,0,0],"id":37,"left_children":[1,3,5,-1,-1,-1,-1],"loss_changes":[1.0759788E1,1.1290512E0,1.2535739E0,0E0,0E0,0E0,0E0],"parents":[2147483647,0,0,1,1,2,2],"right_children":[2,4,6,-1,-1,-1,-1],"split_conditions":[1E0,1E0,1E0,1.174752E-3,7.367203E-3,-6.077367E-3,-0E0],"split_indices":[4,296,296,0,0,0,0],"split_type":[0,0,0,0,0,0,0],"sum_hessian":[1.5793175E2,6.3503986E1,9.4427765E1,4.453291E1,1.8971077E1,8.304958E1,1.1378181E1],"tree_param":{"num_deleted":"0","num_feature":"6170","num_nodes":"7","size_leaf_vector":"1"}},{"base_weights":[-0E0,1.3129707E-1,-1.365506E-1,4.308689E-3,-2.538347E-3,-4.4154255E-3,8.2681756E-5],"categories":[],"categories_nodes":[],"categories_segments":[],"categories_sizes":[],"default_left":[0,0,0,0,0,0,0],"id":38,"left_children":[1,3,5,-1,-1,-1,-1],"loss_changes":[3.32086E0,2.5286684E0,1.3169814E0,0E0,0E0,0E0,0E0],"parents":[2147483647,0,0,1,1,2,2],"right_children":[2,4,6,-1,-1,-1,-1],"split_conditions":[1E0,1E0,1E0,4.308689E-3,-2.538347E-3,-4.4154255E-3,8.2681756E-5],"split_indices":[6,809,1709,0,0,0,0],"split_type":[0,0,0,0,0,0,0],"sum_hessian":[1.5515125E2,7.843936E1,7.671189E1,6.3957233E1,1.4482128E1,4.709043E1,2.9621462E1],"tree_param":{"num_deleted":"0","num_feature":"6170","num_nodes":"7","size_leaf_vector":"1"}},{"base_weights":[7.542028E-2,-3.1228566E-1,4.979474E-1,-8.272078E-3,1.4136058E-3,-3.3307838E-4,1.2935675E-2],"categories":[],"categories_nodes":[],"categories_segments":[],"categories_sizes":[],"default_left":[0,0,0,0,0,0,0],"id":39,"left_children":[1,3,5,-1,-1,-1,-1],"loss_changes":[2.9564775E1,4.4320135E0,7.380045E0,0E0,0E0,0E0,0E0],"parents":[2147483647,0,0,1,1,2,2],"right_children":[2,4,6,-1,-1,-1,-1],"split_conditions":[4E0,4E0,3E0,-8.272078E-3,1.4136058E-3,-3.3307838E-4,1.2935675E-2],"split_indices":[16,19,19,0,0,0,0],"split_type":[0,0,0,0,0,0,0],"sum_hessian":[1.5010316E2,7.908376E1,7.10194E1,6.36544E1,1.5429362E1,1.741385E1,5.360555E1],"tree_param":{"num_deleted":"0","num_feature":"6170","num_nodes":"7","size_leaf_vector":"1"}},{"base_weights":[-6.092782E-2,2.3477086E-1,-2.7416757E-1,-1.0870264E-3,8.0570895E-3,-6.7365104E-3,9.1524626E-4],"categories":[],"categories_nodes":[],"categories_segments":[],"categories_sizes":[],"default_left":[0,0,0,0,0,0,0],"id":40,"left_children":[1,3,5,-1,-1,-1,-1],"loss_changes":[1.1659345E1,4.4146533E0,2.6683846E0,0E0,0E0,0E0,0E0],"parents":[2147483647,0,0,1,1,2,2],"right_children":[2,4,6,-1,-1,-1,-1],"split_conditions":[1E0,1E0,1E0,-1.0870264E-3,8.0570895E-3,-6.7365104E-3,9.1524626E-4],"split_indices":[4,6,296,0,0,0,0],"split_type":[0,0,0,0,0,0,0],"sum_hessian":[1.539715E2,6.191294E1,9.2058556E1,2.4305326E1,3.7607616E1,7.8933105E1,1.3125448E1],"tree_param":{"num_deleted":"0","num_feature":"6170","num_nodes":"7","size_leaf_vector":"1"}},{"base_weights":[-0E0,1.3323739E-1,-1.4868717E-1,7.367099E-5,6.9289515E-3,-4.261779E-3,2.381082E-3],"categories":[],"categories_nodes":[],"categories_segments":[],"categories_sizes":[],"default_left":[0,0,0,0,0,0,0],"id":41,"left_children":[1,3,5,-1,-1,-1,-1],"loss_changes":[3.609519E0,2.2759638E0,1.9638699E0,0E0,0E0,0E0,0E0],"parents":[2147483647,0,0,1,1,2,2],"right_children":[2,4,6,-1,-1,-1,-1],"split_conditions":[1E0,4E0,1E0,7.367099E-5,6.9289515E-3,-4.261779E-3,2.381082E-3],"split_indices":[3,17,3500,0,0,0,0],"split_type":[0,0,0,0,0,0,0],"sum_hessian":[1.5213599E2,8.0764885E1,7.13711E1,6.2647476E1,1.8117407E1,6.3011322E1,8.359778E0],"tree_param":{"num_deleted":"0","num_feature":"6170","num_nodes":"7","size_leaf_vector":"1"}},{"base_weights":[9.8559834E-2,-3.4029168E-1,6.4724785E-1,-9.03915E-3,1.689087E-3,-1.630674E-4,1.6124908E-2],"categories":[],"categories_nodes":[],"categories_segments":[],"categories_sizes":[],"default_left":[0,0,0,0,0,0,0],"id":42,"left_children":[1,3,5,-1,-1,-1,-1],"loss_changes":[4.4527756E1,5.8362827E0,9.409885E0,0E0,0E0,0E0,0E0],"parents":[2147483647,0,0,1,1,2,2],"right_children":[2,4,6,-1,-1,-1,-1],"split_conditions":[4E0,4E0,1E0,-9.03915E-3,1.689087E-3,-1.630674E-4,1.6124908E-2],"split_indices":[16,19,4,0,0,0,0],"split_type":[0,0,0,0,0,0,0],"sum_hessian":[1.5492638E2,8.82316E1,6.6694786E1,7.096758E1,1.7264019E1,1.4571455E1,5.212333E1],"tree_param":{"num_deleted":"0","num_feature":"6170","num_nodes":"7","size_leaf_vector":"1"}},{"base_weights":[1.0227822E-2,-2.503771E-1,2.725129E-1,2.0658458E-3,-6.381747E-3,9.59175E-3,-2.6737244E-3],"categories":[],"categories_nodes":[],"categories_segments":[],"categories_sizes":[],"default_left":[0,0,0,0,0,0,0],"id":43,"left_children":[1,3,5,-1,-1,-1,-1],"loss_changes":[1.2666939E1,2.9261227E0,9.200136E0,0E0,0E0,0E0,0E0],"parents":[2147483647,0,0,1,1,2,2],"right_children":[2,4,6,-1,-1,-1,-1],"split_conditions":[1E0,2E0,1E0,2.0658458E-3,-6.381747E-3,9.59175E-3,-2.6737244E-3],"split_indices":[6,18,3,0,0,0,0],"split_type":[0,0,0,0,0,0,0],"sum_hessian":[1.5501997E2,7.61882E1,7.883177E1,8.798201E0,6.739E1,5.204947E1,2.6782307E1],"tree_param":{"num_deleted":"0","num_feature":"6170","num_nodes":"7","size_leaf_vector":"1"}},{"base_weights":[-3.6976216E-3,2.0799774E-1,-6.169787E-3,5.311389E-3,-9.829684E-4],"categories":[],"categories_nodes":[],"categories_segments":[],"categories_sizes":[],"default_left":[0,0,0,0,0],"id":44,"left_children":[1,3,-1,-1,-1],"loss_changes":[1.1035759E1,1.8664937E0,0E0,0E0,0E0],"parents":[2147483647,0,0,1,1],"right_children":[2,4,-1,-1,-1],"split_conditions":[4E0,1E0,-6.169787E-3,5.311389E-3,-9.829684E-4],"split_indices":[16,5488,0,0,0],"split_type":[0,0,0,0,0],"sum_hessian":[1.3956183E2,8.323383E1,5.632799E1,7.0783745E1,1.2450083E1],"tree_param":{"num_deleted":"0","num_feature":"6170","num_nodes":"5","size_leaf_vector":"1"}},{"base_weights":[5.762264E-2,-3.9856455E-1,3.9117676E-1,-8.6810505E-3,-5.0958165E-4,8.729694E-3,-2.6592307E-4],"categories":[],"categories_nodes":[],"categories_segments":[],"categories_sizes":[],"default_left":[0,0,0,0,0,0,0],"id":45,"left_children":[1,3,5,-1,-1,-1,-1],"loss_changes":[2.8367195E1,4.1301632E-1,2.4834595E0,0E0,0E0,0E0,0E0],"parents":[2147483647,0,0,1,1,2,2],"right_children":[2,4,6,-1,-1,-1,-1],"split_conditions":[1E0,5E0,1E0,-8.6810505E-3,-5.0958165E-4,8.729694E-3,-2.6592307E-4],"split_indices":[4,18,1789,0,0,0,0],"split_type":[0,0,0,0,0,0,0],"sum_hessian":[1.561055E2,6.3431496E1,9.2673996E1,5.3236115E1,1.0195383E1,8.449435E1,8.17965E0],"tree_param":{"num_deleted":"0","num_feature":"6170","num_nodes":"7","size_leaf_vector":"1"}},{"base_weights":[-1.5407758E-2,2.837314E-1,-2.3509136E-1,6.6512E-3,-0E0,-5.693764E-3,5.238704E-4],"categories":[],"categories_nodes":[],"categories_segments":[],"categories_sizes":[],"default_left":[0,0,0,0,0,0,0],"id":46,"left_children":[1,3,5,-1,-1,-1,-1],"loss_changes":[1.2005728E1,1.3016343E0,1.7584248E0,0E0,0E0,0E0,0E0],"parents":[2147483647,0,0,1,1,2,2],"right_children":[2,4,6,-1,-1,-1,-1],"split_conditions":[1E0,1E0,1E0,6.6512E-3,-0E0,-5.693764E-3,5.238704E-4],"split_indices":[4,6138,4472,0,0,0,0],"split_type":[0,0,0,0,0,0,0],"sum_hessian":[1.5320609E2,6.109244E1,9.211364E1,5.2157337E1,8.935102E0,7.9505646E1,1.2607999E1],"tree_param":{"num_deleted":"0","num_feature":"6170","num_nodes":"7","size_leaf_vector":"1"}},{"base_weights":[-1.0344986E-2,2.031532E-1,-2.3412499E-1,6.3950503E-3,-1.2814499E-3,-5.768187E-3,1.3429986E-3],"categories":[],"categories_nodes":[],"categories_segments":[],"categories_sizes":[],"default_left":[0,0,0,0,0,0,0],"id":47,"left_children":[1,3,5,-1,-1,-1,-1],"loss_changes":[9.035222E0,3.5090358E0,2.0487862E0,0E0,0E0,0E0,0E0],"parents":[2147483647,0,0,1,1,2,2],"right_children":[2,4,6,-1,-1,-1,-1],"split_conditions":[1E0,1E0,1E0,6.3950503E-3,-1.2814499E-3,-5.768187E-3,1.3429986E-3],"split_indices":[6,1,79,0,0,0,0],"split_type":[0,0,0,0,0,0,0],"sum_hessian":[1.5853261E2,7.95508E1,7.8981804E1,5.593725E1,2.361355E1,7.027863E1,8.703172E0],"tree_param":{"num_deleted":"0","num_feature":"6170","num_nodes":"7","size_leaf_vector":"1"}},{"base_weights":[9.235265E-2,-4.4187114E-2,4.4183502E-1,-2.7968937E-3,6.9087627E-3,1.1439113E-2,-6.3911546E-4],"categories":[],"categories_nodes":[],"categories_segments":[],"categories_sizes":[],"default_left":[0,0,0,0,0,0,0],"id":48,"left_children":[1,3,5,-1,-1,-1,-1],"loss_changes":[8.891252E0,5.5563684E0,4.0015755E0,0E0,0E0,0E0,0E0],"parents":[2147483647,0,0,1,1,2,2],"right_children":[2,4,6,-1,-1,-1,-1],"split_conditions":[4E0,1E0,1E0,-2.7968937E-3,6.9087627E-3,1.1439113E-2,-6.3911546E-4],"split_indices":[19,4602,12,0,0,0,0],"split_type":[0,0,0,0,0,0,0],"sum_hessian":[1.5685783E2,1.20156E2,3.670183E1,1.0625251E2,1.3903484E1,2.8011585E1,8.690247E0],"tree_param":{"num_deleted":"0","num_feature":"6170","num_nodes":"7","size_leaf_vector":"1"}},{"base_weights":[-6.461979E-2,-1.857562E-1,2.8810623E-1,-1.09288856E-4,-5.3051403E-3,8.49817E-3,-1.1502084E-3],"categories":[],"categories_nodes":[],"categories_segments":[],"categories_sizes":[],"default_left":[0,0,0,0,0,0,0],"id":49,"left_children":[1,3,5,-1,-1,-1,-1],"loss_changes":[8.270262E0,1.7587028E0,3.0535264E0,0E0,0E0,0E0,0E0],"parents":[2147483647,0,0,1,1,2,2],"right_children":[2,4,6,-1,-1,-1,-1],"split_conditions":[1E0,1E0,1E0,-1.09288856E-4,-5.3051403E-3,8.49817E-3,-1.1502084E-3],"split_indices":[296,4,10,0,0,0,0],"split_type":[0,0,0,0,0,0,0],"sum_hessian":[1.6216382E2,1.2810458E2,3.405925E1,4.7957092E1,8.0147484E1,2.4008312E1,1.0050938E1],"tree_param":{"num_deleted":"0","num_feature":"6170","num_nodes":"7","size_leaf_vector":"1"}},{"base_weights":[-5.22955E-2,1.5996631E-2,-6.277009E-3,-8.9644897E-4,3.2863426E-3],"categories":[],"categories_nodes":[],"categories_segments":[],"categories_sizes":[],"default_left":[0,0,0,0,0],"id":50,"left_children":[1,3,-1,-1,-1],"loss_changes":[3.3526826E0,1.5245463E0,0E0,0E0,0E0],"parents":[2147483647,0,0,1,1],"right_children":[2,4,-1,-1,-1],"split_conditions":[1E0,4E0,-6.277009E-3,-8.9644897E-4,3.2863426E-3],"split_indices":[289,17,0,0,0],"split_type":[0,0,0,0,0],"sum_hessian":[1.5180641E2,1.2851135E2,2.3295061E1,9.378109E1,3.473026E1],"tree_param":{"num_deleted":"0","num_feature":"6170","num_nodes":"5","size_leaf_vector":"1"}},{"base_weights":[1.23624215E-2,-9.918824E-2,3.1452432E-1,-3.780772E-3,5.0258953E-3,8.920607E-3,-1.6917653E-3],"categories":[],"categories_nodes":[],"categories_segments":[],"categories_sizes":[],"default_left":[0,0,0,0,0,0,0],"id":51,"left_children":[1,3,5,-1,-1,-1,-1],"loss_changes":[6.685295E0,5.0288553E0,3.7629852E0,0E0,0E0,0E0,0E0],"parents":[2147483647,0,0,1,1,2,2],"right_children":[2,4,6,-1,-1,-1,-1],"split_conditions":[4E0,1E0,1E0,-3.780772E-3,5.0258953E-3,8.920607E-3,-1.6917653E-3],"split_indices":[19,809,12,0,0,0,0],"split_type":[0,0,0,0,0,0,0],"sum_hessian":[1.6306737E2,1.2404108E2,3.9026295E1,1.0650102E2,1.7540052E1,2.9912481E1,9.113815E0],"tree_param":{"num_deleted":"0","num_feature":"6170","num_nodes":"7","size_leaf_vector":"1"}},{"base_weights":[-2.926912E-4,-4.6010325E-3,2.3311855E-1,6.3442127E-3,-2.932754E-3],"categories":[],"categories_nodes":[],"categories_segments":[],"categories_sizes":[],"default_left":[0,0,0,0,0],"id":52,"left_children":[1,-1,3,-1,-1],"loss_changes":[9.55918E0,0E0,3.6242547E0,0E0,0E0],"parents":[2147483647,0,0,2,2],"right_children":[2,-1,4,-1,-1],"split_conditions":[1E0,-4.6010325E-3,1E0,6.3442127E-3,-2.932754E-3],"split_indices":[6,0,79,0,0],"split_type":[0,0,0,0,0],"sum_hessian":[1.4830565E2,7.700539E1,7.130027E1,6.255257E1,8.747698E0],"tree_param":{"num_deleted":"0","num_feature":"6170","num_nodes":"5","size_leaf_vector":"1"}},{"base_weights":[-3.9321717E-2,1.5930186E-1,-6.381919E-3,6.060847E-3,-4.83711E-4],"categories":[],"categories_nodes":[],"categories_segments":[],"categories_sizes":[],"default_left":[0,0,0,0,0],"id":53,"left_children":[1,3,-1,-1,-1],"loss_changes":[1.0501503E1,3.2564058E0,0E0,0E0,0E0],"parents":[2147483647,0,0,1,1],"right_children":[2,4,-1,-1,-1],"split_conditions":[4E0,1E0,-6.381919E-3,6.060847E-3,-4.83711E-4],"split_indices":[16,6,0,0,0],"split_type":[0,0,0,0,0],"sum_hessian":[1.5738188E2,9.372635E1,6.365553E1,5.013106E1,4.359529E1],"tree_param":{"num_deleted":"0","num_feature":"6170","num_nodes":"5","size_leaf_vector":"1"}},{"base_weights":[2.5342276E-2,-3.337029E-1,4.886238E-1,-7.3286514E-3,-0E0,1.2260858E-2,2.158889E-3],"categories":[],"categories_nodes":[],"categories_segments":[],"categories_sizes":[],"default_left":[0,0,0,0,0,0,0],"id":54,"left_children":[1,3,5,-1,-1,-1,-1],"loss_changes":[3.1965721E1,1.2545547E0,2.2830868E0,0E0,0E0,0E0,0E0],"parents":[2147483647,0,0,1,1,2,2],"right_children":[2,4,6,-1,-1,-1,-1],"split_conditions":[4E0,1E0,1E0,-7.3286514E-3,-0E0,1.2260858E-2,2.158889E-3],"split_indices":[16,4552,2,0,0,0,0],"split_type":[0,0,0,0,0,0,0],"sum_hessian":[1.6153691E2,9.215406E1,6.938285E1,8.3210304E1,8.943755E0,4.3411663E1,2.5971188E1],"tree_param":{"num_deleted":"0","num_feature":"6170","num_nodes":"7","size_leaf_vector":"1"}},{"base_weights":[-3.3917107E-2,-2.6059762E-1,1.952239E-1,-2.0007271E-4,-6.446817E-3,7.28272E-3,-2.391117E-3],"categories":[],"categories_nodes":[],"categories_segments":[],"categories_sizes":[],"default_left":[0,0,0,0,0,0,0],"id":55,"left_children":[1,3,5,-1,-1,-1,-1],"loss_changes":[9.622361E0,1.0694656E0,5.7135353E0,0E0,0E0,0E0,0E0],"parents":[2147483647,0,0,1,1,2,2],"right_children":[2,4,6,-1,-1,-1,-1],"split_conditions":[1E0,3E0,1E0,-2.0007271E-4,-6.446817E-3,7.28272E-3,-2.391117E-3],"split_indices":[6,19,3,0,0,0,0],"split_type":[0,0,0,0,0,0,0],"sum_hessian":[1.5430228E2,7.872628E1,7.5576E1,2.2210033E1,5.6516247E1,4.97206E1,2.5855398E1],"tree_param":{"num_deleted":"0","num_feature":"6170","num_nodes":"7","size_leaf_vector":"1"}},{"base_weights":[-4.9470343E-2,1.299515E-1,-3.1771794E-1,-0E0,4.194487E-3,-8.787202E-4,-7.0977635E-3],"categories":[],"categories_nodes":[],"categories_segments":[],"categories_sizes":[],"default_left":[0,0,0,0,0,0,0],"id":56,"left_children":[1,3,5,-1,-1,-1,-1],"loss_changes":[8.872561E0,1.277474E0,1.1783075E-1,0E0,0E0,0E0,0E0],"parents":[2147483647,0,0,1,1,2,2],"right_children":[2,4,6,-1,-1,-1,-1],"split_conditions":[4E0,1E0,3E0,-0E0,4.194487E-3,-8.787202E-4,-7.0977635E-3],"split_indices":[16,4311,19,0,0,0,0],"split_type":[0,0,0,0,0,0,0],"sum_hessian":[1.5257872E2,9.382664E1,5.8752087E1,3.799973E1,5.5826904E1,1.4151445E1,4.4600643E1],"tree_param":{"num_deleted":"0","num_feature":"6170","num_nodes":"7","size_leaf_vector":"1"}},{"base_weights":[5.343738E-2,-7.398236E-3,3.7301737E-1,9.7341295E-3,-3.2680936E-4],"categories":[],"categories_nodes":[],"categories_segments":[],"categories_sizes":[],"default_left":[0,0,0,0,0],"id":57,"left_children":[1,-1,3,-1,-1],"loss_changes":[2.6469444E1,0E0,5.528366E0,0E0,0E0],"parents":[2147483647,0,0,2,2],"right_children":[2,-1,4,-1,-1],"split_conditions":[1E0,-7.398236E-3,1E0,9.7341295E-3,-3.2680936E-4],"split_indices":[4,0,6152,0,0],"split_type":[0,0,0,0,0],"sum_hessian":[1.6532281E2,6.875337E1,9.656944E1,7.3829765E1,2.2739676E1],"tree_param":{"num_deleted":"0","num_feature":"6170","num_nodes":"5","size_leaf_vector":"1"}},{"base_weights":[-4.8655894E-2,1.0038489E-1,-2.2637358E-1,3.4026557E-3,-1.5435565E-3,-0E0,-5.98294E-3],"categories":[],"categories_nodes":[],"categories_segments":[],"categories_sizes":[],"default_left":[0,0,0,0,0,0,0],"id":58,"left_children":[1,3,5,-1,-1,-1,-1],"loss_changes":[4.740676E0,1.4675531E0,1.2684469E0,0E0,0E0,0E0,0E0],"parents":[2147483647,0,0,1,1,2,2],"right_children":[2,4,6,-1,-1,-1,-1],"split_conditions":[1E0,1E0,1E0,3.4026557E-3,-1.5435565E-3,-0E0,-5.98294E-3],"split_indices":[14,4570,4350,0,0,0,0],"split_type":[0,0,0,0,0,0,0],"sum_hessian":[1.4635428E2,8.008893E1,6.626535E1,6.199595E1,1.809298E1,2.0555168E1,4.5710182E1],"tree_param":{"num_deleted":"0","num_feature":"6170","num_nodes":"7","size_leaf_vector":"1"}},{"base_weights":[-5.474433E-2,1.3283867E-2,-4.780914E-3,1.7529167E-3,-1.9055991E-3],"categories":[],"categories_nodes":[],"categories_segments":[],"categories_sizes":[],"default_left":[0,0,0,0,0],"id":59,"left_children":[1,3,-1,-1,-1],"loss_changes":[2.3900123E0,1.1958103E0,0E0,0E0,0E0],"parents":[2147483647,0,0,1,1],"right_children":[2,4,-1,-1,-1],"split_conditions":[1E0,1E0,-4.780914E-3,1.7529167E-3,-1.9055991E-3],"split_indices":[5178,5285,0,0,0],"split_type":[0,0,0,0,0],"sum_hessian":[1.5382045E2,1.1855361E2,3.526683E1,7.754185E1,4.101177E1],"tree_param":{"num_deleted":"0","num_feature":"6170","num_nodes":"5","size_leaf_vector":"1"}},{"base_weights":[6.578391E-2,-9.1934E-2,2.9797766E-1,-3.7924235E-3,3.4146612E-3,-0E0,7.578091E-3],"categories":[],"categories_nodes":[],"categories_segments":[],"categories_sizes":[],"default_left":[0,0,0,0,0,0,0],"id":60,"left_children":[1,3,5,-1,-1,-1,-1],"loss_changes":[7.133475E0,3.451852E0,2.1222653E0,0E0,0E0,0E0,0E0],"parents":[2147483647,0,0,1,1,2,2],"right_children":[2,4,6,-1,-1,-1,-1],"split_conditions":[1E0,4E0,3E0,-3.7924235E-3,3.4146612E-3,-0E0,7.578091E-3],"split_indices":[1709,19,19,0,0,0,0],"split_type":[0,0,0,0,0,0,0],"sum_hessian":[1.6294426E2,9.986501E1,6.307924E1,7.860859E1,2.1256424E1,1.5008555E1,4.8070683E1],"tree_param":{"num_deleted":"0","num_feature":"6170","num_nodes":"7","size_leaf_vector":"1"}},{"base_weights":[-6.012429E-2,-2.744582E-1,1.4977619E-1,-6.544908E-3,-0E0,5.0780913E-3,-3.8724865E-3],"categories":[],"categories_nodes":[],"categories_segments":[],"categories_sizes":[],"default_left":[0,0,0,0,0,0,0],"id":61,"left_children":[1,3,5,-1,-1,-1,-1],"loss_changes":[8.264666E0,1.2121487E0,4.081515E0,0E0,0E0,0E0,0E0],"parents":[2147483647,0,0,1,1,2,2],"right_children":[2,4,6,-1,-1,-1,-1],"split_conditions":[1E0,1E0,1E0,-6.544908E-3,-0E0,5.0780913E-3,-3.8724865E-3],"split_indices":[6,2297,27,0,0,0,0],"split_type":[0,0,0,0,0,0,0],"sum_hessian":[1.5222775E2,7.539302E1,7.683473E1,5.9901886E1,1.5491131E1,6.4191444E1,1.2643292E1],"tree_param":{"num_deleted":"0","num_feature":"6170","num_nodes":"7","size_leaf_vector":"1"}},{"base_weights":[-4.2385258E-2,-9.408599E-2,5.75859E-3,-3.2041415E-3,1.6831364E-3],"categories":[],"categories_nodes":[],"categories_segments":[],"categories_sizes":[],"default_left":[0,0,0,0,0],"id":62,"left_children":[1,3,-1,-1,-1],"loss_changes":[3.1452763E0,2.19244E0,0E0,0E0,0E0],"parents":[2147483647,0,0,1,1],"right_children":[2,4,-1,-1,-1],"split_conditions":[1E0,1E0,5.75859E-3,-3.2041415E-3,1.6831364E-3],"split_indices":[704,6138,0,0,0],"split_type":[0,0,0,0,0],"sum_hessian":[1.5673271E2,1.4741434E2,9.3183775E0,1.12725655E2,3.4688675E1],"tree_param":{"num_deleted":"0","num_feature":"6170","num_nodes":"5","size_leaf_vector":"1"}},{"base_weights":[8.6063426E-4,-3.623011E-1,4.587329E-1,-8.868818E-3,-0E0,-1.1886049E-3,1.2064084E-2],"categories":[],"categories_nodes":[],"categories_segments":[],"categories_sizes":[],"default_left":[0,0,0,0,0,0,0],"id":63,"left_children":[1,3,5,-1,-1,-1,-1],"loss_changes":[3.10957E1,3.3195763E0,7.344719E0,0E0,0E0,0E0,0E0],"parents":[2147483647,0,0,1,1,2,2],"right_children":[2,4,6,-1,-1,-1,-1],"split_conditions":[4E0,4E0,1E0,-8.868818E-3,-0E0,-1.1886049E-3,1.2064084E-2],"split_indices":[16,19,4,0,0,0,0],"split_type":[0,0,0,0,0,0,0],"sum_hessian":[1.5643365E2,8.776762E1,6.866604E1,7.048151E1,1.7286112E1,1.5386901E1,5.3279137E1],"tree_param":{"num_deleted":"0","num_feature":"6170","num_nodes":"7","size_leaf_vector":"1"}},{"base_weights":[8.942235E-3,3.2733238E-1,-2.2245294E-1,7.3331757E-3,-0E0,-5.620563E-3,1.1500434E-3],"categories":[],"categories_nodes":[],"categories_segments":[],"categories_sizes":[],"default_left":[0,0,0,0,0,0,0],"id":64,"left_children":[1,3,5,-1,-1,-1,-1],"loss_changes":[1.3667563E1,7.1360874E-1,2.1899924E0,0E0,0E0,0E0,0E0],"parents":[2147483647,0,0,1,1,2,2],"right_children":[2,4,6,-1,-1,-1,-1],"split_conditions":[1E0,5E0,1E0,7.3331757E-3,-0E0,-5.620563E-3,1.1500434E-3],"split_indices":[4,18,296,0,0,0,0],"split_type":[0,0,0,0,0,0,0],"sum_hessian":[1.5426532E2,6.412902E1,9.01363E1,5.3373207E1,1.075581E1,7.7446594E1,1.2689703E1],"tree_param":{"num_deleted":"0","num_feature":"6170","num_nodes":"7","size_leaf_vector":"1"}},{"base_weights":[-3.651423E-2,7.948993E-2,-1.7196737E-1,4.1833194E-3,-4.2754237E-4,-5.0316835E-3,5.616581E-4],"categories":[],"categories_nodes":[],"categories_segments":[],"categories_sizes":[],"default_left":[0,0,0,0,0,0,0],"id":65,"left_children":[1,3,5,-1,-1,-1,-1],"loss_changes":[3.0238225E0,1.5595095E0,1.7432086E0,0E0,0E0,0E0,0E0],"parents":[2147483647,0,0,1,1,2,2],"right_children":[2,4,6,-1,-1,-1,-1],"split_conditions":[1E0,1E0,1E0,4.1833194E-3,-4.2754237E-4,-5.0316835E-3,5.616581E-4],"split_indices":[4691,3006,6152,0,0,0,0],"split_type":[0,0,0,0,0,0,0],"sum_hessian":[1.5850461E2,8.474359E1,7.376102E1,3.4368206E1,5.037539E1,5.3574066E1,2.0186947E1],"tree_param":{"num_deleted":"0","num_feature":"6170","num_nodes":"7","size_leaf_vector":"1"}},{"base_weights":[1.2919858E-2,-7.5864336E-3,2.8355423E-1,6.8838787E-3,-1.7048633E-3],"categories":[],"categories_nodes":[],"categories_segments":[],"categories_sizes":[],"default_left":[0,0,0,0,0],"id":66,"left_children":[1,-1,3,-1,-1],"loss_changes":[1.979418E1,0E0,3.203123E0,0E0,0E0],"parents":[2147483647,0,0,2,2],"right_children":[2,-1,4,-1,-1],"split_conditions":[1E0,-7.5864336E-3,1E0,6.8838787E-3,-1.7048633E-3],"split_indices":[4,0,12,0,0],"split_type":[0,0,0,0,0],"sum_hessian":[1.571703E2,6.0200363E1,9.696993E1,8.6465065E1,1.0504863E1],"tree_param":{"num_deleted":"0","num_feature":"6170","num_nodes":"5","size_leaf_vector":"1"}},{"base_weights":[1.1924808E-2,3.0321065E-1,-2.071545E-1,-5.905413E-4,9.248372E-3,1.6001293E-3,-5.7919566E-3],"categories":[],"categories_nodes":[],"categories_segments":[],"categories_sizes":[],"default_left":[0,0,0,0,0,0,0],"id":67,"left_children":[1,3,5,-1,-1,-1,-1],"loss_changes":[1.2358748E1,5.0979996E0,3.11871E0,0E0,0E0,0E0,0E0],"parents":[2147483647,0,0,1,1,2,2],"right_children":[2,4,6,-1,-1,-1,-1],"split_conditions":[1E0,1E0,3E0,-5.905413E-4,9.248372E-3,1.6001293E-3,-5.7919566E-3],"split_indices":[4,6,19,0,0,0,0],"split_type":[0,0,0,0,0,0,0],"sum_hessian":[1.6239676E2,6.919712E1,9.319964E1,2.4315582E1,4.4881535E1,1.818226E1,7.501737E1],"tree_param":{"num_deleted":"0","num_feature":"6170","num_nodes":"7","size_leaf_vector":"1"}},{"base_weights":[-4.7689855E-2,1.619982E-1,-2.7658263E-1,7.284042E-3,-8.333844E-4,-1.1815104E-3,-6.407514E-3],"categories":[],"categories_nodes":[],"categories_segments":[],"categories_sizes":[],"default_left":[0,0,0,0,0,0,0],"id":68,"left_children":[1,3,5,-1,-1,-1,-1],"loss_changes":[8.901262E0,4.479581E0,1.8109941E-1,0E0,0E0,0E0,0E0],"parents":[2147483647,0,0,1,1,2,2],"right_children":[2,4,6,-1,-1,-1,-1],"split_conditions":[1E0,1E0,3E0,7.284042E-3,-8.333844E-4,-1.1815104E-3,-6.407514E-3],"split_indices":[6,3,18,0,0,0,0],"split_type":[0,0,0,0,0,0,0],"sum_hessian":[1.5406775E2,8.0414856E1,7.365289E1,3.6883278E1,4.3531578E1,2.2076204E1,5.157669E1],"tree_param":{"num_deleted":"0","num_feature":"6170","num_nodes":"7","size_leaf_vector":"1"}},{"base_weights":[7.6927155E-2,-6.2956996E-2,8.964379E-3,-3.1005405E-3,5.5568903E-3],"categories":[],"categories_nodes":[],"categories_segments":[],"categories_sizes":[],"default_left":[0,0,0,0,0],"id":69,"left_children":[1,3,-1,-1,-1],"loss_changes":[9.613357E0,4.738277E0,0E0,0E0,0E0],"parents":[2147483647,0,0,1,1],"right_children":[2,4,-1,-1,-1],"split_conditions":[4E0,1E0,8.964379E-3,-3.1005405E-3,5.5568903E-3],"split_indices":[19,1315,0,0,0],"split_type":[0,0,0,0,0],"sum_hessian":[1.5452603E2,1.1933126E2,3.519477E1,1.0269765E2,1.663361E1],"tree_param":{"num_deleted":"0","num_feature":"6170","num_nodes":"5","size_leaf_vector":"1"}},{"base_weights":[-8.566259E-2,1.6567725E-1,-2.022161E-1,6.1409236E-3,-1.2404342E-3,-5.22581E-3,1.1316255E-3],"categories":[],"categories_nodes":[],"categories_segments":[],"categories_sizes":[],"default_left":[0,0,0,0,0,0,0],"id":70,"left_children":[1,3,5,-1,-1,-1,-1],"loss_changes":[5.576889E0,2.4623542E0,2.3674998E0,0E0,0E0,0E0,0E0],"parents":[2147483647,0,0,1,1,2,2],"right_children":[2,4,6,-1,-1,-1,-1],"split_conditions":[3E0,1E0,1E0,6.1409236E-3,-1.2404342E-3,-5.22581E-3,1.1316255E-3],"split_indices":[19,3,2870,0,0,0,0],"split_type":[0,0,0,0,0,0,0],"sum_hessian":[1.56971E2,4.5009415E1,1.11961586E2,2.725349E1,1.7755922E1,9.418252E1,1.7779062E1],"tree_param":{"num_deleted":"0","num_feature":"6170","num_nodes":"7","size_leaf_vector":"1"}},{"base_weights":[-2.0495899E-2,2.1159111E-1,-2.7965876E-1,8.365818E-3,-0E0,-1.0281082E-3,-7.618352E-3],"categories":[],"categories_nodes":[],"categories_segments":[],"categories_sizes":[],"default_left":[0,0,0,0,0,0,0],"id":71,"left_children":[1,3,5,-1,-1,-1,-1],"loss_changes":[1.097798E1,4.412662E0,1.2897944E0,0E0,0E0,0E0,0E0],"parents":[2147483647,0,0,1,1,2,2],"right_children":[2,4,6,-1,-1,-1,-1],"split_conditions":[1E0,1E0,1E0,8.365818E-3,-0E0,-1.0281082E-3,-7.618352E-3],"split_indices":[6,3,5350,0,0,0,0],"split_type":[0,0,0,0,0,0,0],"sum_hessian":[1.5162659E2,7.94088E1,7.22178E1,3.4377327E1,4.5031467E1,3.217682E1,4.004098E1],"tree_param":{"num_deleted":"0","num_feature":"6170","num_nodes":"7","size_leaf_vector":"1"}},{"base_weights":[3.3873606E-2,-3.2583052E-1,4.546278E-1,-7.4181473E-3,-0E0,1.0092337E-2,1.2380243E-3],"categories":[],"categories_nodes":[],"categories_segments":[],"categories_sizes":[],"default_left":[0,0,0,0,0,0,0],"id":72,"left_children":[1,3,5,-1,-1,-1,-1],"loss_changes":[2.7870426E1,1.4407797E0,6.387043E-1,0E0,0E0,0E0,0E0],"parents":[2147483647,0,0,1,1,2,2],"right_children":[2,4,6,-1,-1,-1,-1],"split_conditions":[4E0,1E0,1E0,-7.4181473E-3,-0E0,1.0092337E-2,1.2380243E-3],"split_indices":[16,5523,4852,0,0,0,0],"split_type":[0,0,0,0,0,0,0],"sum_hessian":[1.536168E2,8.33597E1,7.025711E1,7.13778E1,1.1981904E1,5.6274227E1,1.39828825E1],"tree_param":{"num_deleted":"0","num_feature":"6170","num_nodes":"7","size_leaf_vector":"1"}},{"base_weights":[-2.9159514E-2,-2.619795E-1,1.7966563E-1,-6.6239494E-3,-1.8286693E-4,6.5457467E-3,-2.024161E-3],"categories":[],"categories_nodes":[],"categories_segments":[],"categories_sizes":[],"default_left":[0,0,0,0,0,0,0],"id":73,"left_children":[1,3,5,-1,-1,-1,-1],"loss_changes":[9.034554E0,1.1641741E0,4.705305E0,0E0,0E0,0E0,0E0],"parents":[2147483647,0,0,1,1,2,2],"right_children":[2,4,6,-1,-1,-1,-1],"split_conditions":[1E0,1E0,1E0,-6.6239494E-3,-1.8286693E-4,6.5457467E-3,-2.024161E-3],"split_indices":[6,5475,0,0,0,0,0],"split_type":[0,0,0,0,0,0,0],"sum_hessian":[1.5460995E2,7.356388E1,8.104607E1,5.099822E1,2.256566E1,5.383372E1,2.7212349E1],"tree_param":{"num_deleted":"0","num_feature":"6170","num_nodes":"7","size_leaf_vector":"1"}},{"base_weights":[1.289023E-2,2.0236552E-1,-1.816117E-1,6.383151E-3,-8.4285106E-4,-8.9345165E-5,-5.7498924E-3],"categories":[],"categories_nodes":[],"categories_segments":[],"categories_sizes":[],"default_left":[0,0,0,0,0,0,0],"id":74,"left_children":[1,3,5,-1,-1,-1,-1],"loss_changes":[6.884832E0,3.2335594E0,1.3736293E0,0E0,0E0,0E0,0E0],"parents":[2147483647,0,0,1,1,2,2],"right_children":[2,4,6,-1,-1,-1,-1],"split_conditions":[1E0,1E0,1E0,6.383151E-3,-8.4285106E-4,-8.9345165E-5,-5.7498924E-3],"split_indices":[6,1,641,0,0,0,0],"split_type":[0,0,0,0,0,0,0],"sum_hessian":[1.562953E2,8.146782E1,7.482749E1,5.4801525E1,2.6666294E1,3.7375206E1,3.7452282E1],"tree_param":{"num_deleted":"0","num_feature":"6170","num_nodes":"7","size_leaf_vector":"1"}},{"base_weights":[3.920966E-2,-1.9598657E-1,4.4619513E-1,-5.9630857E-3,2.1400256E-3,-0E0,1.0689265E-2],"categories":[],"categories_nodes":[],"categories_segments":[],"categories_sizes":[],"default_left":[0,0,0,0,0,0,0],"id":75,"left_children":[1,3,5,-1,-1,-1,-1],"loss_changes":[1.9715427E1,4.6647E0,2.4959192E0,0E0,0E0,0E0,0E0],"parents":[2147483647,0,0,1,1,2,2],"right_children":[2,4,6,-1,-1,-1,-1],"split_conditions":[1E0,1E0,3E0,-5.9630857E-3,2.1400256E-3,-0E0,1.0689265E-2],"split_indices":[1,4524,19,0,0,0,0],"split_type":[0,0,0,0,0,0,0],"sum_hessian":[1.746492E2,1.1405599E2,6.059321E1,8.794173E1,2.611426E1,1.4169381E1,4.642383E1],"tree_param":{"num_deleted":"0","num_feature":"6170","num_nodes":"7","size_leaf_vector":"1"}},{"base_weights":[-2.2805221E-2,-2.740023E-1,2.0240866E-1,-6.4667473E-3,-7.380823E-5,6.405695E-3,-1.4461832E-3],"categories":[],"categories_nodes":[],"categories_segments":[],"categories_sizes":[],"default_left":[0,0,0,0,0,0,0],"id":76,"left_children":[1,3,5,-1,-1,-1,-1],"loss_changes":[1.0262249E1,8.109541E-1,3.6313412E0,0E0,0E0,0E0,0E0],"parents":[2147483647,0,0,1,1,2,2],"right_children":[2,4,6,-1,-1,-1,-1],"split_conditions":[1E0,1E0,1E0,-6.4667473E-3,-7.380823E-5,6.405695E-3,-1.4461832E-3],"split_indices":[6,6152,7,0,0,0,0],"split_type":[0,0,0,0,0,0,0],"sum_hessian":[1.5042764E2,7.16746E1,7.8753044E1,5.499541E1,1.6679184E1,5.5913654E1,2.283939E1],"tree_param":{"num_deleted":"0","num_feature":"6170","num_nodes":"7","size_leaf_vector":"1"}},{"base_weights":[-2.5307273E-2,6.0827505E-2,-7.2479383E-3,3.5178913E-3,-1.3643904E-3],"categories":[],"categories_nodes":[],"categories_segments":[],"categories_sizes":[],"default_left":[0,0,0,0,0],"id":77,"left_children":[1,3,-1,-1,-1],"loss_changes":[5.5029716E0,2.4273212E0,0E0,0E0,0E0],"parents":[2147483647,0,0,1,1],"right_children":[2,4,-1,-1,-1],"split_conditions":[1E0,1E0,-7.2479383E-3,3.5178913E-3,-1.3643904E-3],"split_indices":[289,641,0,0,0],"split_type":[0,0,0,0,0],"sum_hessian":[1.5275351E2,1.2909358E2,2.3659924E1,6.946108E1,5.96325E1],"tree_param":{"num_deleted":"0","num_feature":"6170","num_nodes":"5","size_leaf_vector":"1"}},{"base_weights":[3.2763336E-2,-2.7124313E-1,3.7633833E-1,-6.5197623E-3,9.1099506E-4,8.808678E-3,-0E0],"categories":[],"categories_nodes":[],"categories_segments":[],"categories_sizes":[],"default_left":[0,0,0,0,0,0,0],"id":78,"left_children":[1,3,5,-1,-1,-1,-1],"loss_changes":[1.9704329E1,2.2192407E0,2.0097961E0,0E0,0E0,0E0,0E0],"parents":[2147483647,0,0,1,1,2,2],"right_children":[2,4,6,-1,-1,-1,-1],"split_conditions":[1E0,1E0,1E0,-6.5197623E-3,9.1099506E-4,8.808678E-3,-0E0],"split_indices":[3,809,6152,0,0,0,0],"split_type":[0,0,0,0,0,0,0],"sum_hessian":[1.5798436E2,8.394999E1,7.403438E1,7.390049E1,1.0049499E1,6.036669E1,1.3667684E1],"tree_param":{"num_deleted":"0","num_feature":"6170","num_nodes":"7","size_leaf_vector":"1"}},{"base_weights":[-0E0,-1.297804E-1,6.7494106E-3,-3.4690225E-3,7.80139E-4],"categories":[],"categories_nodes":[],"categories_segments":[],"categories_sizes":[],"default_left":[0,0,0,0,0],"id":79,"left_children":[1,3,-1,-1,-1],"loss_changes":[8.021964E0,1.2094982E0,0E0,0E0,0E0],"parents":[2147483647,0,0,1,1],"right_children":[2,4,-1,-1,-1],"split_conditions":[1E0,1E0,6.7494106E-3,-3.4690225E-3,7.80139E-4],"split_indices":[296,2870,0,0,0],"split_type":[0,0,0,0,0],"sum_hessian":[1.529842E2,1.1707947E2,3.590474E1,9.739133E1,1.9688137E1],"tree_param":{"num_deleted":"0","num_feature":"6170","num_nodes":"5","size_leaf_vector":"1"}},{"base_weights":[-5.6058723E-2,1.1729236E-1,-3.0340123E-1,4.0166555E-3,-3.4502877E-3,-6.8868105E-3,-8.071435E-4],"categories":[],"categories_nodes":[],"categories_segments":[],"categories_sizes":[],"default_left":[0,0,0,0,0,0,0],"id":80,"left_children":[1,3,5,-1,-1,-1,-1],"loss_changes":[8.03647E0,3.1813312E0,2.3468971E-1,0E0,0E0,0E0,0E0],"parents":[2147483647,0,0,1,1,2,2],"right_children":[2,4,6,-1,-1,-1,-1],"split_conditions":[4E0,1E0,1E0,4.0166555E-3,-3.4502877E-3,-6.8868105E-3,-8.071435E-4],"split_indices":[16,5488,2297,0,0,0,0],"split_type":[0,0,0,0,0,0,0],"sum_hessian":[1.5564037E2,9.376713E1,6.1873238E1,7.903892E1,1.47282095E1,4.623917E1,1.5634065E1],"tree_param":{"num_deleted":"0","num_feature":"6170","num_nodes":"7","size_leaf_vector":"1"}},{"base_weights":[1.4059222E-2,-2.9327023E-1,4.6530554E-1,-7.669688E-3,-2.2446151E-5,1.0497098E-2,-0E0],"categories":[],"categories_nodes":[],"categories_segments":[],"categories_sizes":[],"default_left":[0,0,0,0,0,0,0],"id":81,"left_children":[1,3,5,-1,-1,-1,-1],"loss_changes":[2.5374386E1,2.4344387E0,1.5989304E0,0E0,0E0,0E0,0E0],"parents":[2147483647,0,0,1,1,2,2],"right_children":[2,4,6,-1,-1,-1,-1],"split_conditions":[4E0,1E0,1E0,-7.669688E-3,-2.2446151E-5,1.0497098E-2,-0E0],"split_indices":[16,1709,296,0,0,0,0],"split_type":[0,0,0,0,0,0,0],"sum_hessian":[1.5196881E2,9.2205696E1,5.976311E1,6.425233E1,2.7953371E1,4.956479E1,1.0198323E1],"tree_param":{"num_deleted":"0","num_feature":"6170","num_nodes":"7","size_leaf_vector":"1"}},{"base_weights":[-4.7052868E-2,-2.5564295E-1,1.6442125E-1,1.9765852E-3,-6.633195E-3,5.451132E-3,-1.6824031E-3],"categories":[],"categories_nodes":[],"categories_segments":[],"categories_sizes":[],"default_left":[0,0,0,0,0,0,0],"id":82,"left_children":[1,3,5,-1,-1,-1,-1],"loss_changes":[7.8744416E0,3.146502E0,2.877751E0,0E0,0E0,0E0,0E0],"parents":[2147483647,0,0,1,1,2,2],"right_children":[2,4,6,-1,-1,-1,-1],"split_conditions":[1E0,2E0,1E0,1.9765852E-3,-6.633195E-3,5.451132E-3,-1.6824031E-3],"split_indices":[6,18,10,0,0,0,0],"split_type":[0,0,0,0,0,0,0],"sum_hessian":[1.4715134E2,7.4884186E1,7.226715E1,1.0105414E1,6.477877E1,5.2151283E1,2.0115868E1],"tree_param":{"num_deleted":"0","num_feature":"6170","num_nodes":"7","size_leaf_vector":"1"}},{"base_weights":[-1.0922948E-1,1.8530544E-2,-4.7938707E-3,3.295232E-3,-3.26918E-3],"categories":[],"categories_nodes":[],"categories_segments":[],"categories_sizes":[],"default_left":[0,0,0,0,0],"id":83,"left_children":[1,3,-1,-1,-1],"loss_changes":[3.115964E0,2.9541576E0,0E0,0E0,0E0],"parents":[2147483647,0,0,1,1],"right_children":[2,4,-1,-1,-1],"split_conditions":[1E0,1E0,-4.7938707E-3,3.295232E-3,-3.26918E-3],"split_indices":[3,641,0,0,0],"split_type":[0,0,0,0,0],"sum_hessian":[1.5467609E2,8.077741E1,7.389867E1,4.862298E1,3.215443E1],"tree_param":{"num_deleted":"0","num_feature":"6170","num_nodes":"5","size_leaf_vector":"1"}},{"base_weights":[3.748676E-3,-1.671442E-1,6.597956E-3,-5.368569E-3,2.4013785E-3],"categories":[],"categories_nodes":[],"categories_segments":[],"categories_sizes":[],"default_left":[0,0,0,0,0],"id":84,"left_children":[1,3,-1,-1,-1],"loss_changes":[1.0609431E1,4.157363E0,0E0,0E0,0E0],"parents":[2147483647,0,0,1,1],"right_children":[2,4,-1,-1,-1],"split_conditions":[1E0,1E0,6.597956E-3,-5.368569E-3,2.4013785E-3],"split_indices":[1,27,0,0,0],"split_type":[0,0,0,0,0],"sum_hessian":[1.5758994E2,1.0619404E2,5.1395905E1,8.180774E1,2.4386297E1],"tree_param":{"num_deleted":"0","num_feature":"6170","num_nodes":"5","size_leaf_vector":"1"}},{"base_weights":[-2.8562995E-2,-2.4585263E-1,1.849721E-1,-6.162887E-3,-0E0,7.683746E-3,-3.7938182E-3],"categories":[],"categories_nodes":[],"categories_segments":[],"categories_sizes":[],"default_left":[0,0,0,0,0,0,0],"id":85,"left_children":[1,3,5,-1,-1,-1,-1],"loss_changes":[8.151943E0,1.0899792E0,7.764322E0,0E0,0E0,0E0,0E0],"parents":[2147483647,0,0,1,1,2,2],"right_children":[2,4,6,-1,-1,-1,-1],"split_conditions":[1E0,1E0,1E0,-6.162887E-3,-0E0,7.683746E-3,-3.7938182E-3],"split_indices":[6,6152,10,0,0,0,0],"split_type":[0,0,0,0,0,0,0],"sum_hessian":[1.4467865E2,7.290483E1,7.177381E1,5.243611E1,2.0468721E1,4.8351948E1,2.3421864E1],"tree_param":{"num_deleted":"0","num_feature":"6170","num_nodes":"7","size_leaf_vector":"1"}},{"base_weights":[-4.2137567E-2,1.0825166E-1,-2.735759E-1,-3.48814E-4,5.995681E-3,-6.8569984E-3,-9.996373E-5],"categories":[],"categories_nodes":[],"categories_segments":[],"categories_sizes":[],"default_left":[0,0,0,0,0,0,0],"id":86,"left_children":[1,3,5,-1,-1,-1,-1],"loss_changes":[6.577049E0,3.0582933E0,1.0107036E0,0E0,0E0,0E0,0E0],"parents":[2147483647,0,0,1,1,2,2],"right_children":[2,4,6,-1,-1,-1,-1],"split_conditions":[4E0,1E0,1E0,-3.48814E-4,5.995681E-3,-6.8569984E-3,-9.996373E-5],"split_indices":[16,10,27,0,0,0,0],"split_type":[0,0,0,0,0,0,0],"sum_hessian":[1.564511E2,9.705057E1,5.9400528E1,6.3676315E1,3.3374256E1,4.096346E1,1.8437073E1],"tree_param":{"num_deleted":"0","num_feature":"6170","num_nodes":"7","size_leaf_vector":"1"}},{"base_weights":[4.112617E-2,-3.3457232E-1,3.385506E-1,-8.150866E-3,-6.524904E-4,8.344622E-3,-0E0],"categories":[],"categories_nodes":[],"categories_segments":[],"categories_sizes":[],"default_left":[0,0,0,0,0,0,0],"id":87,"left_children":[1,3,5,-1,-1,-1,-1],"loss_changes":[2.1005463E1,1.1756344E0,2.448595E0,0E0,0E0,0E0,0E0],"parents":[2147483647,0,0,1,1,2,2],"right_children":[2,4,6,-1,-1,-1,-1],"split_conditions":[1E0,1E0,1E0,-8.150866E-3,-6.524904E-4,8.344622E-3,-0E0],"split_indices":[4,1709,6152,0,0,0,0],"split_type":[0,0,0,0,0,0,0],"sum_hessian":[1.5774126E2,6.738574E1,9.0355515E1,4.7378372E1,2.000737E1,6.843247E1,2.1923044E1],"tree_param":{"num_deleted":"0","num_feature":"6170","num_nodes":"7","size_leaf_vector":"1"}},{"base_weights":[-1.73605E-2,1.5747193E-1,-2.207442E-1,5.4277615E-3,-1.789363E-3,-0E0,-5.3101974E-3],"categories":[],"categories_nodes":[],"categories_segments":[],"categories_sizes":[],"default_left":[0,0,0,0,0,0,0],"id":88,"left_children":[1,3,5,-1,-1,-1,-1],"loss_changes":[6.662652E0,3.3036957E0,8.480468E-1,0E0,0E0,0E0,0E0],"parents":[2147483647,0,0,1,1,2,2],"right_children":[2,4,6,-1,-1,-1,-1],"split_conditions":[1E0,4E0,3E0,5.4277615E-3,-1.789363E-3,-0E0,-5.3101974E-3],"split_indices":[3,17,19,0,0,0,0],"split_type":[0,0,0,0,0,0,0],"sum_hessian":[1.559307E2,8.3027756E1,7.290293E1,5.8572243E1,2.4455513E1,1.5112741E1,5.779019E1],"tree_param":{"num_deleted":"0","num_feature":"6170","num_nodes":"7","size_leaf_vector":"1"}},{"base_weights":[-4.3724097E-2,5.598271E-2,-2.489951E-1,3.1913018E-3,-1.1684402E-3,-6.1292094E-3,-0E0],"categories":[],"categories_nodes":[],"categories_segments":[],"categories_sizes":[],"default_left":[0,0,0,0,0,0,0],"id":89,"left_children":[1,3,5,-1,-1,-1,-1],"loss_changes":[4.0352125E0,1.7630873E0,8.732972E-1,0E0,0E0,0E0,0E0],"parents":[2147483647,0,0,1,1,2,2],"right_children":[2,4,6,-1,-1,-1,-1],"split_conditions":[1E0,1E0,1E0,3.1913018E-3,-1.1684402E-3,-6.1292094E-3,-0E0],"split_indices":[8,3,3132,0,0,0,0],"split_type":[0,0,0,0,0,0,0],"sum_hessian":[1.6251128E2,1.134449E2,4.906638E1,6.101841E1,5.242649E1,3.6590958E1,1.247542E1],"tree_param":{"num_deleted":"0","num_feature":"6170","num_nodes":"7","size_leaf_vector":"1"}},{"base_weights":[2.2673422E-2,-2.6858848E-1,4.0025374E-1,-8.542152E-3,-0E0,-0E0,1.176886E-2],"categories":[],"categories_nodes":[],"categories_segments":[],"categories_sizes":[],"default_left":[0,0,0,0,0,0,0],"id":90,"left_children":[1,3,5,-1,-1,-1,-1],"loss_changes":[2.0895555E1,4.5739512E0,5.779871E0,0E0,0E0,0E0,0E0],"parents":[2147483647,0,0,1,1,2,2],"right_children":[2,4,6,-1,-1,-1,-1],"split_conditions":[4E0,1E0,1E0,-8.542152E-3,-0E0,-0E0,1.176886E-2],"split_indices":[16,3,3,0,0,0,0],"split_type":[0,0,0,0,0,0,0],"sum_hessian":[1.59143E2,9.078993E1,6.8353065E1,5.190906E1,3.888087E1,2.8096893E1,4.0256176E1],"tree_param":{"num_deleted":"0","num_feature":"6170","num_nodes":"7","size_leaf_vector":"1"}},{"base_weights":[-1.2601058E-2,2.6223844E-1,-2.5530988E-1,7.0139864E-3,-0E0,-6.0952883E-3,7.383098E-4],"categories":[],"categories_nodes":[],"categories_segments":[],"categories_sizes":[],"default_left":[0,0,0,0,0,0,0],"id":91,"left_children":[1,3,5,-1,-1,-1,-1],"loss_changes":[1.2241524E1,2.0509634E0,1.8680148E0,0E0,0E0,0E0,0E0],"parents":[2147483647,0,0,1,1,2,2],"right_children":[2,4,6,-1,-1,-1,-1],"split_conditions":[1E0,1E0,1E0,7.0139864E-3,-0E0,-6.0952883E-3,7.383098E-4],"split_indices":[4,3,1789,0,0,0,0],"split_type":[0,0,0,0,0,0,0],"sum_hessian":[1.5356317E2,6.951659E1,8.4046585E1,4.893271E1,2.0583878E1,7.425798E1,9.788607E0],"tree_param":{"num_deleted":"0","num_feature":"6170","num_nodes":"7","size_leaf_vector":"1"}},{"base_weights":[-4.797199E-2,1.2261986E-1,-2.971522E-1,4.219754E-3,-1.0042096E-4,-6.8316977E-3,-0E0],"categories":[],"categories_nodes":[],"categories_segments":[],"categories_sizes":[],"default_left":[0,0,0,0,0,0,0],"id":92,"left_children":[1,3,5,-1,-1,-1,-1],"loss_changes":[8.024525E0,1.4651316E0,1.0486026E0,0E0,0E0,0E0,0E0],"parents":[2147483647,0,0,1,1,2,2],"right_children":[2,4,6,-1,-1,-1,-1],"split_conditions":[4E0,1E0,1E0,4.219754E-3,-1.0042096E-4,-6.8316977E-3,-0E0],"split_indices":[16,641,863,0,0,0,0],"split_type":[0,0,0,0,0,0,0],"sum_hessian":[1.5681287E2,9.5225655E1,6.1587215E1,5.5111122E1,4.011453E1,5.1945435E1,9.641778E0],"tree_param":{"num_deleted":"0","num_feature":"6170","num_nodes":"7","size_leaf_vector":"1"}},{"base_weights":[1.0984855E-2,-3.642104E-1,3.0947986E-1,-8.339183E-3,-0E0,-1.8402173E-4,9.940658E-3],"categories":[],"categories_nodes":[],"categories_segments":[],"categories_sizes":[],"default_left":[0,0,0,0,0,0,0],"id":93,"left_children":[1,3,5,-1,-1,-1,-1],"loss_changes":[2.0140368E1,1.2422199E0,6.6297655E0,0E0,0E0,0E0,0E0],"parents":[2147483647,0,0,1,1,2,2],"right_children":[2,4,6,-1,-1,-1,-1],"split_conditions":[1E0,5E0,1E0,-8.339183E-3,-0E0,-1.8402173E-4,9.940658E-3],"split_indices":[4,18,3,0,0,0,0],"split_type":[0,0,0,0,0,0,0],"sum_hessian":[1.5022649E2,6.361399E1,8.6612495E1,5.2126667E1,1.1487325E1,3.5398087E1,5.121441E1],"tree_param":{"num_deleted":"0","num_feature":"6170","num_nodes":"7","size_leaf_vector":"1"}},{"base_weights":[-7.114696E-3,6.59542E-2,-4.8524234E-3,2.5870588E-3,-3.8355994E-3],"categories":[],"categories_nodes":[],"categories_segments":[],"categories_sizes":[],"default_left":[0,0,0,0,0],"id":94,"left_children":[1,3,-1,-1,-1],"loss_changes":[3.267397E0,2.5153482E0,0E0,0E0,0E0],"parents":[2147483647,0,0,1,1],"right_children":[2,4,-1,-1,-1],"split_conditions":[4E0,1E0,-4.8524234E-3,2.5870588E-3,-3.8355994E-3],"split_indices":[19,79,0,0,0],"split_type":[0,0,0,0,0],"sum_hessian":[1.5065948E2,1.199855E2,3.0673992E1,1.05408325E2,1.4577174E1],"tree_param":{"num_deleted":"0","num_feature":"6170","num_nodes":"5","size_leaf_vector":"1"}},{"base_weights":[3.6785323E-2,2.5544477E-1,-2.8758708E-1,6.3625276E-3,-1.7585431E-3,-5.6545937E-4,-7.5079924E-3],"categories":[],"categories_nodes":[],"categories_segments":[],"categories_sizes":[],"default_left":[0,0,0,0,0,0,0],"id":95,"left_children":[1,3,5,-1,-1,-1,-1],"loss_changes":[1.2995083E1,3.0220156E0,1.0975018E0,0E0,0E0,0E0,0E0],"parents":[2147483647,0,0,1,1,2,2],"right_children":[2,4,6,-1,-1,-1,-1],"split_conditions":[4E0,1E0,1E0,6.3625276E-3,-1.7585431E-3,-5.6545937E-4,-7.5079924E-3],"split_indices":[16,289,3,0,0,0,0],"split_type":[0,0,0,0,0,0,0],"sum_hessian":[1.5313445E2,9.5218185E1,5.7916267E1,8.391488E1,1.1303306E1,2.2548132E1,3.5368134E1],"tree_param":{"num_deleted":"0","num_feature":"6170","num_nodes":"7","size_leaf_vector":"1"}},{"base_weights":[-0E0,-2.0129475E-1,1.3355526E-1,-6.2001757E-3,3.611659E-3,4.4573555E-3,-3.4258498E-3],"categories":[],"categories_nodes":[],"categories_segments":[],"categories_sizes":[],"default_left":[0,0,0,0,0,0,0],"id":96,"left_children":[1,3,5,-1,-1,-1,-1],"loss_changes":[5.4533687E0,4.364441E0,3.890035E0,0E0,0E0,0E0,0E0],"parents":[2147483647,0,0,1,1,2,2],"right_children":[2,4,6,-1,-1,-1,-1],"split_conditions":[1E0,1E0,1E0,-6.2001757E-3,3.611659E-3,4.4573555E-3,-3.4258498E-3],"split_indices":[4350,809,12,0,0,0,0],"split_type":[0,0,0,0,0,0,0],"sum_hessian":[1.7173276E2,6.67835E1,1.04949265E2,5.6220192E1,1.0563306E1,8.6825714E1,1.8123554E1],"tree_param":{"num_deleted":"0","num_feature":"6170","num_nodes":"7","size_leaf_vector":"1"}},{"base_weights":[-0E0,1.1354437E-1,-1.9362298E-1,3.847596E-3,-2.8804198E-3,-5.758912E-3,8.9974106E-5],"categories":[],"categories_nodes":[],"categories_segments":[],"categories_sizes":[],"default_left":[0,0,0,0,0,0,0],"id":97,"left_children":[1,3,5,-1,-1,-1,-1],"loss_changes":[4.1401453E0,2.9363081E0,1.5841253E0,0E0,0E0,0E0,0E0],"parents":[2147483647,0,0,1,1,2,2],"right_children":[2,4,6,-1,-1,-1,-1],"split_conditions":[1E0,1E0,1E0,3.847596E-3,-2.8804198E-3,-5.758912E-3,8.9974106E-5],"split_indices":[1,1669,15,0,0,0,0],"split_type":[0,0,0,0,0,0,0],"sum_hessian":[1.603212E2,1.0675891E2,5.356228E1,8.761923E1,1.9139675E1,3.5098953E1,1.8463324E1],"tree_param":{"num_deleted":"0","num_feature":"6170","num_nodes":"7","size_leaf_vector":"1"}},{"base_weights":[-1.8180756E-2,1.577768E-1,-1.9902019E-1,6.2717465E-3,-0E0,-4.820086E-3,5.6544977E-4],"categories":[],"categories_nodes":[],"categories_segments":[],"categories_sizes":[],"default_left":[0,0,0,0,0,0,0],"id":98,"left_children":[1,3,5,-1,-1,-1,-1],"loss_changes":[5.6672173E0,2.3865168E0,1.1673791E0,0E0,0E0,0E0,0E0],"parents":[2147483647,0,0,1,1,2,2],"right_children":[2,4,6,-1,-1,-1,-1],"split_conditions":[1E0,1E0,1E0,6.2717465E-3,-0E0,-4.820086E-3,5.6544977E-4],"split_indices":[6,3,1789,0,0,0,0],"split_type":[0,0,0,0,0,0,0],"sum_hessian":[1.4700351E2,7.26743E1,7.4329216E1,3.1463055E1,4.1211246E1,6.569007E1,8.639139E0],"tree_param":{"num_deleted":"0","num_feature":"6170","num_nodes":"7","size_leaf_vector":"1"}},{"base_weights":[1.8868154E-2,-3.1239402E-1,4.4240478E-1,-8.169689E-3,2.24463E-4,-7.1189937E-4,1.2001443E-2],"categories":[],"categories_nodes":[],"categories_segments":[],"categories_sizes":[],"default_left":[0,0,0,0,0,0,0],"id":99,"left_children":[1,3,5,-1,-1,-1,-1],"loss_changes":[2.674988E1,3.7510633E0,7.2394466E0,0E0,0E0,0E0,0E0],"parents":[2147483647,0,0,1,1,2,2],"right_children":[2,4,6,-1,-1,-1,-1],"split_conditions":[4E0,4E0,1E0,-8.169689E-3,2.24463E-4,-7.1189937E-4,1.2001443E-2],"split_indices":[16,19,4,0,0,0,0],"split_type":[0,0,0,0,0,0,0],"sum_hessian":[1.599573E2,9.063994E1,6.931737E1,6.923779E1,2.1402147E1,1.8500519E1,5.081685E1],"tree_param":{"num_deleted":"0","num_feature":"6170","num_nodes":"7","size_leaf_vector":"1"}},{"base_weights":[-3.235619E-2,1.8489034E-1,-2.2376253E-1,4.32966E-3,-0E0,-0E0,-5.8507943E-3],"categories":[],"categories_nodes":[],"categories_segments":[],"categories_sizes":[],"default_left":[0,0,0,0,0,0,0],"id":100,"left_children":[1,3,5,-1,-1,-1,-1],"loss_changes":[7.848759E0,5.453007E-1,1.4060717E0,0E0,0E0,0E0,0E0],"parents":[2147483647,0,0,1,1,2,2],"right_children":[2,4,6,-1,-1,-1,-1],"split_conditions":[1E0,1E0,1E0,4.32966E-3,-0E0,-0E0,-5.8507943E-3],"split_indices":[4,5352,4311,0,0,0,0],"split_type":[0,0,0,0,0,0,0],"sum_hessian":[1.5789334E2,7.174677E1,8.614657E1,5.9910896E1,1.1835879E1,2.553912E1,6.0607445E1],"tree_param":{"num_deleted":"0","num_feature":"6170","num_nodes":"7","size_leaf_vector":"1"}},{"base_weights":[2.3815209E-2,1.0486381E-1,-4.599154E-3,3.3928338E-3,-2.9719942E-3],"categories":[],"categories_nodes":[],"categories_segments":[],"categories_sizes":[],"default_left":[0,0,0,0,0],"id":101,"left_children":[1,3,-1,-1,-1],"loss_changes":[3.5399063E0,2.6159754E0,0E0,0E0,0E0],"parents":[2147483647,0,0,1,1],"right_children":[2,4,-1,-1,-1],"split_conditions":[1E0,1E0,-4.599154E-3,3.3928338E-3,-2.9719942E-3],"split_indices":[289,5817,0,0,0],"split_type":[0,0,0,0,0],"sum_hessian":[1.4560367E2,1.2001589E2,2.5587774E1,1.0267985E2,1.7336044E1],"tree_param":{"num_deleted":"0","num_feature":"6170","num_nodes":"5","size_leaf_vector":"1"}},{"base_weights":[2.7564758E-2,-1.4021899E-1,3.2129574E-1,-5.1754247E-3,1.5973297E-3,2.123689E-3,8.9022685E-3],"categories":[],"categories_nodes":[],"categories_segments":[],"categories_sizes":[],"default_left":[0,0,0,0,0,0,0],"id":102,"left_children":[1,3,5,-1,-1,-1,-1],"loss_changes":[9.662778E0,3.672001E0,6.4899015E-1,0E0,0E0,0E0,0E0],"parents":[2147483647,0,0,1,1,2,2],"right_children":[2,4,6,-1,-1,-1,-1],"split_conditions":[1E0,1E0,1E0,-5.1754247E-3,1.5973297E-3,2.123689E-3,8.9022685E-3],"split_indices":[1,10,10,0,0,0,0],"split_type":[0,0,0,0,0,0,0],"sum_hessian":[1.6367975E2,1.0699657E2,5.6683174E1,7.077801E1,3.621856E1,3.3837208E1,2.2845964E1],"tree_param":{"num_deleted":"0","num_feature":"6170","num_nodes":"7","size_leaf_vector":"1"}},{"base_weights":[5.680191E-3,-7.5740345E-2,2.4046728E-1,9.063908E-4,-4.801078E-3,6.3422117E-3,7.234064E-4],"categories":[],"categories_nodes":[],"categories_segments":[],"categories_sizes":[],"default_left":[0,0,0,0,0,0,0],"id":103,"left_children":[1,3,5,-1,-1,-1,-1],"loss_changes":[3.6208975E0,2.9811592E0,2.5175428E-1,0E0,0E0,0E0,0E0],"parents":[2147483647,0,0,1,1,2,2],"right_children":[2,4,6,-1,-1,-1,-1],"split_conditions":[1E0,1E0,1E0,9.063908E-4,-4.801078E-3,6.3422117E-3,7.234064E-4],"split_indices":[296,1709,6027,0,0,0,0],"split_type":[0,0,0,0,0,0,0],"sum_hessian":[1.5150414E2,1.1687547E2,3.462866E1,7.004553E1,4.6829937E1,1.5598777E1,1.9029882E1],"tree_param":{"num_deleted":"0","num_feature":"6170","num_nodes":"7","size_leaf_vector":"1"}},{"base_weights":[-1.9868629E-2,2.0926681E-1,-6.545292E-3,5.7397257E-3,-5.527172E-4],"categories":[],"categories_nodes":[],"categories_segments":[],"categories_sizes":[],"default_left":[0,0,0,0,0],"id":104,"left_children":[1,3,-1,-1,-1],"loss_changes":[1.2295085E1,2.1823173E0,0E0,0E0,0E0],"parents":[2147483647,0,0,1,1],"right_children":[2,4,-1,-1,-1],"split_conditions":[4E0,1E0,-6.545292E-3,5.7397257E-3,-5.527172E-4],"split_indices":[16,5178,0,0,0],"split_type":[0,0,0,0,0],"sum_hessian":[1.4329846E2,8.297987E1,6.031859E1,6.3272404E1,1.9707472E1],"tree_param":{"num_deleted":"0","num_feature":"6170","num_nodes":"5","size_leaf_vector":"1"}},{"base_weights":[3.0707827E-2,-3.248168E-1,3.8755736E-1,-8.832685E-3,-1.6200611E-3,-2.6820635E-4,1.027227E-2],"categories":[],"categories_nodes":[],"categories_segments":[],"categories_sizes":[],"default_left":[0,0,0,0,0,0,0],"id":105,"left_children":[1,3,5,-1,-1,-1,-1],"loss_changes":[2.4012396E1,1.6141663E0,5.4066124E0,0E0,0E0,0E0,0E0],"parents":[2147483647,0,0,1,1,2,2],"right_children":[2,4,6,-1,-1,-1,-1],"split_conditions":[1E0,1E0,1E0,-8.832685E-3,-1.6200611E-3,-2.6820635E-4,1.027227E-2],"split_indices":[3,4,4,0,0,0,0],"split_type":[0,0,0,0,0,0,0],"sum_hessian":[1.5889128E2,7.8864136E1,8.0027145E1,4.2317066E1,3.654707E1,2.044993E1,5.9577217E1],"tree_param":{"num_deleted":"0","num_feature":"6170","num_nodes":"7","size_leaf_vector":"1"}},{"base_weights":[-0E0,2.1418631E-1,-2.7801108E-1,-8.0445275E-4,7.616485E-3,-0E0,-6.862214E-3],"categories":[],"categories_nodes":[],"categories_segments":[],"categories_sizes":[],"default_left":[0,0,0,0,0,0,0],"id":106,"left_children":[1,3,5,-1,-1,-1,-1],"loss_changes":[1.0382513E1,4.6505947E0,1.3333464E0,0E0,0E0,0E0,0E0],"parents":[2147483647,0,0,1,1,2,2],"right_children":[2,4,6,-1,-1,-1,-1],"split_conditions":[1E0,1E0,3E0,-8.0445275E-4,7.616485E-3,-0E0,-6.862214E-3],"split_indices":[3,6,16,0,0,0,0],"split_type":[0,0,0,0,0,0,0],"sum_hessian":[1.4345012E2,8.1244934E1,6.220519E1,3.4282925E1,4.6962006E1,1.5191588E1,4.70136E1],"tree_param":{"num_deleted":"0","num_feature":"6170","num_nodes":"7","size_leaf_vector":"1"}},{"base_weights":[-8.542644E-3,1.5330757E-1,-2.0146552E-1,4.5229997E-3,-1.9665603E-3,-4.894665E-3,5.476784E-4],"categories":[],"categories_nodes":[],"categories_segments":[],"categories_sizes":[],"default_left":[0,0,0,0,0,0,0],"id":107,"left_children":[1,3,5,-1,-1,-1,-1],"loss_changes":[5.908198E0,2.288602E0,1.1907177E0,0E0,0E0,0E0,0E0],"parents":[2147483647,0,0,1,1,2,2],"right_children":[2,4,6,-1,-1,-1,-1],"split_conditions":[1E0,1E0,1E0,4.5229997E-3,-1.9665603E-3,-4.894665E-3,5.476784E-4],"split_indices":[6,5817,79,0,0,0,0],"split_type":[0,0,0,0,0,0,0],"sum_hessian":[1.5783633E2,8.468644E1,7.3149895E1,6.993511E1,1.47513275E1,6.431809E1,8.831807E0],"tree_param":{"num_deleted":"0","num_feature":"6170","num_nodes":"7","size_leaf_vector":"1"}},{"base_weights":[-0E0,-3.2157722E-1,3.8671958E-1,-8.977511E-3,-1.4969634E-3,9.486839E-3,-0E0],"categories":[],"categories_nodes":[],"categories_segments":[],"categories_sizes":[],"default_left":[0,0,0,0,0,0,0],"id":108,"left_children":[1,3,5,-1,-1,-1,-1],"loss_changes":[2.2862213E1,2.1706648E0,3.1930828E0,0E0,0E0,0E0,0E0],"parents":[2147483647,0,0,1,1,2,2],"right_children":[2,4,6,-1,-1,-1,-1],"split_conditions":[4E0,4E0,1E0,-8.977511E-3,-1.4969634E-3,9.486839E-3,-0E0],"split_indices":[16,18,296,0,0,0,0],"split_type":[0,0,0,0,0,0,0],"sum_hessian":[1.5428862E2,8.683171E1,6.745692E1,4.6498486E1,4.0333225E1,5.3998486E1,1.3458431E1],"tree_param":{"num_deleted":"0","num_feature":"6170","num_nodes":"7","size_leaf_vector":"1"}},{"base_weights":[-0E0,1.6065851E-1,-1.8215093E-1,5.1982943E-3,-1.879434E-3,-0E0,-4.7602165E-3],"categories":[],"categories_nodes":[],"categories_segments":[],"categories_sizes":[],"default_left":[0,0,0,0,0,0,0],"id":109,"left_children":[1,3,5,-1,-1,-1,-1],"loss_changes":[5.4666433E0,3.102465E0,9.5771694E-1,0E0,0E0,0E0,0E0],"parents":[2147483647,0,0,1,1,2,2],"right_children":[2,4,6,-1,-1,-1,-1],"split_conditions":[1E0,4E0,3E0,5.1982943E-3,-1.879434E-3,-0E0,-4.7602165E-3],"split_indices":[3,17,16,0,0,0,0],"split_type":[0,0,0,0,0,0,0],"sum_hessian":[1.5734456E2,8.669306E1,7.0651505E1,6.4979614E1,2.1713442E1,1.857998E1,5.2071526E1],"tree_param":{"num_deleted":"0","num_feature":"6170","num_nodes":"7","size_leaf_vector":"1"}},{"base_weights":[-2.517766E-2,2.6879085E-2,-2.0460933E-1,2.3388113E-3,-1.3385704E-3,-0E0,-4.8193545E-3],"categories":[],"categories_nodes":[],"categories_segments":[],"categories_sizes":[],"default_left":[0,0,0,0,0,0,0],"id":110,"left_children":[1,3,5,-1,-1,-1,-1],"loss_changes":[1.8228234E0,1.3384423E0,1.85812E-1,0E0,0E0,0E0,0E0],"parents":[2147483647,0,0,1,1,2,2],"right_children":[2,4,6,-1,-1,-1,-1],"split_conditions":[1E0,1E0,1E0,2.3388113E-3,-1.3385704E-3,-0E0,-4.8193545E-3],"split_indices":[4852,95,5350,0,0,0,0],"split_type":[0,0,0,0,0,0,0],"sum_hessian":[1.522904E2,1.2360883E2,2.8681581E1,6.6615074E1,5.699375E1,8.987274E0,1.9694307E1],"tree_param":{"num_deleted":"0","num_feature":"6170","num_nodes":"7","size_leaf_vector":"1"}},{"base_weights":[5.3486083E-2,-2.6473E-1,4.6226534E-1,-6.473104E-3,1.8922734E-3,7.061616E-4,1.2669561E-2],"categories":[],"categories_nodes":[],"categories_segments":[],"categories_sizes":[],"default_left":[0,0,0,0,0,0,0],"id":111,"left_children":[1,3,5,-1,-1,-1,-1],"loss_changes":[2.4228907E1,2.8927555E0,4.9552555E0,0E0,0E0,0E0,0E0],"parents":[2147483647,0,0,1,1,2,2],"right_children":[2,4,6,-1,-1,-1,-1],"split_conditions":[4E0,1E0,1E0,-6.473104E-3,1.8922734E-3,7.061616E-4,1.2669561E-2],"split_indices":[16,1315,3,0,0,0,0],"split_type":[0,0,0,0,0,0,0],"sum_hessian":[1.5563127E2,8.9105896E1,6.652537E1,8.0223434E1,8.882458E0,2.589198E1,4.0633392E1],"tree_param":{"num_deleted":"0","num_feature":"6170","num_nodes":"7","size_leaf_vector":"1"}},{"base_weights":[-4.501108E-2,2.1033974E-1,-2.5768277E-1,1.2589025E-3,7.630492E-3,-5.7454E-3,-0E0],"categories":[],"categories_nodes":[],"categories_segments":[],"categories_sizes":[],"default_left":[0,0,0,0,0,0,0],"id":112,"left_children":[1,3,5,-1,-1,-1,-1],"loss_changes":[1.0190716E1,1.31966E0,6.93717E-1,0E0,0E0,0E0,0E0],"parents":[2147483647,0,0,1,1,2,2],"right_children":[2,4,6,-1,-1,-1,-1],"split_conditions":[1E0,1E0,1E0,1.2589025E-3,7.630492E-3,-5.7454E-3,-0E0],"split_indices":[4,4852,2066,0,0,0,0],"split_type":[0,0,0,0,0,0,0],"sum_hessian":[1.5681119E2,6.919385E1,8.761733E1,5.1343204E1,1.7850645E1,7.597408E1,1.1643247E1],"tree_param":{"num_deleted":"0","num_feature":"6170","num_nodes":"7","size_leaf_vector":"1"}},{"base_weights":[-1.5957702E-2,1.4290795E-1,-2.717161E-1,4.6226312E-3,-3.3990133E-3,-7.2223023E-3,2.9672112E-4],"categories":[],"categories_nodes":[],"categories_segments":[],"categories_sizes":[],"default_left":[0,0,0,0,0,0,0],"id":113,"left_children":[1,3,5,-1,-1,-1,-1],"loss_changes":[7.41205E0,3.6629996E0,2.239612E0,0E0,0E0,0E0,0E0],"parents":[2147483647,0,0,1,1,2,2],"right_children":[2,4,6,-1,-1,-1,-1],"split_conditions":[4E0,1E0,1E0,4.6226312E-3,-3.3990133E-3,-7.2223023E-3,2.9672112E-4],"split_indices":[16,289,3529,0,0,0,0],"split_type":[0,0,0,0,0,0,0],"sum_hessian":[1.4991716E2,9.414632E1,5.5770836E1,7.8987274E1,1.5159044E1,4.21938E1,1.3577036E1],"tree_param":{"num_deleted":"0","num_feature":"6170","num_nodes":"7","size_leaf_vector":"1"}},{"base_weights":[1.03364065E-2,-2.9341096E-1,3.3378127E-1,-6.6404967E-3,-0E0,7.641835E-3,-0E0],"categories":[],"categories_nodes":[],"categories_segments":[],"categories_sizes":[],"default_left":[0,0,0,0,0,0,0],"id":114,"left_children":[1,3,5,-1,-1,-1,-1],"loss_changes":[1.8605314E1,1.2410107E0,1.7993145E0,0E0,0E0,0E0,0E0],"parents":[2147483647,0,0,1,1,2,2],"right_children":[2,4,6,-1,-1,-1,-1],"split_conditions":[1E0,1E0,1E0,-6.6404967E-3,-0E0,7.641835E-3,-0E0],"split_indices":[3,2126,4725,0,0,0,0],"split_type":[0,0,0,0,0,0,0],"sum_hessian":[1.5901215E2,8.1126915E1,7.788523E1,7.13256E1,9.801319E0,6.820647E1,9.678766E0],"tree_param":{"num_deleted":"0","num_feature":"6170","num_nodes":"7","size_leaf_vector":"1"}},{"base_weights":[3.4317398E-3,9.5253624E-2,-4.3338523E-3,4.212222E-3,-3.509252E-4],"categories":[],"categories_nodes":[],"categories_segments":[],"categories_sizes":[],"default_left":[0,0,0,0,0],"id":115,"left_children":[1,3,-1,-1,-1],"loss_changes":[3.6193597E0,1.9845314E0,0E0,0E0,0E0],"parents":[2147483647,0,0,1,1],"right_children":[2,4,-1,-1,-1],"split_conditions":[1E0,1E0,-4.3338523E-3,4.212222E-3,-3.509252E-4],"split_indices":[27,13,0,0,0],"split_type":[0,0,0,0,0],"sum_hessian":[1.5475793E2,1.184148E2,3.6343132E1,5.6496128E1,6.191868E1],"tree_param":{"num_deleted":"0","num_feature":"6170","num_nodes":"5","size_leaf_vector":"1"}},{"base_weights":[-1.8136925E-3,1.4643143E-1,-1.2539269E-1,3.5902956E-3,-8.4500025E-5,-3.3869916E-3,1.4923089E-3],"categories":[],"categories_nodes":[],"categories_segments":[],"categories_sizes":[],"default_left":[0,0,0,0,0,0,0],"id":116,"left_children":[1,3,5,-1,-1,-1,-1],"loss_changes":[3.2665133E0,5.7538414E-1,1.1760043E0,0E0,0E0,0E0,0E0],"parents":[2147483647,0,0,1,1,2,2],"right_children":[2,4,6,-1,-1,-1,-1],"split_conditions":[1E0,1E0,1E0,3.5902956E-3,-8.4500025E-5,-3.3869916E-3,1.4923089E-3],"split_indices":[4,3529,1110,0,0,0,0],"split_type":[0,0,0,0,0,0,0],"sum_hessian":[1.4941774E2,6.298966E1,8.6428085E1,5.4734592E1,8.255066E0,7.68397E1,9.588388E0],"tree_param":{"num_deleted":"0","num_feature":"6170","num_nodes":"7","size_leaf_vector":"1"}},{"base_weights":[1.9633036E-2,-3.1084722E-1,4.206244E-1,-8.767253E-3,-1.08159E-3,-0E0,1.2607988E-2],"categories":[],"categories_nodes":[],"categories_segments":[],"categories_sizes":[],"default_left":[0,0,0,0,0,0,0],"id":117,"left_children":[1,3,5,-1,-1,-1,-1],"loss_changes":[2.5539766E1,2.5683203E0,8.024446E0,0E0,0E0,0E0,0E0],"parents":[2147483647,0,0,1,1,2,2],"right_children":[2,4,6,-1,-1,-1,-1],"split_conditions":[4E0,1E0,1E0,-8.767253E-3,-1.08159E-3,-0E0,1.2607988E-2],"split_indices":[16,4,3,0,0,0,0],"split_type":[0,0,0,0,0,0,0],"sum_hessian":[1.620962E2,8.934228E1,7.275393E1,5.0005547E1,3.9336727E1,2.8493492E1,4.4260433E1],"tree_param":{"num_deleted":"0","num_feature":"6170","num_nodes":"7","size_leaf_vector":"1"}},{"base_weights":[2.07369E-2,-2.5054923E-1,2.8477892E-1,-5.6288624E-3,-0E0,1.0162157E-2,-7.894761E-6],"categories":[],"categories_nodes":[],"categories_segments":[],"categories_sizes":[],"default_left":[0,0,0,0,0,0,0],"id":118,"left_children":[1,3,5,-1,-1,-1,-1],"loss_changes":[1.3279635E1,5.2315426E-1,6.562545E0,0E0,0E0,0E0,0E0],"parents":[2147483647,0,0,1,1,2,2],"right_children":[2,4,6,-1,-1,-1,-1],"split_conditions":[1E0,1E0,1E0,-5.6288624E-3,-0E0,1.0162157E-2,-7.894761E-6],"split_indices":[6,5489,4,0,0,0,0],"split_type":[0,0,0,0,0,0,0],"sum_hessian":[1.5497038E2,7.494672E1,8.0023674E1,6.2888317E1,1.2058398E1,4.026849E1,3.975518E1],"tree_param":{"num_deleted":"0","num_feature":"6170","num_nodes":"7","size_leaf_vector":"1"}},{"base_weights":[-3.306222E-2,-9.412698E-2,6.4465753E-3,1.9116228E-4,-3.4947891E-3],"categories":[],"categories_nodes":[],"categories_segments":[],"categories_sizes":[],"default_left":[0,0,0,0,0],"id":119,"left_children":[1,3,-1,-1,-1],"loss_changes":[3.9572196E0,1.5333846E0,0E0,0E0,0E0],"parents":[2147483647,0,0,1,1],"right_children":[2,4,-1,-1,-1],"split_conditions":[1E0,1E0,6.4465753E-3,1.9116228E-4,-3.4947891E-3],"split_indices":[704,4,0,0,0],"split_type":[0,0,0,0,0],"sum_hessian":[1.5688957E2,1.456964E2,1.1193178E1,6.40853E1,8.161111E1],"tree_param":{"num_deleted":"0","num_feature":"6170","num_nodes":"5","size_leaf_vector":"1"}},{"base_weights":[4.335466E-2,-2.6886538E-1,3.4640175E-1,-6.745533E-3,5.649945E-4,-3.1191413E-3,9.981659E-3],"categories":[],"categories_nodes":[],"categories_segments":[],"categories_sizes":[],"default_left":[0,0,0,0,0,0,0],"id":120,"left_children":[1,3,5,-1,-1,-1,-1],"loss_changes":[1.785806E1,2.324109E0,8.877657E0,0E0,0E0,0E0,0E0],"parents":[2147483647,0,0,1,1,2,2],"right_children":[2,4,6,-1,-1,-1,-1],"split_conditions":[1E0,1E0,3E0,-6.745533E-3,5.649945E-4,-3.1191413E-3,9.981659E-3],"split_indices":[3,1103,16,0,0,0,0],"split_type":[0,0,0,0,0,0,0],"sum_hessian":[1.5815526E2,7.71067E1,8.104855E1,6.376322E1,1.3343477E1,1.7289713E1,6.3758842E1],"tree_param":{"num_deleted":"0","num_feature":"6170","num_nodes":"7","size_leaf_vector":"1"}},{"base_weights":[-3.6452133E-2,1.1923165E-1,-2.2941086E-1,-0E0,6.8796305E-3,-2.9511366E-4,-5.362471E-3],"categories":[],"categories_nodes":[],"categories_segments":[],"categories_sizes":[],"default_left":[0,0,0,0,0,0,0],"id":121,"left_children":[1,3,5,-1,-1,-1,-1],"loss_changes":[5.5535426E0,2.4785376E0,3.4594202E-1,0E0,0E0,0E0,0E0],"parents":[2147483647,0,0,1,1,2,2],"right_children":[2,4,6,-1,-1,-1,-1],"split_conditions":[1E0,1E0,1E0,-0E0,6.8796305E-3,-2.9511366E-4,-5.362471E-3],"split_indices":[3,4852,5996,0,0,0,0],"split_type":[0,0,0,0,0,0,0],"sum_hessian":[1.5254251E2,8.472952E1,6.781298E1,6.6800156E1,1.7929369E1,1.7473606E1,5.0339375E1],"tree_param":{"num_deleted":"0","num_feature":"6170","num_nodes":"7","size_leaf_vector":"1"}},{"base_weights":[-5.781718E-2,1.0236632E-1,-2.854322E-1,4.8254193E-3,-1.4738837E-3,-7.065726E-3,-0E0],"categories":[],"categories_nodes":[],"categories_segments":[],"categories_sizes":[],"default_left":[0,0,0,0,0,0,0],"id":122,"left_children":[1,3,5,-1,-1,-1,-1],"loss_changes":[6.9665055E0,3.1392493E0,1.3929157E0,0E0,0E0,0E0,0E0],"parents":[2147483647,0,0,1,1,2,2],"right_children":[2,4,6,-1,-1,-1,-1],"split_conditions":[4E0,1E0,1E0,4.8254193E-3,-1.4738837E-3,-7.065726E-3,-0E0],"split_indices":[16,6,2297,0,0,0,0],"split_type":[0,0,0,0,0,0,0],"sum_hessian":[1.5902994E2,9.56072E1,6.3422737E1,5.3512253E1,4.2094948E1,4.735126E1,1.6071476E1],"tree_param":{"num_deleted":"0","num_feature":"6170","num_nodes":"7","size_leaf_vector":"1"}},{"base_weights":[-0E0,-2.7220988E-1,3.557915E-1,-7.6227686E-3,-1.202387E-3,-7.54501E-4,9.154485E-3],"categories":[],"categories_nodes":[],"categories_segments":[],"categories_sizes":[],"default_left":[0,0,0,0,0,0,0],"id":123,"left_children":[1,3,5,-1,-1,-1,-1],"loss_changes":[1.90459E1,1.7783909E0,4.108961E0,0E0,0E0,0E0,0E0],"parents":[2147483647,0,0,1,1,2,2],"right_children":[2,4,6,-1,-1,-1,-1],"split_conditions":[4E0,3E0,1E0,-7.6227686E-3,-1.202387E-3,-7.54501E-4,9.154485E-3],"split_indices":[16,16,4,0,0,0,0],"split_type":[0,0,0,0,0,0,0],"sum_hessian":[1.6646355E2,9.5954765E1,7.050877E1,5.2381245E1,4.3573524E1,1.4431885E1,5.6076885E1],"tree_param":{"num_deleted":"0","num_feature":"6170","num_nodes":"7","size_leaf_vector":"1"}},{"base_weights":[-2.6414445E-2,1.5871769E-1,-2.715532E-1,1.2509625E-4,8.508754E-3,-6.6374E-3,-0E0],"categories":[],"categories_nodes":[],"categories_segments":[],"categories_sizes":[],"default_left":[0,0,0,0,0,0,0],"id":124,"left_children":[1,3,5,-1,-1,-1,-1],"loss_changes":[8.764428E0,3.9054477E0,1.6511354E0,0E0,0E0,0E0,0E0],"parents":[2147483647,0,0,1,1,2,2],"right_children":[2,4,6,-1,-1,-1,-1],"split_conditions":[1E0,1E0,1E0,1.2509625E-4,8.508754E-3,-6.6374E-3,-0E0],"split_indices":[3,4852,6152,0,0,0,0],"split_type":[0,0,0,0,0,0,0],"sum_hessian":[1.6138931E2,9.26372E1,6.875211E1,7.1097404E1,2.1539795E1,5.6066586E1,1.2685529E1],"tree_param":{"num_deleted":"0","num_feature":"6170","num_nodes":"7","size_leaf_vector":"1"}},{"base_weights":[-4.659254E-3,9.107373E-2,-1.3175975E-1,3.7661556E-3,-2.9111165E-4,-3.2396223E-3,-0E0],"categories":[],"categories_nodes":[],"categories_segments":[],"categories_sizes":[],"default_left":[0,0,0,0,0,0,0],"id":125,"left_children":[1,3,5,-1,-1,-1,-1],"loss_changes":[2.2282867E0,1.2264516E0,3.3109558E-1,0E0,0E0,0E0,0E0],"parents":[2147483647,0,0,1,1,2,2],"right_children":[2,4,6,-1,-1,-1,-1],"split_conditions":[1E0,1E0,1E0,3.7661556E-3,-2.9111165E-4,-3.2396223E-3,-0E0],"split_indices":[3,5350,3132,0,0,0,0],"split_type":[0,0,0,0,0,0,0],"sum_hessian":[1.4999431E2,8.349174E1,6.650258E1,4.228954E1,4.1202198E1,5.1546223E1,1.4956357E1],"tree_param":{"num_deleted":"0","num_feature":"6170","num_nodes":"7","size_leaf_vector":"1"}},{"base_weights":[-6.5330826E-3,-1.2688266E-1,5.8931583E-3,-4.2533497E-3,3.9515784E-3],"categories":[],"categories_nodes":[],"categories_segments":[],"categories_sizes":[],"default_left":[0,0,0,0,0],"id":126,"left_children":[1,3,-1,-1,-1],"loss_changes":[6.36904E0,4.281931E0,0E0,0E0,0E0],"parents":[2147483647,0,0,1,1],"right_children":[2,4,-1,-1,-1],"split_conditions":[4E0,1E0,5.8931583E-3,-4.2533497E-3,3.9515784E-3],"split_indices":[19,1054,0,0,0],"split_type":[0,0,0,0,0],"sum_hessian":[1.498636E2,1.15652435E2,3.421117E1,9.7993996E1,1.7658443E1],"tree_param":{"num_deleted":"0","num_feature":"6170","num_nodes":"5","size_leaf_vector":"1"}},{"base_weights":[-3.7942618E-2,2.1065196E-1,-2.4411269E-1,5.9066713E-3,-1.7226705E-3,-5.550856E-3,-0E0],"categories":[],"categories_nodes":[],"categories_segments":[],"categories_sizes":[],"default_left":[0,0,0,0,0,0,0],"id":127,"left_children":[1,3,5,-1,-1,-1,-1],"loss_changes":[9.976147E0,2.7767236E0,9.2547894E-1,0E0,0E0,0E0,0E0],"parents":[2147483647,0,0,1,1,2,2],"right_children":[2,4,6,-1,-1,-1,-1],"split_conditions":[1E0,1E0,1E0,5.9066713E-3,-1.7226705E-3,-5.550856E-3,-0E0],"split_indices":[4,3925,4852,0,0,0,0],"split_type":[0,0,0,0,0,0,0],"sum_hessian":[1.639434E2,7.1977875E1,9.196552E1,5.867811E1,1.32997675E1,7.976388E1,1.2201648E1],"tree_param":{"num_deleted":"0","num_feature":"6170","num_nodes":"7",