{"learner":{"attributes":{"scikit_learn":"{\"_estimator_type\": \"classifier\"}"},"feature_names":[],"feature_types":[],"gradient_booster":{"model":{"cats":{"enc":[],"feature_segments":[],"sorted_idx":[]},"gbtree_model_param":{"num_parallel_tree":"1","num_trees":"2100"},"iteration_indptr":[0,3,6,9,12,15,18,21,24,27,30,33,36,39,42,45,48,51,54,57,60,63,66,69,72,75,78,81,84,87,90,93,96,99,102,105,108,111,114,117,120,123,126,129,132,135,138,141,144,147,150,153,156,159,162,165,168,171,174,177,180,183,186,189,192,195,198,201,204,207,210,213,216,219,222,225,228,231,234,237,240,243,246,249,252,255,258,261,264,267,270,273,276,279,282,285,288,291,294,297,300,303,306,309,312,315,318,321,324,327,330,333,336,339,342,345,348,351,354,357,360,363,366,369,372,375,378,381,384,387,390,393,396,399,402,405,408,411,414,417,420,423,426,429,432,435,438,441,444,447,450,453,456,459,462,465,468,471,474,477,480,483,486,489,492,495,498,501,504,507,510,513,516,519,522,525,528,531,534,537,540,543,546,549,552,555,558,561,564,567,570,573,576,579,582,585,588,591,594,597,600,603,606,609,612,615,618,621,624,627,630,633,636,639,642,645,648,651,654,657,660,663,666,669,672,675,678,681,684,687,690,693,696,699,702,705,708,711,714,717,720,723,726,729,732,735,738,741,744,747,750,753,756,759,762,765,768,771,774,777,780,783,786,789,792,795,798,801,804,807,810,813,816,819,822,825,828,831,834,837,840,843,846,849,852,855,858,861,864,867,870,873,876,879,882,885,888,891,894,897,900,903,906,909,912,915,918,921,924,927,930,933,936,939,942,945,948,951,954,957,960,963,966,969,972,975,978,981,984,987,990,993,996,999,1002,1005,1008,1011,1014,1017,1020,1023,1026,1029,1032,1035,1038,1041,1044,1047,1050,1053,1056,1059,1062,1065,1068,1071,1074,1077,1080,1083,1086,1089,1092,1095,1098,1101,1104,1107,1110,1113,1116,1119,1122,1125,1128,1131,1134,1137,1140,1143,1146,1149,1152,1155,1158,1161,1164,1167,1170,1173,1176,1179,1182,1185,1188,1191,1194,1197,1200,1203,1206,1209,1212,1215,1218,1221,1224,1227,1230,1233,1236,1239,1242,1245,1248,1251,1254,1257,1260,1263,1266,1269,1272,1275,1278,1281,1284,1287,1290,1293,1296,1299,1302,1305,1308,1311,1314,1317,1320,1323,1326,1329,1332,1335,1338,1341,1344,1347,1350,1353,1356,1359,1362,1365,1368,1371,1374,1377,1380,1383,1386,1389,1392,1395,1398,1401,1404,1407,1410,1413,1416,1419,1422,1425,1428,1431,1434,1437,1440,1443,1446,1449,1452,1455,1458,1461,1464,1467,1470,1473,1476,1479,1482,1485,1488,1491,1494,1497,1500,1503,1506,1509,1512,1515,1518,1521,1524,1527,1530,1533,1536,1539,1542,1545,1548,1551,1554,1557,1560,1563,1566,1569,1572,1575,1578,1581,1584,1587,1590,1593,1596,1599,1602,1605,1608,1611,1614,1617,1620,1623,1626,1629,1632,1635,1638,1641,1644,1647,1650,1653,1656,1659,1662,1665,1668,1671,1674,1677,1680,1683,1686,1689,1692,1695,1698,1701,1704,1707,1710,1713,1716,1719,1722,1725,1728,1731,1734,1737,1740,1743,1746,1749,1752,1755,1758,1761,1764,1767,1770,1773,1776,1779,1782,1785,1788,1791,1794,1797,1800,1803,1806,1809,1812,1815,1818,1821,1824,1827,1830,1833,1836,1839,1842,1845,1848,1851,1854,1857,1860,1863,1866,1869,1872,1875,1878,1881,1884,1887,1890,1893,1896,1899,1902,1905,1908,1911,1914,1917,1920,1923,1926,1929,1932,1935,1938,1941,1944,1947,1950,1953,1956,1959,1962,1965,1968,1971,1974,1977,1980,1983,1986,1989,1992,1995,1998,2001,2004,2007,2010,2013,2016,2019,2022,2025,2028,2031,2034,2037,2040,2043,2046,2049,2052,2055,2058,2061,2064,2067,2070,2073,2076,2079,2082,2085,2088,2091,2094,2097,2100],"tree_info":[0,1,2,0,1,2,0,1,2,0,1,2,0,1,2,0,1,2,0,1,2,0,1,2,0,1,2,0,1,2,0,1,2,0,1,2,0,1,2,0,1,2,0,1,2,0,1,2,0,1,2,0,1,2,0,1,2,0,1,2,0,1,2,0,1,2,0,1,2,0,1,2,0,1,2,0,1,2,0,1,2,0,1,2,0,1,2,0,1,2,0,1,2,0,1,2,0,1,2,0,1,2,0,1,2,0,1,2,0,1,2,0,1,2,0,1,2,0,1,2,0,1,2,0,1,2,0,1,2,0,1,2,0,1,2,0,1,2,0,1,2,0,1,2,0,1,2,0,1,2,0,1,2,0,1,2,0,1,2,0,1,2,0,1,2,0,1,2,0,1,2,0,1,2,0,1,2,0,1,2,0,1,2,0,1,2,0,1,2,0,1,2,0,1,2,0,1,2,0,1,2,0,1,2,0,1,2,0,1,2,0,1,2,0,1,2,0,1,2,0,1,2,0,1,2,0,1,2,0,1,2,0,1,2,0,1,2,0,1,2,0,1,2,0,1,2,0,1,2,0,1,2,0,1,2,0,1,2,0,1,2,0,1,2,0,1,2,0,1,2,0,1,2,0,1,2,0,1,2,0,1,2,0,1,2,0,1,2,0,1,2,0,1,2,0,1,2,0,1,2,0,1,2,0,1,2,0,1,2,0,1,2,0,1,2,0,1,2,0,1,2,0,1,2,0,1,2,0,1,2,0,1,2,0,1,2,0,1,2,0,1,2,0,1,2,0,1,2,0,1,2,0,1,2,0,1,2,0,1,2,0,1,2,0,1,2,0,1,2,0,1,2,0,1,2,0,1,2,0,1,2,0,1,2,0,1,2,0,1,2,0,1,2,0,1,2,0,1,2,0,1,2,0,1,2,0,1,2,0,1,2,0,1,2,0,1,2,0,1,2,0,1,2,0,1,2,0,1,2,0,1,2,0,1,2,0,1,2,0,1,2,0,1,2,0,1,2,0,1,2,0,1,2,0,1,2,0,1,2,0,1,2,0,1,2,0,1,2,0,1,2,0,1,2,0,1,2,0,1,2,0,1,2,0,1,2,0,1,2,0,1,2,0,1,2,0,1,2,0,1,2,0,1,2,0,1,2,0,1,2,0,1,2,0,1,2,0,1,2,0,1,2,0,1,2,0,1,2,0,1,2,0,1,2,0,1,2,0,1,2,0,1,2,0,1,2,0,1,2,0,1,2,0,1,2,0,1,2,0,1,2,0,1,2,0,1,2,0,1,2,0,1,2,0,1,2,0,1,2,0,1,2,0,1,2,0,1,2,0,1,2,0,1,2,0,1,2,0,1,2,0,1,2,0,1,2,0,1,2,0,1,2,0,1,2,0,1,2,0,1,2,0,1,2,0,1,2,0,1,2,0,1,2,0,1,2,0,1,2,0,1,2,0,1,2,0,1,2,0,1,2,0,1,2,0,1,2,0,1,2,0,1,2,0,1,2,0,1,2,0,1,2,0,1,2,0,1,2,0,1,2,0,1,2,0,1,2,0,1,2,0,1,2,0,1,2,0,1,2,0,1,2,0,1,2,0,1,2,0,1,2,0,1,2,0,1,2,0,1,2,0,1,2,0,1,2,0,1,2,0,1,2,0,1,2,0,1,2,0,1,2,0,1,2,0,1,2,0,1,2,0,1,2,0,1,2,0,1,2,0,1,2,0,1,2,0,1,2,0,1,2,0,1,2,0,1,2,0,1,2,0,1,2,0,1,2,0,1,2,0,1,2,0,1,2,0,1,2,0,1,2,0,1,2,0,1,2,0,1,2,0,1,2,0,1,2,0,1,2,0,1,2,0,1,2,0,1,2,0,1,2,0,1,2,0,1,2,0,1,2,0,1,2,0,1,2,0,1,2,0,1,2,0,1,2,0,1,2,0,1,2,0,1,2,0,1,2,0,1,2,0,1,2,0,1,2,0,1,2,0,1,2,0,1,2,0,1,2,0,1,2,0,1,2,0,1,2,0,1,2,0,1,2,0,1,2,0,1,2,0,1,2,0,1,2,0,1,2,0,1,2,0,1,2,0,1,2,0,1,2,0,1,2,0,1,2,0,1,2,0,1,2,0,1,2,0,1,2,0,1,2,0,1,2,0,1,2,0,1,2,0,1,2,0,1,2,0,1,2,0,1,2,0,1,2,0,1,2,0,1,2,0,1,2,0,1,2,0,1,2,0,1,2,0,1,2,0,1,2,0,1,2,0,1,2,0,1,2,0,1,2,0,1,2,0,1,2,0,1,2,0,1,2,0,1,2,0,1,2,0,1,2,0,1,2,0,1,2,0,1,2,0,1,2,0,1,2,0,1,2,0,1,2,0,1,2,0,1,2,0,1,2,0,1,2,0,1,2,0,1,2,0,1,2,0,1,2,0,1,2,0,1,2,0,1,2,0,1,2,0,1,2,0,1,2,0,1,2,0,1,2,0,1,2,0,1,2,0,1,2,0,1,2,0,1,2,0,1,2,0,1,2,0,1,2,0,1,2,0,1,2,0,1,2,0,1,2,0,1,2,0,1,2,0,1,2,0,1,2,0,1,2,0,1,2,0,1,2,0,1,2,0,1,2,0,1,2,0,1,2,0,1,2,0,1,2,0,1,2,0,1,2,0,1,2,0,1,2,0,1,2,0,1,2,0,1,2,0,1,2,0,1,2,0,1,2,0,1,2,0,1,2,0,1,2,0,1,2,0,1,2,0,1,2,0,1,2,0,1,2,0,1,2,0,1,2,0,1,2,0,1,2,0,1,2,0,1,2,0,1,2,0,1,2,0,1,2,0,1,2,0,1,2,0,1,2,0,1,2,0,1,2,0,1,2,0,1,2,0,1,2,0,1,2,0,1,2,0,1,2,0,1,2,0,1,2,0,1,2,0,1,2,0,1,2,0,1,2,0,1,2,0,1,2,0,1,2,0,1,2,0,1,2,0,1,2,0,1,2,0,1,2,0,1,2,0,1,2,0,1,2,0,1,2,0,1,2,0,1,2,0,1,2,0,1,2,0,1,2,0,1,2,0,1,2,0,1,2,0,1,2,0,1,2,0,1,2,0,1,2,0,1,2,0,1,2,0,1,2,0,1,2,0,1,2,0,1,2,0,1,2,0,1,2,0,1,2,0,1,2,0,1,2,0,1,2,0,1,2,0,1,2,0,1,2,0,1,2,0,1,2,0,1,2,0,1,2,0,1,2,0,1,2,0,1,2,0,1,2,0,1,2,0,1,2,0,1,2,0,1,2,0,1,2,0,1,2,0,1,2,0,1,2,0,1,2,0,1,2,0,1,2,0,1,2,0,1,2,0,1,2,0,1,2,0,1,2,0,1,2,0,1,2,0,1,2,0,1,2,0,1,2,0,1,2,0,1,2,0,1,2,0,1,2,0,1,2,0,1,2,0,1,2,0,1,2,0,1,2,0,1,2,0,1,2,0,1,2,0,1,2,0,1,2,0,1,2,0,1,2,0,1,2,0,1,2,0,1,2,0,1,2,0,1,2,0,1,2,0,1,2,0,1,2,0,1,2,0,1,2,0,1,2,0,1,2,0,1,2,0,1,2,0,1,2,0,1,2,0,1,2,0,1,2,0,1,2,0,1,2,0,1,2,0,1,2,0,1,2,0,1,2,0,1,2,0,1,2,0,1,2,0,1,2,0,1,2,0,1,2,0,1,2,0,1,2,0,1,2,0,1,2,0,1,2,0,1,2,0,1,2,0,1,2,0,1,2,0,1,2,0,1,2,0,1,2,0,1,2,0,1,2,0,1,2,0,1,2,0,1,2,0,1,2,0,1,2,0,1,2,0,1,2,0,1,2,0,1,2,0,1,2,0,1,2,0,1,2,0,1,2,0,1,2,0,1,2,0,1,2,0,1,2,0,1,2,0,1,2,0,1,2,0,1,2,0,1,2,0,1,2,0,1,2,0,1,2,0,1,2,0,1,2,0,1,2,0,1,2,0,1,2,0,1,2,0,1,2,0,1,2,0,1,2,0,1,2,0,1,2,0,1,2,0,1,2,0,1,2,0,1,2,0,1,2,0,1,2,0,1,2,0,1,2,0,1,2,0,1,2,0,1,2,0,1,2,0,1,2,0,1,2,0,1,2,0,1,2,0,1,2,0,1,2,0,1,2,0,1,2,0,1,2,0,1,2,0,1,2,0,1,2,0,1,2,0,1,2,0,1,2,0,1,2,0,1,2,0,1,2,0,1,2,0,1,2,0,1,2,0,1,2,0,1,2,0,1,2,0,1,2,0,1,2,0,1,2,0,1,2,0,1,2,0,1,2,0,1,2,0,1,2,0,1,2,0,1,2,0,1,2,0,1,2,0,1,2,0,1,2,0,1,2,0,1,2,0,1,2,0,1,2,0,1,2,0,1,2,0,1,2,0,1,2,0,1,2,0,1,2,0,1,2,0,1,2,0,1,2,0,1,2,0,1,2,0,1,2,0,1,2,0,1,2,0,1,2,0,1,2,0,1,2,0,1,2,0,1,2,0,1,2,0,1,2,0,1,2,0,1,2,0,1,2,0,1,2,0,1,2,0,1,2,0,1,2,0,1,2,0,1,2,0,1,2,0,1,2,0,1,2,0,1,2,0,1,2,0,1,2,0,1,2,0,1,2,0,1,2,0,1,2,0,1,2,0,1,2,0,1,2,0,1,2,0,1,2,0,1,2],"trees":[{"base_weights":[5.2355607E-3,-4.2857146E-1,3.565217E-1,-9.09337E-3,-5.581398E-4,9.8150745E-2,1.2462527E-2,-4.870849E-3,2.539682E-1,-0E0,6.833712E-3],"categories":[],"categories_nodes":[],"categories_segments":[],"categories_sizes":[],"default_left":[0,0,0,0,0,0,0,0,0,0,0],"id":0,"left_children":[1,3,5,-1,-1,7,-1,-1,9,-1,-1],"loss_changes":[3.132644E1,2.7860832E-1,6.2828503E0,0E0,0E0,5.0969806E0,0E0,0E0,1.631269E0,0E0,0E0],"parents":[2147483647,0,0,1,1,2,2,5,5,8,8],"right_children":[2,4,6,-1,-1,8,-1,-1,10,-1,-1],"split_conditions":[1E0,1E0,1E0,-9.09337E-3,-5.581398E-4,3E0,1.2462527E-2,-4.870849E-3,1E0,-0E0,6.833712E-3],"split_indices":[4,28,1,0,0,19,0,0,4510,0,0],"split_type":[0,0,0,0,0,0,0,0,0,0,0],"sum_hessian":[1.7599998E2,7.599999E1,9.999999E1,6.711111E1,8.888888E0,6.3111107E1,3.6888885E1,1.5111111E1,4.7999996E1,1.4222221E1,3.3777775E1],"tree_param":{"num_deleted":"0","num_feature":"6444","num_nodes":"11","size_leaf_vector":"1"}},{"base_weights":[8.766762E-3,3.109987E-1,-2.1042658E-1,1.0047843E-1,1.1638795E-2,-0E0,-3.40591E-1,3.8216554E-3,-1.2371138E-3,6.0402654E-2,-2.5531917E-3,-7.8106513E-3,-8.856093E-4,2.564102E-3,-7.792211E-4],"categories":[],"categories_nodes":[],"categories_segments":[],"categories_sizes":[],"default_left":[0,0,0,0,0,0,0,0,0,0,0,0,0,0,0],"id":1,"left_children":[1,3,5,7,-1,9,11,-1,-1,13,-1,-1,-1,-1,-1],"loss_changes":[1.3676542E1,3.4535532E0,3.0971918E0,1.33119E0,0E0,6.067399E-1,3.6304379E-1,0E0,0E0,4.987785E-1,0E0,0E0,0E0,0E0,0E0],"parents":[2147483647,0,0,1,1,2,2,3,3,5,5,6,6,9,9],"right_children":[2,4,6,8,-1,10,12,-1,-1,14,-1,-1,-1,-1,-1],"split_conditions":[1E0,1E0,1E0,1E0,1.1638795E-2,1E0,1E0,3.8216554E-3,-1.2371138E-3,1E0,-2.5531917E-3,-7.8106513E-3,-8.856093E-4,2.564102E-3,-7.792211E-4],"split_indices":[4,314,3,3,0,3194,3194,0,0,3663,0,0,0,0,0],"split_type":[0,0,0,0,0,0,0,0,0,0,0,0,0,0,0],"sum_hessian":[1.751111E2,7.2888885E1,1.0222221E2,5.4666664E1,1.8222221E1,4.5777775E1,5.6444443E1,3.7333332E1,1.7333332E1,3.4666664E1,1.1111111E1,4.1333332E1,1.5111111E1,2.3999998E1,1.0666666E1],"tree_param":{"num_deleted":"0","num_feature":"6444","num_nodes":"15","size_leaf_vector":"1"}},{"base_weights":[4.897955E-2,1.3016945E-1,-5.2800006E-3,2.158626E-1,-3.2558145E-3,2.941176E-1,-1.4634149E-1,3.5908592E-1,-4.181189E-4,-0E0,-3.6966826E-3,8.035043E-3,-0E0],"categories":[],"categories_nodes":[],"categories_segments":[],"categories_sizes":[],"default_left":[0,0,0,0,0,0,0,0,0,0,0,0,0],"id":2,"left_children":[1,3,-1,5,-1,7,9,11,-1,-1,-1,-1,-1],"loss_changes":[5.2238054E0,4.694556E0,0E0,4.645074E0,0E0,2.886304E0,1.1802095E-1,1.1626778E0,0E0,0E0,0E0,0E0,0E0],"parents":[2147483647,0,0,1,1,3,3,5,5,6,6,7,7],"right_children":[2,4,-1,6,-1,8,10,12,-1,-1,-1,-1,-1],"split_conditions":[1E0,1E0,-5.2800006E-3,1E0,-3.2558145E-3,1E0,4E0,1E0,-4.181189E-4,-0E0,-3.6966826E-3,8.035043E-3,-0E0],"split_indices":[6349,5073,0,307,0,1177,18,3490,0,0,0,0,0],"split_type":[0,0,0,0,0,0,0,0,0,0,0,0,0],"sum_hessian":[1.7555554E2,1.4888889E2,2.6666664E1,1.20888885E2,2.7999998E1,1.0399999E2,1.6888887E1,8.711111E1,1.6888887E1,8.444444E0,8.444444E0,7.377777E1,1.3333332E1],"tree_param":{"num_deleted":"0","num_feature":"6444","num_nodes":"13","size_leaf_vector":"1"}},{"base_weights":[-1.8411957E-2,-4.1170597E-1,3.1595308E-1,-4.5738965E-1,-2.1385716E-4,-0E0,8.351439E-3,-9.767677E-3,-7.827407E-4,-1.565366E-3,1.9115292E-3],"categories":[],"categories_nodes":[],"categories_segments":[],"categories_sizes":[],"default_left":[0,0,0,0,0,0,0,0,0,0,0],"id":3,"left_children":[1,3,5,7,-1,9,-1,-1,-1,-1,-1],"loss_changes":[2.7268524E1,1.2175808E0,3.4448967E0,2.695217E-1,0E0,4.3550643E-1,0E0,0E0,0E0,0E0,0E0],"parents":[2147483647,0,0,1,1,2,2,3,3,5,5],"right_children":[2,4,6,8,-1,10,-1,-1,-1,-1,-1],"split_conditions":[1E0,1E0,1E0,1E0,-2.1385716E-4,1E0,8.351439E-3,-9.767677E-3,-7.827407E-4,-1.565366E-3,1.9115292E-3],"split_indices":[4,1177,3296,3015,0,2119,0,0,0,0,0],"split_type":[0,0,0,0,0,0,0,0,0,0,0],"sum_hessian":[1.7679355E2,8.101798E1,9.577557E1,6.86005E1,1.2417477E1,2.7598854E1,6.817672E1,5.9300076E1,9.300428E0,1.5127311E1,1.2471543E1],"tree_param":{"num_deleted":"0","num_feature":"6444","num_nodes":"11","size_leaf_vector":"1"}},{"base_weights":[1.8655691E-2,2.4430928E-1,-2.746618E-1,3.1011534E-1,-1.5483781E-3,-0E0,-6.6196737E-3,1.3846964E-1,1.0306585E-2,4.1966005E-3,7.3737083E-3,-1.1297199E-3,2.829145E-3],"categories":[],"categories_nodes":[],"categories_segments":[],"categories_sizes":[],"default_left":[0,0,0,0,0,0,0,0,0,0,0,0,0],"id":4,"left_children":[1,3,5,7,-1,-1,-1,9,-1,11,-1,-1,-1],"loss_changes":[1.4087275E1,3.172027E0,1.3145809E0,2.03473E0,0E0,0E0,0E0,2.1162481E0,0E0,7.81635E-1,0E0,0E0,0E0],"parents":[2147483647,0,0,1,1,2,2,3,3,7,7,9,9],"right_children":[2,4,6,8,-1,-1,-1,10,-1,12,-1,-1,-1],"split_conditions":[1E0,1E0,3E0,1E0,-1.5483781E-3,-0E0,-6.6196737E-3,1E0,1.0306585E-2,1E0,7.3737083E-3,-1.1297199E-3,2.829145E-3],"split_indices":[3,1155,19,314,0,0,0,307,0,8,0,0,0],"split_type":[0,0,0,0,0,0,0,0,0,0,0,0,0],"sum_hessian":[1.8308818E2,1.0682308E2,7.62651E1,9.171367E1,1.5109409E1,1.6417799E1,5.98473E1,6.6274475E1,2.5439194E1,5.4250267E1,1.2024209E1,3.8688095E1,1.5562175E1],"tree_param":{"num_deleted":"0","num_feature":"6444","num_nodes":"13","size_leaf_vector":"1"}},{"base_weights":[3.344917E-2,1.6562808E-1,-1.3713263E-1,2.4516962E-1,-2.8841028E-3,-0E0,-2.0912232E-1,3.3799013E-1,-9.009796E-3,-7.235016E-2,1.9403688E-3,-5.060358E-3,-0E0,8.536592E-3,5.2332595E-2,-1.795506E-3,7.417924E-4,-0E0,-2.121875E-3,2.529339E-3,-5.603712E-4],"categories":[],"categories_nodes":[],"categories_segments":[],"categories_sizes":[],"default_left":[0,0,0,0,0,0,0,0,0,0,0,0,0,0,0,0,0,0,0,0,0],"id":5,"left_children":[1,3,5,7,-1,9,11,13,15,17,-1,-1,-1,-1,19,-1,-1,-1,-1,-1,-1],"loss_changes":[4.518029E0,3.4350996E0,7.62885E-1,2.7021713E0,0E0,4.1988394E-1,2.439034E-1,1.1026783E0,2.4455288E-1,1.24026924E-1,0E0,0E0,0E0,0E0,3.7608096E-1,0E0,0E0,0E0,0E0,0E0,0E0],"parents":[2147483647,0,0,1,1,2,2,3,3,5,5,6,6,7,7,8,8,9,9,14,14],"right_children":[2,4,6,8,-1,10,12,14,16,18,-1,-1,-1,-1,20,-1,-1,-1,-1,-1,-1],"split_conditions":[4E0,1E0,1E0,1E0,-2.8841028E-3,1E0,1E0,1E0,3E0,1E0,1.9403688E-3,-5.060358E-3,-0E0,8.536592E-3,1E0,-1.795506E-3,7.417924E-4,-0E0,-2.121875E-3,2.529339E-3,-5.603712E-4],"split_indices":[18,4947,101,2,0,1087,2,10,18,5589,0,0,0,0,4910,0,0,0,0,0,0],"split_type":[0,0,0,0,0,0,0,0,0,0,0,0,0,0,0,0,0,0,0,0,0],"sum_hessian":[1.6900589E2,9.876987E1,7.0236015E1,8.365241E1,1.5117452E1,3.1138985E1,3.9097034E1,6.0534775E1,2.3117641E1,2.2240387E1,8.898597E0,2.5764782E1,1.3332251E1,3.784978E1,2.2684992E1,1.1118689E1,1.1998952E1,8.902907E0,1.333748E1,1.3794359E1,8.890634E0],"tree_param":{"num_deleted":"0","num_feature":"6444","num_nodes":"21","size_leaf_vector":"1"}},{"base_weights":[-1.0655643E-3,-3.4582818E-1,4.050603E-1,-3.89066E-1,-0E0,8.9082696E-2,1.253534E-2,-4.2005497E-1,-0E0,-3.1022355E-3,2.1264419E-1,-9.08197E-3,-0E0,5.128536E-3,-0E0],"categories":[],"categories_nodes":[],"categories_segments":[],"categories_sizes":[],"default_left":[0,0,0,0,0,0,0,0,0,0,0,0,0,0,0],"id":6,"left_children":[1,3,5,7,-1,9,-1,11,-1,-1,13,-1,-1,-1,-1],"loss_changes":[2.939357E1,1.9729195E0,5.120516E0,1.1179037E0,0E0,2.3212442E0,0E0,9.2076683E-1,0E0,0E0,4.5742154E-1,0E0,0E0,0E0,0E0],"parents":[2147483647,0,0,1,1,2,2,3,3,5,5,7,7,10,10],"right_children":[2,4,6,8,-1,10,-1,12,-1,-1,14,-1,-1,-1,-1],"split_conditions":[1E0,1E0,1E0,1E0,-0E0,1E0,1.253534E-2,1E0,-0E0,-3.1022355E-3,1E0,-9.08197E-3,-0E0,5.128536E-3,-0E0],"split_indices":[3,130,1,4297,0,4551,0,1376,0,0,4410,0,0,0,0],"split_type":[0,0,0,0,0,0,0,0,0,0,0,0,0,0,0],"sum_hessian":[1.8034471E2,1.000776E2,8.026711E1,8.895471E1,1.1122885E1,4.362709E1,3.6640022E1,8.051793E1,8.436782E0,1.0652104E1,3.2974987E1,7.1198204E1,9.319727E0,2.4947453E1,8.0275345E0],"tree_param":{"num_deleted":"0","num_feature":"6444","num_nodes":"15","size_leaf_vector":"1"}},{"base_weights":[2.0365773E-2,2.3975705E-1,-5.2861157E-3,3.8857558E-1,4.1680476E-3,8.54472E-3,7.208463E-4,8.4701955E-2,-2.074202E-3,-0E0,3.4911765E-3,1.1518134E-3,-1.5904582E-3],"categories":[],"categories_nodes":[],"categories_segments":[],"categories_sizes":[],"default_left":[0,0,0,0,0,0,0,0,0,0,0,0,0],"id":7,"left_children":[1,3,-1,5,7,-1,-1,9,-1,11,-1,-1,-1],"loss_changes":[1.2708061E1,3.6636095E0,0E0,2.4025154E-1,6.5855634E-1,0E0,0E0,4.1188344E-1,0E0,2.533116E-1,0E0,0E0,0E0],"parents":[2147483647,0,0,1,1,3,3,4,4,7,7,9,9],"right_children":[2,4,-1,6,8,-1,-1,10,-1,12,-1,-1,-1],"split_conditions":[1E0,1E0,-5.2861157E-3,1E0,1E0,8.54472E-3,7.208463E-4,1E0,-2.074202E-3,4E0,3.4911765E-3,1.1518134E-3,-1.5904582E-3],"split_indices":[14,4,0,3194,9,0,0,3625,0,18,0,0,0],"split_type":[0,0,0,0,0,0,0,0,0,0,0,0,0],"sum_hessian":[1.7365062E2,1.0139036E2,7.226026E1,5.356725E1,4.782311E1,4.2852673E1,1.0714578E1,3.4534477E1,1.3288633E1,2.4354137E1,1.0180339E1,1.5067159E1,9.286978E0],"tree_param":{"num_deleted":"0","num_feature":"6444","num_nodes":"13","size_leaf_vector":"1"}},{"base_weights":[-1.0269458E-2,6.580513E-2,-4.416891E-3,1.3443752E-1,-8.733043E-2,2.0432074E-1,-1.7907914E-3,-1.8032993E-1,1.2700291E-3,5.3374474E-3,4.665555E-2,-0E0,-4.360469E-3,3.075375E-3,-5.4774754E-4],"categories":[],"categories_nodes":[],"categories_segments":[],"categories_sizes":[],"default_left":[0,0,0,0,0,0,0,0,0,0,0,0,0,0,0],"id":8,"left_children":[1,3,-1,5,7,9,-1,11,-1,-1,13,-1,-1,-1,-1],"loss_changes":[3.407144E0,1.7703407E0,0E0,2.143254E0,9.9193156E-1,4.2071176E-1,0E0,1.8321836E-1,0E0,0E0,5.801135E-1,0E0,0E0,0E0,0E0],"parents":[2147483647,0,0,1,1,3,3,4,4,5,5,7,7,10,10],"right_children":[2,4,-1,6,8,10,-1,12,-1,-1,14,-1,-1,-1,-1],"split_conditions":[1E0,1E0,-4.416891E-3,1E0,4E0,1E0,-1.7907914E-3,1E0,1.2700291E-3,5.3374474E-3,1E0,-0E0,-4.360469E-3,3.075375E-3,-5.4774754E-4],"split_indices":[4738,15,0,8,17,6297,0,5513,0,0,4551,0,0,0,0],"split_type":[0,0,0,0,0,0,0,0,0,0,0,0,0,0,0],"sum_hessian":[1.7440231E2,1.3220435E2,4.2197968E1,9.706388E1,3.5140465E1,7.8387344E1,1.8676537E1,2.4024109E1,1.1116356E1,4.414217E1,3.424518E1,8.47267E0,1.555144E1,1.2915524E1,2.1329655E1],"tree_param":{"num_deleted":"0","num_feature":"6444","num_nodes":"15","size_leaf_vector":"1"}},{"base_weights":[2.4375746E-2,-8.427651E-2,9.521138E-3,-2.4627991E-1,1.4365517E-1,-3.5719115E-1,3.8924057E-3,3.021593E-1,-2.3548827E-3,-8.488578E-3,-0E0,1.7719634E-2,8.487719E-3,-7.7785016E-4,2.2169675E-3],"categories":[],"categories_nodes":[],"categories_segments":[],"categories_sizes":[],"default_left":[0,0,0,0,0,0,0,0,0,0,0,0,0,0,0],"id":9,"left_children":[1,3,-1,5,7,9,-1,11,-1,-1,-1,13,-1,-1,-1],"loss_changes":[1.0323141E1,6.6965356E0,0E0,6.2945237E0,3.8308673E0,2.0199661E0,0E0,1.3001032E0,0E0,0E0,0E0,3.1666654E-1,0E0,0E0,0E0],"parents":[2147483647,0,0,1,1,3,3,4,4,5,5,7,7,11,11],"right_children":[2,4,-1,6,8,10,-1,12,-1,-1,-1,14,-1,-1,-1],"split_conditions":[1E0,4E0,9.521138E-3,1E0,1E0,1E0,3.8924057E-3,1E0,-2.3548827E-3,-8.488578E-3,-0E0,1E0,8.487719E-3,-7.7785016E-4,2.2169675E-3],"split_indices":[4819,18,0,1376,2,4738,0,1793,0,0,0,7,0,0,0],"split_type":[0,0,0,0,0,0,0,0,0,0,0,0,0,0,0],"sum_hessian":[1.7510353E2,1.4920052E2,2.5903013E1,8.907201E1,6.0128506E1,7.525669E1,1.3815316E1,3.8356792E1,2.1771715E1,6.013834E1,1.5118349E1,1.91494E1,1.9207392E1,1.0664443E1,8.484958E0],"tree_param":{"num_deleted":"0","num_feature":"6444","num_nodes":"15","size_leaf_vector":"1"}},{"base_weights":[-2.7150672E-2,-1.3437727E-1,1.9981962E-1,-1.725956E-1,2.5315057E-3,2.6966703E-1,-0E0,-3.5162214E-2,-5.839389E-3,6.385612E-3,-0E0,-8.065853E-2,1.1159482E-3,-0E0,-3.062624E-3],"categories":[],"categories_nodes":[],"categories_segments":[],"categories_sizes":[],"default_left":[0,0,0,0,0,0,0,0,0,0,0,0,0,0,0],"id":10,"left_children":[1,3,5,7,-1,9,-1,11,-1,-1,-1,13,-1,-1,-1],"loss_changes":[5.230667E0,1.8548679E0,1.0214148E0,1.8030791E0,0E0,4.9296904E-1,0E0,4.468888E-1,0E0,0E0,0E0,4.5487738E-1,0E0,0E0,0E0],"parents":[2147483647,0,0,1,1,2,2,3,3,5,5,7,7,11,11],"right_children":[2,4,6,8,-1,10,-1,12,-1,-1,-1,14,-1,-1,-1],"split_conditions":[1E0,1E0,1E0,1E0,2.5315057E-3,1E0,-0E0,1E0,-5.839389E-3,6.385612E-3,-0E0,1E0,1.1159482E-3,-0E0,-3.062624E-3],"split_indices":[15,1001,0,0,0,6426,0,4410,0,0,0,2119,0,0,0],"split_type":[0,0,0,0,0,0,0,0,0,0,0,0,0,0,0],"sum_hessian":[1.8606383E2,1.3351369E2,5.2550148E1,1.2423031E2,9.283377E0,3.6134956E1,1.6415194E1,7.066736E1,5.3562946E1,2.631366E1,9.821295E0,5.55666E1,1.5100759E1,3.1589968E1,2.3976633E1],"tree_param":{"num_deleted":"0","num_feature":"6444","num_nodes":"15","size_leaf_vector":"1"}},{"base_weights":[1.5406517E-2,2.320664E-1,-2.938303E-1,3.340777E-1,-2.3421994E-3,-3.3177683E-1,-0E0,8.346705E-3,-1.9872556E-3,-9.0362004E-4,-7.564986E-3],"categories":[],"categories_nodes":[],"categories_segments":[],"categories_sizes":[],"default_left":[0,0,0,0,0,0,0,0,0,0,0],"id":11,"left_children":[1,3,5,7,-1,9,-1,-1,-1,-1,-1],"loss_changes":[1.3833562E1,5.194259E0,7.205963E-1,4.6028223E0,0E0,2.8356838E-1,0E0,0E0,0E0,0E0,0E0],"parents":[2147483647,0,0,1,1,2,2,3,3,5,5],"right_children":[2,4,6,8,-1,10,-1,-1,-1,-1,-1],"split_conditions":[4E0,1E0,1E0,1E0,-2.3421994E-3,3E0,-0E0,8.346705E-3,-1.9872556E-3,-9.0362004E-4,-7.564986E-3],"split_indices":[16,5073,5771,307,0,19,0,0,0,0,0],"split_type":[0,0,0,0,0,0,0,0,0,0,0],"sum_hessian":[1.7712918E2,1.08257805E2,6.8871376E1,8.649959E1,2.1758213E1,5.7329536E1,1.1541838E1,7.4964485E1,1.1535109E1,1.5129171E1,4.2200367E1],"tree_param":{"num_deleted":"0","num_feature":"6444","num_nodes":"11","size_leaf_vector":"1"}},{"base_weights":[-2.5945979E-3,-1.5771168E-1,2.6184383E-1,-2.3341253E-1,5.983083E-3,-0E0,7.060775E-3,-2.9214185E-1,2.3379768E-3,1.8526784E-3,-1.9878517E-3,-7.787356E-3,-8.252803E-3,5.817335E-4,-1.719037E-3],"categories":[],"categories_nodes":[],"categories_segments":[],"categories_sizes":[],"default_left":[0,0,0,0,0,0,0,0,0,0,0,0,0,0,0],"id":12,"left_children":[1,3,5,7,-1,9,-1,11,-1,-1,-1,-1,13,-1,-1],"loss_changes":[8.160868E0,5.450883E0,1.721075E0,3.1801834E0,0E0,4.4797114E-1,0E0,2.6039896E0,0E0,0E0,0E0,0E0,2.2822048E-1,0E0,0E0],"parents":[2147483647,0,0,1,1,2,2,3,3,5,5,7,7,12,12],"right_children":[2,4,6,8,-1,10,-1,12,-1,-1,-1,-1,14,-1,-1],"split_conditions":[1E0,1E0,1E0,1E0,5.983083E-3,1E0,7.060775E-3,1E0,2.3379768E-3,1.8526784E-3,-1.9878517E-3,-7.787356E-3,1E0,5.817335E-4,-1.719037E-3],"split_indices":[10,606,4510,5734,0,0,0,0,0,0,0,0,4533,0,0],"split_type":[0,0,0,0,0,0,0,0,0,0,0,0,0,0,0],"sum_hessian":[1.7139113E2,1.14223976E2,5.716715E1,1.06159164E2,8.064816E0,1.8659397E1,3.850775E1,9.549491E1,1.0664249E1,1.0218361E1,8.441035E0,6.435795E1,3.1136967E1,1.8676336E1,1.246063E1],"tree_param":{"num_deleted":"0","num_feature":"6444","num_nodes":"15","size_leaf_vector":"1"}},{"base_weights":[3.373422E-2,2.3430035E-1,-2.489583E-1,9.4094284E-2,9.7035505E-3,-0E0,-7.3779984E-3,1.6765781E-1,-2.3463613E-3,-1.1233953E-3,7.9690135E-4,2.3763116E-1,-6.1215385E-4,5.719385E-3,-0E0],"categories":[],"categories_nodes":[],"categories_segments":[],"categories_sizes":[],"default_left":[0,0,0,0,0,0,0,0,0,0,0,0,0,0,0],"id":13,"left_children":[1,3,5,7,-1,9,-1,11,-1,-1,-1,13,-1,-1,-1],"loss_changes":[1.1450226E1,2.9236526E0,2.151126E0,1.8623312E0,0E0,1.4669609E-1,0E0,1.454354E0,0E0,0E0,0E0,9.463103E-1,0E0,0E0,0E0],"parents":[2147483647,0,0,1,1,2,2,3,3,5,5,7,7,11,11],"right_children":[2,4,6,8,-1,10,-1,12,-1,-1,-1,14,-1,-1,-1],"split_conditions":[4E0,1E0,1E0,1E0,9.7035505E-3,1E0,-7.3779984E-3,1E0,-2.3463613E-3,-1.1233953E-3,7.9690135E-4,1E0,-6.1215385E-4,5.719385E-3,-0E0],"split_indices":[16,314,6297,2318,0,4533,0,4507,0,0,0,4108,0,0,0],"split_type":[0,0,0,0,0,0,0,0,0,0,0,0,0,0,0],"sum_hessian":[1.7177585E2,1.0405531E2,6.772053E1,8.253915E1,2.1516165E1,2.92389E1,3.8481632E1,6.704467E1,1.549448E1,1.8588245E1,1.0650654E1,5.108194E1,1.596273E1,4.2201675E1,8.880262E0],"tree_param":{"num_deleted":"0","num_feature":"6444","num_nodes":"15","size_leaf_vector":"1"}},{"base_weights":[-0E0,2.0630406E-1,-2.4106997E-1,2.9631716E-1,-7.272641E-2,-2.7305013E-1,-0E0,3.7615258E-1,-2.6118201E-3,-0E0,-2.4097117E-3,-6.14567E-3,-0E0,8.2658315E-3,4.8584258E-4],"categories":[],"categories_nodes":[],"categories_segments":[],"categories_sizes":[],"default_left":[0,0,0,0,0,0,0,0,0,0,0,0,0,0,0],"id":14,"left_children":[1,3,5,7,9,11,-1,13,-1,-1,-1,-1,-1,-1,-1],"loss_changes":[1.0019527E1,3.277101E0,8.9593697E-1,3.9767365E0,2.0850861E-1,7.960992E-1,0E0,4.5532608E-1,0E0,0E0,0E0,0E0,0E0,0E0,0E0],"parents":[2147483647,0,0,1,1,2,2,3,3,4,4,5,5,7,7],"right_children":[2,4,6,8,10,12,-1,14,-1,-1,-1,-1,-1,-1,-1],"split_conditions":[1E0,1E0,1E0,1E0,1E0,1E0,-0E0,1E0,-2.6118201E-3,-0E0,-2.4097117E-3,-6.14567E-3,-0E0,8.2658315E-3,4.8584258E-4],"split_indices":[6,4738,3669,356,0,6048,0,4852,0,0,0,0,0,0,0],"split_type":[0,0,0,0,0,0,0,0,0,0,0,0,0,0,0],"sum_hessian":[1.7150218E2,9.370424E1,7.7797935E1,7.2856E1,2.0848242E1,6.935046E1,8.44748E0,6.4853615E1,8.002382E0,8.423789E0,1.2424453E1,6.0034157E1,9.316297E0,5.3722332E1,1.1131286E1],"tree_param":{"num_deleted":"0","num_feature":"6444","num_nodes":"15","size_leaf_vector":"1"}},{"base_weights":[-3.352035E-2,-2.1330123E-1,6.725012E-3,-3.1081477E-1,2.7103904E-3,-3.798406E-1,3.4005996E-3,-8.11206E-3,-9.162895E-4],"categories":[],"categories_nodes":[],"categories_segments":[],"categories_sizes":[],"default_left":[0,0,0,0,0,0,0,0,0],"id":15,"left_children":[1,3,-1,5,-1,7,-1,-1,-1],"loss_changes":[1.3619009E1,5.5419216E0,0E0,5.014819E0,0E0,1.9517326E-1,0E0,0E0,0E0],"parents":[2147483647,0,0,1,1,3,3,5,5],"right_children":[2,4,-1,6,-1,8,-1,-1,-1],"split_conditions":[1E0,1E0,6.725012E-3,1E0,2.7103904E-3,1E0,3.4005996E-3,-8.11206E-3,-9.162895E-4],"split_indices":[1,28,0,356,0,3475,0,0,0],"split_type":[0,0,0,0,0,0,0,0,0],"sum_hessian":[1.755317E2,1.2419859E2,5.1333096E1,1.0058187E2,2.3616726E1,9.252964E1,8.052231E0,8.014058E1,1.2389058E1],"tree_param":{"num_deleted":"0","num_feature":"6444","num_nodes":"9","size_leaf_vector":"1"}},{"base_weights":[-2.1238042E-2,1.9846289E-1,-6.4980295E-3,6.436054E-2,8.954307E-3,-5.2919136E-3,5.3936383E-3,2.486717E-3,-1.10816486E-1,-4.2201607E-3,2.1080077E-3],"categories":[],"categories_nodes":[],"categories_segments":[],"categories_sizes":[],"default_left":[0,0,0,0,0,0,0,0,0,0,0],"id":16,"left_children":[1,3,-1,5,-1,7,-1,-1,9,-1,-1],"loss_changes":[1.32050705E1,2.8238301E0,0E0,1.6218718E0,0E0,1.2988795E0,0E0,0E0,1.6684537E0,0E0,0E0],"parents":[2147483647,0,0,1,1,3,3,5,5,8,8],"right_children":[2,4,-1,6,-1,8,-1,-1,10,-1,-1],"split_conditions":[1E0,1E0,-6.4980295E-3,1E0,8.954307E-3,1E0,5.3936383E-3,2.486717E-3,1E0,-4.2201607E-3,2.1080077E-3],"split_indices":[3,5073,0,314,0,4510,0,0,8,0,0],"split_type":[0,0,0,0,0,0,0,0,0,0,0],"sum_hessian":[1.6653928E2,9.7732864E1,6.880641E1,7.8424355E1,1.9308512E1,6.583404E1,1.2590311E1,2.409051E1,4.174353E1,3.1932741E1,9.81079E0],"tree_param":{"num_deleted":"0","num_feature":"6444","num_nodes":"11","size_leaf_vector":"1"}},{"base_weights":[-4.131909E-2,-8.660471E-2,6.011665E-3,-1.5387011E-3,-2.4377139E-1,1.2398916E-1,-1.4928016E-1,-5.941727E-3,-0E0,1.845284E-1,-1.2413019E-3,-1.9874324E-1,-0E0,4.1533452E-3,-0E0,-4.4905692E-3,-0E0],"categories":[],"categories_nodes":[],"categories_segments":[],"categories_sizes":[],"default_left":[0,0,0,0,0,0,0,0,0,0,0,0,0,0,0,0,0],"id":17,"left_children":[1,3,-1,5,7,9,11,-1,-1,13,-1,15,-1,-1,-1,-1,-1],"loss_changes":[3.1252255E0,2.1876545E0,0E0,2.85423E0,9.810786E-1,1.1830685E0,7.411933E-1,0E0,0E0,2.2688913E-1,0E0,2.32414E-1,0E0,0E0,0E0,0E0,0E0],"parents":[2147483647,0,0,1,1,3,3,4,4,5,5,6,6,9,9,11,11],"right_children":[2,4,-1,6,8,10,12,-1,-1,14,-1,16,-1,-1,-1,-1,-1],"split_conditions":[1E0,1E0,6.011665E-3,1E0,1E0,1E0,1E0,-5.941727E-3,-0E0,1E0,-1.2413019E-3,1E0,-0E0,4.1533452E-3,-0E0,-4.4905692E-3,-0E0],"split_indices":[738,15,0,3,3300,314,6026,0,0,6364,0,6343,0,0,0,0,0],"split_type":[0,0,0,0,0,0,0,0,0,0,0,0,0,0,0,0,0],"sum_hessian":[1.7544604E2,1.67399E2,8.047041E0,1.2256862E2,4.483038E1,6.39104E1,5.8658222E1,3.6398743E1,8.431636E0,5.236833E1,1.154207E1,4.5321587E1,1.3336637E1,4.3453075E1,8.915254E0,3.6872467E1,8.449118E0],"tree_param":{"num_deleted":"0","num_feature":"6444","num_nodes":"17","size_leaf_vector":"1"}},{"base_weights":[-2.0064682E-2,-3.1543094E-1,3.290796E-1,-3.716311E-1,7.394482E-4,-1.443343E-3,4.200401E-1,-8.001798E-3,-0E0,4.8028255E-1,1.1646908E-3,1.2146329E-3,1.0621554E-2],"categories":[],"categories_nodes":[],"categories_segments":[],"categories_sizes":[],"default_left":[0,0,0,0,0,0,0,0,0,0,0,0,0],"id":18,"left_children":[1,3,5,7,-1,-1,9,-1,-1,11,-1,-1,-1],"loss_changes":[2.166226E1,2.8162756E0,4.2769985E0,8.433037E-1,0E0,0E0,8.256197E-1,0E0,0E0,3.2484722E-1,0E0,0E0,0E0],"parents":[2147483647,0,0,1,1,2,2,3,3,6,6,9,9],"right_children":[2,4,6,8,-1,-1,10,-1,-1,12,-1,-1,-1],"split_conditions":[1E0,1E0,2E0,1E0,7.394482E-4,-1.443343E-3,1E0,-8.001798E-3,-0E0,3E0,1.1646908E-3,1.2146329E-3,1.0621554E-2],"split_indices":[3,848,17,4935,0,0,5014,0,0,18,0,0,0],"split_type":[0,0,0,0,0,0,0,0,0,0,0,0,0],"sum_hessian":[1.8009137E2,9.9895294E1,8.0196075E1,8.7896996E1,1.1998301E1,1.3361395E1,6.683468E1,7.904755E1,8.849452E0,5.071462E1,1.612006E1,1.1159785E1,3.9554832E1],"tree_param":{"num_deleted":"0","num_feature":"6444","num_nodes":"13","size_leaf_vector":"1"}},{"base_weights":[1.8775567E-2,-2.246285E-1,2.8537974E-1,-4.568426E-2,-7.6430803E-3,1.0034288E-2,-2.2693917E-2,-1.2677951E-1,1.5298288E-3,-1.2490076E-1,2.732011E-3,-0E0,-3.96545E-3,-3.473853E-3,-0E0],"categories":[],"categories_nodes":[],"categories_segments":[],"categories_sizes":[],"default_left":[0,0,0,0,0,0,0,0,0,0,0,0,0,0,0],"id":19,"left_children":[1,3,5,7,-1,-1,9,11,-1,13,-1,-1,-1,-1,-1],"loss_changes":[1.3118289E1,2.2382674E0,7.1497426E0,8.7581456E-1,0E0,0E0,1.1018592E0,4.0014338E-1,0E0,3.826828E-1,0E0,0E0,0E0,0E0,0E0],"parents":[2147483647,0,0,1,1,2,2,3,3,6,6,7,7,9,9],"right_children":[2,4,6,8,-1,-1,10,12,-1,14,-1,-1,-1,-1,-1],"split_conditions":[1E0,4E0,4E0,1E0,-7.6430803E-3,1.0034288E-2,1E0,1E0,1.5298288E-3,1E0,2.732011E-3,-0E0,-3.96545E-3,-3.473853E-3,-0E0],"split_indices":[6,18,16,5721,0,0,5073,1872,0,15,0,0,0,0,0],"split_type":[0,0,0,0,0,0,0,0,0,0,0,0,0,0,0],"sum_hessian":[1.7140005E2,8.88723E1,8.2527756E1,5.3638706E1,3.5233593E1,4.4850574E1,3.767718E1,3.681928E1,1.681943E1,2.8748125E1,8.929057E0,2.0453861E1,1.6365416E1,2.0306355E1,8.441771E0],"tree_param":{"num_deleted":"0","num_feature":"6444","num_nodes":"15","size_leaf_vector":"1"}},{"base_weights":[-0E0,2.148532E-1,-2.98309E-1,2.9621327E-1,-1.5960145E-3,-5.27602E-2,-7.7294265E-3,7.3521263E-3,6.5567736E-3,4.0205926E-4,-2.911648E-3,2.2243017E-3,-1.6457695E-3],"categories":[],"categories_nodes":[],"categories_segments":[],"categories_sizes":[],"default_left":[0,0,0,0,0,0,0,0,0,0,0,0,0],"id":20,"left_children":[1,3,5,7,-1,9,-1,-1,11,-1,-1,-1,-1],"loss_changes":[1.3544626E1,3.5738535E0,1.1432657E0,1.7403431E0,0E0,4.629951E-1,0E0,0E0,5.2518344E-1,0E0,0E0,0E0,0E0],"parents":[2147483647,0,0,1,1,2,2,3,3,5,5,8,8],"right_children":[2,4,6,8,-1,10,-1,-1,12,-1,-1,-1,-1],"split_conditions":[4E0,1E0,1E0,1E0,-1.5960145E-3,1E0,-7.7294265E-3,7.3521263E-3,1E0,4.0205926E-4,-2.911648E-3,2.2243017E-3,-1.6457695E-3],"split_indices":[16,5073,3,8,0,11,0,0,674,0,0,0,0],"split_type":[0,0,0,0,0,0,0,0,0,0,0,0,0],"sum_hessian":[1.8248941E2,1.1026014E2,7.222927E1,8.8999855E1,2.1260283E1,2.8413015E1,4.3816257E1,6.5393074E1,2.3606781E1,1.6465832E1,1.1947183E1,1.427262E1,9.334162E0],"tree_param":{"num_deleted":"0","num_feature":"6444","num_nodes":"13","size_leaf_vector":"1"}},{"base_weights":[-1.4444927E-2,-2.0430402E-1,3.3928964E-1,-3.404796E-1,1.991232E-2,4.1534066E-1,-3.384799E-4,-8.2172295E-3,-5.492795E-2,2.4424458E-1,-3.297432E-3,7.0604455E-4,9.74332E-3,1.040915E-4,-2.6152388E-3,-3.615877E-5,6.9317645E-3],"categories":[],"categories_nodes":[],"categories_segments":[],"categories_sizes":[],"default_left":[0,0,0,0,0,0,0,0,0,0,0,0,0,0,0,0,0],"id":21,"left_children":[1,3,5,7,9,11,-1,-1,13,15,-1,-1,-1,-1,-1,-1,-1],"loss_changes":[1.4091223E1,4.6654015E0,2.46451E0,1.0057516E0,3.3325362E0,9.267292E-1,0E0,0E0,3.0874494E-1,1.2948184E0,0E0,0E0,0E0,0E0,0E0,0E0,0E0],"parents":[2147483647,0,0,1,1,2,2,3,3,4,4,5,5,8,8,9,9],"right_children":[2,4,6,8,10,12,-1,-1,14,16,-1,-1,-1,-1,-1,-1,-1],"split_conditions":[1E0,4E0,1E0,1E0,1E0,1E0,-3.384799E-4,-8.2172295E-3,1E0,1E0,-3.297432E-3,7.0604455E-4,9.74332E-3,1.040915E-4,-2.6152388E-3,-3.615877E-5,6.9317645E-3],"split_indices":[10,18,6426,5464,6,4510,0,0,909,3157,0,0,0,0,0,0,0],"split_type":[0,0,0,0,0,0,0,0,0,0,0,0,0,0,0,0,0],"sum_hessian":[1.8134439E2,1.2396987E2,5.737452E1,7.5063065E1,4.8906807E1,4.7541893E1,9.832625E0,5.212978E1,2.2933287E1,2.2353754E1,2.6553055E1,1.3326198E1,3.42157E1,1.3227989E1,9.705298E0,8.024775E0,1.43289795E1],"tree_param":{"num_deleted":"0","num_feature":"6444","num_nodes":"17","size_leaf_vector":"1"}},{"base_weights":[-0E0,1.5513133E-1,-1.896276E-1,2.151632E-1,-1.9745543E-3,-2.5771067E-1,-0E0,2.6603335E-1,-0E0,-3.1076145E-4,-3.1043136E-1,-5.9132394E-4,1.4954784E-3,1.21460535E-1,8.509096E-3,-6.822368E-3,-1.747672E-4,-3.958172E-4,5.5226185E-3],"categories":[],"categories_nodes":[],"categories_segments":[],"categories_sizes":[],"default_left":[0,0,0,0,0,0,0,0,0,0,0,0,0,0,0,0,0,0,0],"id":22,"left_children":[1,3,5,7,-1,9,11,13,-1,-1,15,-1,-1,17,-1,-1,-1,-1,-1],"loss_changes":[5.883616E0,2.0964863E0,1.4164946E0,1.2478051E0,0E0,5.0068045E-1,1.5424402E-1,5.327349E-1,0E0,0E0,1.0206604E-1,0E0,0E0,1.7908536E0,0E0,0E0,0E0,0E0,0E0],"parents":[2147483647,0,0,1,1,2,2,3,3,5,5,6,6,7,7,10,10,13,13],"right_children":[2,4,6,8,-1,10,12,14,-1,-1,16,-1,-1,18,-1,-1,-1,-1,-1],"split_conditions":[1E0,1E0,1E0,1E0,-1.9745543E-3,1E0,1E0,1E0,-0E0,-3.1076145E-4,1E0,-5.9132394E-4,1.4954784E-3,1E0,8.509096E-3,-6.822368E-3,-1.747672E-4,-3.958172E-4,5.5226185E-3],"split_indices":[3,6072,2,2318,0,4510,3550,5014,0,0,5014,0,0,2,0,0,0,0,0],"split_type":[0,0,0,0,0,0,0,0,0,0,0,0,0,0,0,0,0,0,0],"sum_hessian":[1.6967865E2,9.401918E1,7.565948E1,8.107293E1,1.2946247E1,5.54133E1,2.0246176E1,6.547505E1,1.5597876E1,1.6769823E1,3.864348E1,1.1858156E1,8.38802E0,5.1485703E1,1.3989352E1,3.0287872E1,8.355605E0,3.0367846E1,2.1117857E1],"tree_param":{"num_deleted":"0","num_feature":"6444","num_nodes":"19","size_leaf_vector":"1"}},{"base_weights":[-2.1207277E-2,1.9563794E-1,-6.9657033E-3,3.040804E-1,-0E0,8.39177E-3,-0E0,1.331544E-1,-2.9168043E-3,8.8748883E-4,-1.380771E-3,-6.1577477E-4,4.631146E-3],"categories":[],"categories_nodes":[],"categories_segments":[],"categories_sizes":[],"default_left":[0,0,0,0,0,0,0,0,0,0,0,0,0],"id":23,"left_children":[1,3,-1,5,7,-1,9,11,-1,-1,-1,-1,-1],"loss_changes":[1.4689019E1,2.5851512E0,0E0,2.9561338E0,1.4316301E0,0E0,1.6628E-1,9.315887E-1,0E0,0E0,0E0,0E0,0E0],"parents":[2147483647,0,0,1,1,3,3,4,4,6,6,7,7],"right_children":[2,4,-1,6,8,-1,10,12,-1,-1,-1,-1,-1],"split_conditions":[4E0,3E0,-6.9657033E-3,1E0,1E0,8.39177E-3,1E0,1E0,-2.9168043E-3,8.8748883E-4,-1.380771E-3,-6.1577477E-4,4.631146E-3],"split_indices":[16,16,0,2958,3,0,15,4551,0,0,0,0,0],"split_type":[0,0,0,0,0,0,0,0,0,0,0,0,0],"sum_hessian":[1.7554285E2,1.0734566E2,6.819719E1,6.3601017E1,4.374464E1,4.3072742E1,2.0528276E1,2.367228E1,2.0072363E1,1.1652797E1,8.875479E0,8.933366E0,1.4738914E1],"tree_param":{"num_deleted":"0","num_feature":"6444","num_nodes":"13","size_leaf_vector":"1"}},{"base_weights":[-2.2501878E-2,-3.2824755E-1,3.4215188E-1,-8.418985E-3,-2.4545725E-2,4.1946974E-1,-7.854842E-4,-2.706905E-3,1.7975263E-3,4.5602735E-2,9.815674E-3,-4.597752E-5,2.1172336E-3],"categories":[],"categories_nodes":[],"categories_segments":[],"categories_sizes":[],"default_left":[0,0,0,0,0,0,0,0,0,0,0,0,0],"id":24,"left_children":[1,3,5,-1,7,9,-1,-1,-1,11,-1,-1,-1],"loss_changes":[2.2721601E1,2.548461E0,3.3393993E0,0E0,7.934704E-1,1.2589197E0,0E0,0E0,0E0,1.9838767E-1,0E0,0E0,0E0],"parents":[2147483647,0,0,1,1,2,2,4,4,5,5,9,9],"right_children":[2,4,6,-1,8,10,-1,-1,-1,12,-1,-1,-1],"split_conditions":[1E0,1E0,1E0,-8.418985E-3,1E0,1E0,-7.854842E-4,-2.706905E-3,1.7975263E-3,1E0,9.815674E-3,-4.597752E-5,2.1172336E-3],"split_indices":[3,1793,12,0,14,4551,0,0,0,1,0,0,0],"split_type":[0,0,0,0,0,0,0,0,0,0,0,0,0],"sum_hessian":[1.7381157E2,9.684843E1,7.6963135E1,6.724041E1,2.9608023E1,6.492749E1,1.2035648E1,1.8088686E1,1.1519338E1,1.6586485E1,4.8341E1,8.033292E0,8.553194E0],"tree_param":{"num_deleted":"0","num_feature":"6444","num_nodes":"13","size_leaf_vector":"1"}},{"base_weights":[-0E0,-2.7357727E-1,2.9741877E-1,-1.8570881E-2,-7.3069027E-3,9.892232E-3,-1.8465756E-2,7.659841E-4,-1.5756937E-3,3.840769E-3,-1.7089206E-1,-4.94996E-3,-0E0],"categories":[],"categories_nodes":[],"categories_segments":[],"categories_sizes":[],"default_left":[0,0,0,0,0,0,0,0,0,0,0,0,0],"id":25,"left_children":[1,3,5,7,-1,-1,9,-1,-1,-1,11,-1,-1],"loss_changes":[1.6828257E1,2.0098743E0,6.8428154E0,2.4637608E-1,0E0,0E0,2.1058738E0,0E0,0E0,0E0,6.909492E-1,0E0,0E0],"parents":[2147483647,0,0,1,1,2,2,3,3,6,6,10,10],"right_children":[2,4,6,8,-1,-1,10,-1,-1,-1,12,-1,-1],"split_conditions":[1E0,1E0,4E0,2E0,-7.3069027E-3,9.892232E-3,3E0,7.659841E-4,-1.5756937E-3,3.840769E-3,1E0,-4.94996E-3,-0E0],"split_indices":[6,4510,16,16,0,0,19,0,0,0,3625,0,0],"split_type":[0,0,0,0,0,0,0,0,0,0,0,0,0],"sum_hessian":[1.7665205E2,9.1641594E1,8.501046E1,3.1907892E1,5.97337E1,4.9061966E1,3.5948494E1,1.0676231E1,2.123166E1,1.0705393E1,2.5243101E1,1.546616E1,9.776942E0],"tree_param":{"num_deleted":"0","num_feature":"6444","num_nodes":"13","size_leaf_vector":"1"}},{"base_weights":[1.60793E-2,2.1674515E-1,-2.8834605E-1,2.7326268E-1,-1.3411265E-3,-3.503198E-1,-0E0,3.1944826E-1,-8.598177E-4,-7.933428E-3,-4.6910025E-4,3.4797084E-1,-0E0,8.006578E-3,1.828769E-3],"categories":[],"categories_nodes":[],"categories_segments":[],"categories_sizes":[],"default_left":[0,0,0,0,0,0,0,0,0,0,0,0,0,0,0],"id":26,"left_children":[1,3,5,7,-1,9,-1,11,-1,-1,-1,13,-1,-1,-1],"loss_changes":[1.2339756E1,2.4659624E0,1.2340493E0,2.0758858E0,0E0,4.043436E-1,0E0,9.259987E-1,0E0,0E0,0E0,1.9077969E-1,0E0,0E0,0E0],"parents":[2147483647,0,0,1,1,2,2,3,3,5,5,7,7,11,11],"right_children":[2,4,6,8,-1,10,-1,12,-1,-1,-1,14,-1,-1,-1],"split_conditions":[4E0,1E0,1E0,1E0,-1.3411265E-3,1E0,-0E0,1E0,-8.598177E-4,-7.933428E-3,-4.6910025E-4,1E0,-0E0,8.006578E-3,1.828769E-3],"split_indices":[16,3015,6411,5771,0,6426,0,3391,0,0,0,2958,0,0,0],"split_type":[0,0,0,0,0,0,0,0,0,0,0,0,0,0,0],"sum_hessian":[1.7282632E2,1.0874851E2,6.407781E1,9.409134E1,1.4657172E1,4.8629383E1,1.5448427E1,8.472816E1,9.363185E0,3.7104843E1,1.1524542E1,7.6696724E1,8.031433E0,5.347606E1,2.3220661E1],"tree_param":{"num_deleted":"0","num_feature":"6444","num_nodes":"15","size_leaf_vector":"1"}},{"base_weights":[3.380666E-2,-3.7583458E-1,3.6132982E-1,-8.323373E-3,-3.807075E-4,3.972293E-1,-0E0,8.576653E-3,1.0375034E-3],"categories":[],"categories_nodes":[],"categories_segments":[],"categories_sizes":[],"default_left":[0,0,0,0,0,0,0,0,0],"id":27,"left_children":[1,3,5,-1,-1,7,-1,-1,-1],"loss_changes":[2.8605247E1,7.991123E-1,1.6965046E0,0E0,0E0,3.7856293E-1,0E0,0E0,0E0],"parents":[2147483647,0,0,1,1,2,2,5,5],"right_children":[2,4,6,-1,-1,8,-1,-1,-1],"split_conditions":[1E0,1E0,1E0,-8.323373E-3,-3.807075E-4,1E0,-0E0,8.576653E-3,1.0375034E-3],"split_indices":[4,4738,4913,0,0,2165,0,0,0],"split_type":[0,0,0,0,0,0,0,0,0],"sum_hessian":[1.8313179E2,7.902611E1,1.0410569E2,6.62395E1,1.2786602E1,9.430179E1,9.803899E0,8.0421104E1,1.3880688E1],"tree_param":{"num_deleted":"0","num_feature":"6444","num_nodes":"9","size_leaf_vector":"1"}},{"base_weights":[-3.2723077E-2,1.2135902E-1,-2.8020686E-1,2.2203313E-1,-5.358067E-2,-6.688364E-2,-7.0376247E-3,2.986788E-1,-2.1374065E-3,-1.1660658E-1,6.32254E-4,-3.729545E-3,1.3636996E-3,6.9672107E-3,-5.9101516E-5,-0E0,-3.3667807E-3],"categories":[],"categories_nodes":[],"categories_segments":[],"categories_sizes":[],"default_left":[0,0,0,0,0,0,0,0,0,0,0,0,0,0,0,0,0],"id":28,"left_children":[1,3,5,7,9,11,-1,13,-1,15,-1,-1,-1,-1,-1,-1,-1],"loss_changes":[8.128237E0,2.6106071E0,4.8321247E-1,2.8922172E0,4.377792E-1,9.983071E-1,0E0,1.5280938E0,0E0,3.287841E-1,0E0,0E0,0E0,0E0,0E0,0E0,0E0],"parents":[2147483647,0,0,1,1,2,2,3,3,4,4,5,5,7,7,9,9],"right_children":[2,4,6,8,10,12,-1,14,-1,16,-1,-1,-1,-1,-1,-1,-1],"split_conditions":[4E0,1E0,1E0,1E0,1E0,1E0,-7.0376247E-3,1E0,-2.1374065E-3,1E0,6.32254E-4,-3.729545E-3,1.3636996E-3,6.9672107E-3,-5.9101516E-5,-0E0,-3.3667807E-3],"split_indices":[16,3,3,3475,909,4533,0,6072,0,6265,0,0,0,0,0,0,0],"split_type":[0,0,0,0,0,0,0,0,0,0,0,0,0,0,0,0,0],"sum_hessian":[1.8061375E2,1.1353267E2,6.7081085E1,7.312757E1,4.0405098E1,2.7671692E1,3.9409393E1,6.2890736E1,1.0236838E1,2.6791712E1,1.3613384E1,1.5575326E1,1.2096366E1,5.484833E1,8.042404E0,1.0137077E1,1.6654634E1],"tree_param":{"num_deleted":"0","num_feature":"6444","num_nodes":"17","size_leaf_vector":"1"}},{"base_weights":[-8.424192E-3,2.279653E-1,-2.5992987E-1,2.98607E-1,-2.4565414E-3,-2.9440957E-1,-0E0,3.427738E-1,-2.6117184E-4,-6.717035E-3,-1.9306134E-4,3.789117E-1,2.0096087E-4,8.196639E-3,-0E0],"categories":[],"categories_nodes":[],"categories_segments":[],"categories_sizes":[],"default_left":[0,0,0,0,0,0,0,0,0,0,0,0,0,0,0],"id":29,"left_children":[1,3,5,7,-1,9,-1,11,-1,-1,-1,13,-1,-1,-1],"loss_changes":[1.2455736E1,3.3515801E0,9.315834E-1,1.7037296E0,0E0,6.807232E-1,0E0,5.9420586E-1,0E0,0E0,0E0,4.8045254E-1,0E0,0E0,0E0],"parents":[2147483647,0,0,1,1,2,2,3,3,5,5,7,7,11,11],"right_children":[2,4,6,8,-1,10,-1,12,-1,-1,-1,14,-1,-1,-1],"split_conditions":[1E0,1E0,1E0,1E0,-2.4565414E-3,1E0,-0E0,1E0,-2.6117184E-4,-6.717035E-3,-1.9306134E-4,1E0,2.0096087E-4,8.196639E-3,-0E0],"split_indices":[6,356,3107,6081,0,6426,0,1376,0,0,0,4819,0,0,0],"split_type":[0,0,0,0,0,0,0,0,0,0,0,0,0,0,0],"sum_hessian":[1.7901695E2,9.095578E1,8.806117E1,7.993984E1,1.1015938E1,7.608252E1,1.1978653E1,7.1516464E1,8.423375E0,6.100136E1,1.508116E1,5.9920734E1,1.1595733E1,5.1902695E1,8.018039E0],"tree_param":{"num_deleted":"0","num_feature":"6444","num_nodes":"15","size_leaf_vector":"1"}},{"base_weights":[1.2492084E-2,-1.6635785E-1,3.6703652E-1,-2.649997E-1,6.131141E-3,1.101168E-1,9.923168E-3,-3.07694E-1,1.335238E-3,3.9095855E-3,-8.591253E-4,-3.6708337E-1,-0E0,-7.994501E-3,-0E0],"categories":[],"categories_nodes":[],"categories_segments":[],"categories_sizes":[],"default_left":[0,0,0,0,0,0,0,0,0,0,0,0,0,0,0],"id":30,"left_children":[1,3,5,7,-1,9,-1,11,-1,-1,-1,13,-1,-1,-1],"loss_changes":[1.3184364E1,7.4721727E0,9.08514E-1,2.2693548E0,0E0,8.7177056E-1,0E0,2.3129654E0,0E0,0E0,0E0,1.1323509E0,0E0,0E0,0E0],"parents":[2147483647,0,0,1,1,2,2,3,3,5,5,7,7,11,11],"right_children":[2,4,6,8,-1,10,-1,12,-1,-1,-1,14,-1,-1,-1],"split_conditions":[1E0,1E0,1E0,1E0,6.131141E-3,1E0,9.923168E-3,1E0,1.335238E-3,3.9095855E-3,-8.591253E-4,1E0,-0E0,-7.994501E-3,-0E0],"split_indices":[1,6349,14,790,0,5721,0,1177,0,0,0,2227,0,0,0],"split_type":[0,0,0,0,0,0,0,0,0,0,0,0,0,0,0],"sum_hessian":[1.7531299E2,1.1994698E2,5.536601E1,1.0645215E2,1.3494833E1,3.0404873E1,2.4961136E1,9.794945E1,8.502705E0,2.104583E1,9.359043E0,8.15232E1,1.6426243E1,7.348956E1,8.033643E0],"tree_param":{"num_deleted":"0","num_feature":"6444","num_nodes":"15","size_leaf_vector":"1"}},{"base_weights":[5.3540867E-2,-1.9551633E-1,3.2162184E-1,3.3460017E-3,-2.900726E-1,1.0508652E-2,-0E0,-6.222336E-3,-0E0,1.4663479E-1,-3.7274142E-3,4.54522E-3,-0E0],"categories":[],"categories_nodes":[],"categories_segments":[],"categories_sizes":[],"default_left":[0,0,0,0,0,0,0,0,0,0,0,0,0],"id":31,"left_children":[1,3,5,-1,7,-1,9,-1,-1,11,-1,-1,-1],"loss_changes":[1.4047245E1,4.5612264E0,6.713851E0,0E0,2.846799E-1,0E0,1.8909514E0,0E0,0E0,5.100933E-1,0E0,0E0,0E0],"parents":[2147483647,0,0,1,1,2,2,4,4,6,6,9,9],"right_children":[2,4,6,-1,8,-1,10,-1,-1,12,-1,-1,-1],"split_conditions":[1E0,2E0,1E0,3.3460017E-3,1E0,1.0508652E-2,1E0,-6.222336E-3,-0E0,4E0,-3.7274142E-3,4.54522E-3,-0E0],"split_indices":[6,18,4,0,3300,0,10,0,0,18,0,0,0],"split_type":[0,0,0,0,0,0,0,0,0,0,0,0,0],"sum_hessian":[1.7937459E2,9.315766E1,8.621693E1,1.4687107E1,7.847056E1,4.724221E1,3.8974716E1,6.9194435E1,9.27612E0,2.3150585E1,1.582413E1,1.0759161E1,1.2391424E1],"tree_param":{"num_deleted":"0","num_feature":"6444","num_nodes":"13","size_leaf_vector":"1"}},{"base_weights":[7.3564504E-3,2.0283781E-1,-2.7834326E-1,2.948842E-1,-3.1958371E-3,1.2236358E-5,-3.2803184E-1,3.7642762E-1,-0E0,-7.188802E-3,-1.617347E-4,9.0224035E-3,-0E0,-2.0784787E-3,2.7515425E-3],"categories":[],"categories_nodes":[],"categories_segments":[],"categories_sizes":[],"default_left":[0,0,0,0,0,0,0,0,0,0,0,0,0,0,0],"id":32,"left_children":[1,3,5,7,-1,-1,9,11,13,-1,-1,-1,-1,-1,-1],"loss_changes":[1.1455984E1,4.9924192E0,1.4665556E0,2.4885216E0,0E0,0E0,3.188696E-1,2.3986015E0,7.736558E-1,0E0,0E0,0E0,0E0,0E0,0E0],"parents":[2147483647,0,0,1,1,2,2,3,3,6,6,7,7,8,8],"right_children":[2,4,6,8,-1,-1,10,12,14,-1,-1,-1,-1,-1,-1],"split_conditions":[4E0,1E0,2E0,1E0,-3.1958371E-3,1.2236358E-5,5E0,1E0,1E0,-7.188802E-3,-1.617347E-4,9.0224035E-3,-0E0,-2.0784787E-3,2.7515425E-3],"split_indices":[16,307,17,15,0,0,18,2412,1872,0,0,0,0,0,0],"split_type":[0,0,0,0,0,0,0,0,0,0,0,0,0,0,0],"sum_hessian":[1.763126E2,1.09346344E2,6.696627E1,9.164417E1,1.7702171E1,9.321985E0,5.7644287E1,6.8007286E1,2.3636883E1,4.7959072E1,9.685213E0,5.4581776E1,1.3425511E1,1.4721453E1,8.91543E0],"tree_param":{"num_deleted":"0","num_feature":"6444","num_nodes":"15","size_leaf_vector":"1"}},{"base_weights":[-6.920815E-3,-4.0360698E-1,3.1179422E-1,-9.794875E-3,-5.3421378E-2,-2.085441E-2,5.213431E-1,-2.5312095E-3,2.1763699E-4,6.400594E-2,-3.2962635E-3,1.8546832E-3,1.1588455E-2,2.7042083E-3,-8.700216E-6],"categories":[],"categories_nodes":[],"categories_segments":[],"categories_sizes":[],"default_left":[0,0,0,0,0,0,0,0,0,0,0,0,0,0,0],"id":33,"left_children":[1,3,5,-1,7,9,11,-1,-1,13,-1,-1,-1,-1,-1],"loss_changes":[2.6373627E1,1.8965979E0,8.61373E0,0E0,3.1347615E-1,9.5119613E-1,3.2401085E-1,0E0,0E0,3.2873857E-1,0E0,0E0,0E0,0E0,0E0],"parents":[2147483647,0,0,1,1,2,2,4,4,5,5,6,6,9,9],"right_children":[2,4,6,-1,8,10,12,-1,-1,14,-1,-1,-1,-1,-1],"split_conditions":[1E0,1E0,1E0,-9.794875E-3,1E0,1E0,1E0,-2.5312095E-3,2.1763699E-4,1E0,-3.2962635E-3,1.8546832E-3,1.1588455E-2,2.7042083E-3,-8.700216E-6],"split_indices":[4,3,3,0,5524,2,3296,0,0,1777,0,0,0,0,0],"split_type":[0,0,0,0,0,0,0,0,0,0,0,0,0,0,0],"sum_hessian":[1.7794635E2,7.889391E1,9.905244E1,5.6229385E1,2.2664532E1,4.1657784E1,5.7394657E1,1.1084967E1,1.1579565E1,2.7079447E1,1.4578335E1,1.3552134E1,4.3842525E1,1.2410911E1,1.4668536E1],"tree_param":{"num_deleted":"0","num_feature":"6444","num_nodes":"15","size_leaf_vector":"1"}},{"base_weights":[2.446046E-2,2.9171297E-1,-2.0977181E-1,3.5774532E-1,-0E0,-2.5960538E-1,1.0186333E-3,8.189536E-3,-0E0,-2.0073773E-3,1.6458047E-3,-3.173575E-1,-0E0,-7.0032845E-3,-3.2008055E-4],"categories":[],"categories_nodes":[],"categories_segments":[],"categories_sizes":[],"default_left":[0,0,0,0,0,0,0,0,0,0,0,0,0,0,0],"id":34,"left_children":[1,3,5,7,9,11,-1,-1,-1,-1,-1,13,-1,-1,-1],"loss_changes":[1.2809989E1,2.019925E0,1.8006887E0,1.2871532E0,3.924417E-1,1.4196239E0,0E0,0E0,0E0,0E0,0E0,3.2249784E-1,0E0,0E0,0E0],"parents":[2147483647,0,0,1,1,2,2,3,3,4,4,5,5,11,11],"right_children":[2,4,6,8,10,12,-1,-1,-1,-1,-1,14,-1,-1,-1],"split_conditions":[1E0,1E0,1E0,1E0,1E0,1E0,1.0186333E-3,8.189536E-3,-0E0,-2.0073773E-3,1.6458047E-3,1E0,-0E0,-7.0032845E-3,-3.2008055E-4],"split_indices":[4,1753,314,4786,4771,6147,0,0,0,0,0,6262,0,0,0],"split_type":[0,0,0,0,0,0,0,0,0,0,0,0,0,0,0],"sum_hessian":[1.7366307E2,8.138888E1,9.227419E1,6.4872955E1,1.651592E1,8.073972E1,1.15344715E1,5.3642826E1,1.1230132E1,8.454048E0,8.061873E0,6.3160503E1,1.7579218E1,5.1775997E1,1.1384507E1],"tree_param":{"num_deleted":"0","num_feature":"6444","num_nodes":"15","size_leaf_vector":"1"}},{"base_weights":[-0E0,1.3976093E-1,-1.729886E-1,2.2696863E-1,-3.1570855E-3,5.766147E-2,-5.1332735E-3,3.216002E-1,-1.5257716E-3,-1.0769955E-3,3.5757883E-3,7.5889304E-3,-0E0],"categories":[],"categories_nodes":[],"categories_segments":[],"categories_sizes":[],"default_left":[0,0,0,0,0,0,0,0,0,0,0,0,0],"id":35,"left_children":[1,3,5,7,-1,9,-1,11,-1,-1,-1,-1,-1],"loss_changes":[5.044754E0,3.6308563E0,2.2065992E0,3.4506636E0,0E0,7.244952E-1,0E0,1.6659184E0,0E0,0E0,0E0,0E0,0E0],"parents":[2147483647,0,0,1,1,2,2,3,3,5,5,7,7],"right_children":[2,4,6,8,-1,10,-1,12,-1,-1,-1,-1,-1],"split_conditions":[1E0,1E0,3E0,1E0,-3.1570855E-3,1E0,-5.1332735E-3,1E0,-1.5257716E-3,-1.0769955E-3,3.5757883E-3,7.5889304E-3,-0E0],"split_indices":[3,307,19,5073,0,674,0,1961,0,0,0,0,0],"split_type":[0,0,0,0,0,0,0,0,0,0,0,0,0],"sum_hessian":[1.7904462E2,1.0152472E2,7.75199E1,8.386974E1,1.7654976E1,1.8696207E1,5.8823692E1,6.57444E1,1.812534E1,9.773958E0,8.922249E0,5.457264E1,1.1171762E1],"tree_param":{"num_deleted":"0","num_feature":"6444","num_nodes":"13","size_leaf_vector":"1"}},{"base_weights":[-0E0,-2.1787994E-1,3.6227155E-1,-2.956379E-1,4.443239E-3,4.3869436E-1,3.3312615E-2,-3.6489117E-1,2.8141441E-3,1.4851117E-3,9.913052E-3,1.714441E-3,-5.142273E-5,-7.871895E-3,-2.156505E-4],"categories":[],"categories_nodes":[],"categories_segments":[],"categories_sizes":[],"default_left":[0,0,0,0,0,0,0,0,0,0,0,0,0,0,0],"id":36,"left_children":[1,3,5,7,-1,9,11,13,-1,-1,-1,-1,-1,-1,-1],"loss_changes":[1.6261145E1,5.4325376E0,1.2612991E0,4.529849E0,0E0,1.0947037E-1,1.4915976E-1,6.208105E-1,0E0,0E0,0E0,0E0,0E0,0E0,0E0],"parents":[2147483647,0,0,1,1,2,2,3,3,5,5,6,6,7,7],"right_children":[2,4,6,8,-1,10,12,14,-1,-1,-1,-1,-1,-1,-1],"split_conditions":[1E0,1E0,1E0,1E0,4.443239E-3,1E0,1E0,1E0,2.8141441E-3,1.4851117E-3,9.913052E-3,1.714441E-3,-5.142273E-5,-7.871895E-3,-2.156505E-4],"split_indices":[1,356,3287,6349,0,5513,1777,5771,0,0,0,0,0,0,0],"split_type":[0,0,0,0,0,0,0,0,0,0,0,0,0,0,0],"sum_hessian":[1.7549414E2,1.1282826E2,6.2665882E1,1.019993E2,1.0828962E1,4.4324814E1,1.8341066E1,9.21259E1,9.873403E0,1.3034911E1,3.1289904E1,1.03130455E1,8.028021E0,8.105876E1,1.1067139E1],"tree_param":{"num_deleted":"0","num_feature":"6444","num_nodes":"15","size_leaf_vector":"1"}},{"base_weights":[-7.7279066E-3,-1.0409368E-1,6.0999035E-3,1.5073279E-1,-1.8283847E-1,4.7856714E-3,-1.6446553E-4,-2.2844651E-1,1.0404902E-3,-2.801147E-1,1.4959819E-2,-6.2341355E-3,-0E0,2.4354188E-3,-1.1453109E-3],"categories":[],"categories_nodes":[],"categories_segments":[],"categories_sizes":[],"default_left":[0,0,0,0,0,0,0,0,0,0,0,0,0,0,0],"id":37,"left_children":[1,3,-1,5,7,-1,-1,9,-1,11,13,-1,-1,-1,-1],"loss_changes":[6.129445E0,3.6987643E0,0E0,8.728176E-1,1.7860856E0,0E0,0E0,1.8151369E0,0E0,1.0473804E0,4.1254216E-1,0E0,0E0,0E0,0E0],"parents":[2147483647,0,0,1,1,3,3,4,4,7,7,9,9,10,10],"right_children":[2,4,-1,6,8,-1,-1,10,-1,12,14,-1,-1,-1,-1],"split_conditions":[1E0,2E0,6.0999035E-3,1E0,1E0,4.7856714E-3,-1.6446553E-4,1E0,1.0404902E-3,1E0,1E0,-6.2341355E-3,-0E0,2.4354188E-3,-1.1453109E-3],"split_indices":[314,17,0,10,3678,0,0,307,0,1873,6297,0,0,0,0],"split_type":[0,0,0,0,0,0,0,0,0,0,0,0,0,0,0],"sum_hessian":[1.7925816E2,1.4712599E2,3.2132164E1,2.8496418E1,1.1862958E2,1.7473316E1,1.10231E1,1.0324754E2,1.5382038E1,8.669158E1,1.6555956E1,7.790276E1,8.788822E0,8.113297E0,8.442658E0],"tree_param":{"num_deleted":"0","num_feature":"6444","num_nodes":"15","size_leaf_vector":"1"}},{"base_weights":[2.8147696E-2,1.1861404E-1,-5.8030677E-3,2.6331523E-1,-6.9226064E-2,3.306333E-1,-0E0,2.2113402E-3,-1.3580143E-1,3.7699232E-1,5.8444697E-2,-3.7598573E-3,-0E0,8.571718E-3,-0E0,3.3852297E-3,-8.298798E-4],"categories":[],"categories_nodes":[],"categories_segments":[],"categories_sizes":[],"default_left":[0,0,0,0,0,0,0,0,0,0,0,0,0,0,0,0,0],"id":38,"left_children":[1,3,-1,5,7,9,-1,-1,11,13,15,-1,-1,-1,-1,-1,-1],"loss_changes":[5.884434E0,4.8952036E0,0E0,1.8380404E0,1.2050943E0,2.3169804E-1,0E0,0E0,4.4625235E-1,9.910593E-1,5.9191483E-1,0E0,0E0,0E0,0E0,0E0,0E0],"parents":[2147483647,0,0,1,1,3,3,4,4,5,5,8,8,9,9,10,10],"right_children":[2,4,-1,6,8,10,-1,-1,12,14,16,-1,-1,-1,-1,-1,-1],"split_conditions":[1E0,1E0,-5.8030677E-3,1E0,2E0,1E0,-0E0,2.2113402E-3,1E0,4E0,1E0,-3.7598573E-3,-0E0,8.571718E-3,-0E0,3.3852297E-3,-8.298798E-4],"split_indices":[307,3,0,314,17,15,0,0,3625,19,5589,0,0,0,0,0,0],"split_type":[0,0,0,0,0,0,0,0,0,0,0,0,0,0,0,0,0],"sum_hessian":[1.7738155E2,1.4789839E2,2.9483154E1,8.314493E1,6.475346E1,6.406181E1,1.9083109E1,1.0760759E1,5.3992706E1,4.666442E1,1.7397392E1,3.3629143E1,2.0363562E1,3.810699E1,8.557431E0,8.060672E0,9.33672E0],"tree_param":{"num_deleted":"0","num_feature":"6444","num_nodes":"17","size_leaf_vector":"1"}},{"base_weights":[-3.0660132E-2,-2.774003E-1,1.7468108E-1,-3.260647E-1,-0E0,-5.5765174E-2,2.9360598E-1,-3.6913943E-1,-0E0,-3.2927422E-3,1.7727051E-3,3.3029532E-1,-0E0,-8.40234E-3,-8.9041365E-4,8.156666E-3,9.358776E-2,-0E0,2.6803361E-3],"categories":[],"categories_nodes":[],"categories_segments":[],"categories_sizes":[],"default_left":[0,0,0,0,0,0,0,0,0,0,0,0,0,0,0,0,0,0,0],"id":39,"left_children":[1,3,5,7,-1,9,11,13,-1,-1,-1,15,-1,-1,-1,-1,17,-1,-1],"loss_changes":[9.874441E0,1.4418759E0,3.3453112E0,1.0179424E0,0E0,1.0068988E0,8.207469E-1,3.8612556E-1,0E0,0E0,0E0,1.3931704E-1,0E0,0E0,0E0,0E0,1.6562986E-1,0E0,0E0],"parents":[2147483647,0,0,1,1,2,2,3,3,5,5,6,6,7,7,11,11,16,16],"right_children":[2,4,6,8,-1,10,12,14,-1,-1,-1,16,-1,-1,-1,-1,18,-1,-1],"split_conditions":[1E0,1E0,1E0,1E0,-0E0,4E0,1E0,1E0,-0E0,-3.2927422E-3,1.7727051E-3,1E0,-0E0,-8.40234E-3,-8.9041365E-4,8.156666E-3,1E0,-0E0,2.6803361E-3],"split_indices":[13,4852,4551,3490,0,18,4935,7,0,0,0,1777,0,0,0,0,14,0,0],"split_type":[0,0,0,0,0,0,0,0,0,0,0,0,0,0,0,0,0,0,0],"sum_hessian":[1.6351982E2,7.4093895E1,8.942593E1,6.3046234E1,1.1047657E1,3.028975E1,5.9136177E1,5.3364952E1,9.681282E0,2.0019169E1,1.0270578E1,5.1104008E1,8.03217E0,3.964573E1,1.3719224E1,2.71438E1,2.3960205E1,1.0738874E1,1.3221332E1],"tree_param":{"num_deleted":"0","num_feature":"6444","num_nodes":"19","size_leaf_vector":"1"}},{"base_weights":[-1.094926E-3,-2.4455714E-1,2.396179E-1,-2.9453215E-1,8.9567545E-4,9.726861E-3,-1.06536984E-1,-8.298866E-2,-7.34901E-3,-3.5796764E-3,7.305435E-4,-2.642191E-3,7.535807E-5],"categories":[],"categories_nodes":[],"categories_segments":[],"categories_sizes":[],"default_left":[0,0,0,0,0,0,0,0,0,0,0,0,0],"id":40,"left_children":[1,3,5,7,-1,-1,9,11,-1,-1,-1,-1,-1],"loss_changes":[1.2164643E1,1.9685836E0,9.894123E0,5.517216E-1,0E0,0E0,7.918193E-1,3.3672613E-1,0E0,0E0,0E0,0E0,0E0],"parents":[2147483647,0,0,1,1,2,2,3,3,6,6,7,7],"right_children":[2,4,6,8,-1,-1,10,12,-1,-1,-1,-1,-1],"split_conditions":[1E0,1E0,4E0,1E0,8.9567545E-4,9.726861E-3,1E0,1E0,-7.34901E-3,-3.5796764E-3,7.305435E-4,-2.642191E-3,7.535807E-5],"split_indices":[6,1873,16,4551,0,0,5783,5721,0,0,0,0,0],"split_type":[0,0,0,0,0,0,0,0,0,0,0,0,0],"sum_hessian":[1.7748871E2,9.018669E1,8.730202E1,7.962146E1,1.0565228E1,4.9111454E1,3.8190567E1,3.214656E1,4.74749E1,2.7492361E1,1.0698204E1,2.2878187E1,9.268373E0],"tree_param":{"num_deleted":"0","num_feature":"6444","num_nodes":"13","size_leaf_vector":"1"}},{"base_weights":[1.2470275E-2,2.2187324E-1,-2.8201404E-1,8.993997E-3,-8.550633E-2,-0E0,-3.444301E-1,6.17402E-2,-4.877181E-3,-7.584479E-3,-3.451616E-4,-1.019665E-3,3.4704378E-3],"categories":[],"categories_nodes":[],"categories_segments":[],"categories_sizes":[],"default_left":[0,0,0,0,0,0,0,0,0,0,0,0,0],"id":41,"left_children":[1,3,5,-1,7,-1,9,11,-1,-1,-1,-1,-1],"loss_changes":[1.2510244E1,9.387743E0,1.5202394E0,0E0,1.8554623E0,0E0,2.847185E-1,7.7015775E-1,0E0,0E0,0E0,0E0,0E0],"parents":[2147483647,0,0,1,1,2,2,4,4,6,6,7,7],"right_children":[2,4,6,-1,8,-1,10,12,-1,-1,-1,-1,-1],"split_conditions":[4E0,1E0,3E0,8.993997E-3,1E0,-0E0,1E0,3E0,-4.877181E-3,-7.584479E-3,-3.451616E-4,-1.019665E-3,3.4704378E-3],"split_indices":[16,6,19,0,674,0,6262,16,0,0,0,0,0],"split_type":[0,0,0,0,0,0,0,0,0,0,0,0,0],"sum_hessian":[1.736264E2,1.05617714E2,6.80087E1,5.853804E1,4.707967E1,1.4544249E1,5.3464447E1,2.5865189E1,2.1214483E1,4.340545E1,1.0058997E1,1.2486266E1,1.3378923E1],"tree_param":{"num_deleted":"0","num_feature":"6444","num_nodes":"13","size_leaf_vector":"1"}},{"base_weights":[-2.7207457E-3,-1.2898189E-1,3.4541726E-1,-2.9808035E-1,1.2240367E-2,3.044411E-2,1.0013668E-2,-7.2627747E-3,-0E0,-7.89153E-2,1.2805553E-1,-1.8891474E-3,3.5511416E-3,-3.1092223E-3,1.1772191E-3,-0E0,1.8190736E-1,4.5850608E-3,-0E0],"categories":[],"categories_nodes":[],"categories_segments":[],"categories_sizes":[],"default_left":[0,0,0,0,0,0,0,0,0,0,0,0,0,0,0,0,0,0,0],"id":42,"left_children":[1,3,5,7,9,11,-1,-1,-1,13,15,-1,-1,-1,-1,-1,17,-1,-1],"loss_changes":[8.541606E0,3.876981E0,1.7320561E0,1.2456431E0,1.1707333E0,9.763438E-1,0E0,0E0,0E0,8.230046E-1,5.0947964E-1,0E0,0E0,0E0,0E0,0E0,3.18537E-1,0E0,0E0],"parents":[2147483647,0,0,1,1,2,2,3,3,4,4,5,5,9,9,10,10,16,16],"right_children":[2,4,6,8,10,12,-1,-1,-1,14,16,-1,-1,-1,-1,-1,18,-1,-1],"split_conditions":[4E0,1E0,1E0,1E0,1E0,1E0,1.0013668E-2,-7.2627747E-3,-0E0,1E0,3E0,-1.8891474E-3,3.5511416E-3,-3.1092223E-3,1.1772191E-3,-0E0,1E0,4.5850608E-3,-0E0],"split_indices":[19,4551,7,10,7,814,0,0,0,4738,19,0,0,0,0,0,1961,0,0],"split_type":[0,0,0,0,0,0,0,0,0,0,0,0,0,0,0,0,0,0,0],"sum_hessian":[1.690408E2,1.3308807E2,3.595273E1,5.620678E1,7.6881294E1,1.9921555E1,1.6031176E1,4.2424084E1,1.3782693E1,4.086333E1,3.6017963E1,1.0001501E1,9.920053E0,2.9697006E1,1.11663265E1,1.0338854E1,2.5679111E1,1.6672695E1,9.006415E0],"tree_param":{"num_deleted":"0","num_feature":"6444","num_nodes":"19","size_leaf_vector":"1"}},{"base_weights":[-3.452829E-2,-1.3952257E-1,3.180407E-1,4.4155575E-2,-2.591597E-1,7.541289E-3,1.2288695E-4,1.8092021E-1,-2.9766464E-3,2.9761184E-2,-7.3241876E-3,2.41401E-1,-0E0,1.7469698E-3,-3.0076472E-4,6.0502267E-3,-0E0],"categories":[],"categories_nodes":[],"categories_segments":[],"categories_sizes":[],"default_left":[0,0,0,0,0,0,0,0,0,0,0,0,0,0,0,0,0],"id":43,"left_children":[1,3,5,7,9,-1,-1,11,-1,13,-1,15,-1,-1,-1,-1,-1],"loss_changes":[7.588915E0,3.9122448E0,4.3643093E-1,2.357505E0,3.6743784E0,0E0,0E0,6.8655026E-1,0E0,1.9287363E-1,0E0,4.6432996E-1,0E0,0E0,0E0,0E0,0E0],"parents":[2147483647,0,0,1,1,2,2,3,3,4,4,7,7,9,9,11,11],"right_children":[2,4,6,8,10,-1,-1,12,-1,14,-1,16,-1,-1,-1,-1,-1],"split_conditions":[1E0,1E0,4E0,1E0,3E0,7.541289E-3,1.2288695E-4,1E0,-2.9766464E-3,1E0,-7.3241876E-3,1E0,-0E0,1.7469698E-3,-3.0076472E-4,6.0502267E-3,-0E0],"split_indices":[314,4,16,0,16,0,0,101,0,4551,0,1087,0,0,0,0,0],"split_type":[0,0,0,0,0,0,0,0,0,0,0,0,0,0,0,0,0],"sum_hessian":[1.7684932E2,1.4543843E2,3.1410894E1,5.7801445E1,8.7636986E1,2.1081146E1,1.0329748E1,3.740985E1,2.039159E1,2.4094814E1,6.354217E1,2.6219374E1,1.1190478E1,1.4076021E1,1.0018793E1,1.6321918E1,9.897457E0],"tree_param":{"num_deleted":"0","num_feature":"6444","num_nodes":"17","size_leaf_vector":"1"}},{"base_weights":[1.411036E-2,1.19384155E-1,-1.8409492E-1,1.5858889E-1,-1.2283295E-3,2.1668843E-3,-6.21479E-3,2.1311504E-1,-3.5672065E-2,2.6476803E-1,-0E0,-1.6116066E-3,-0E0,5.988131E-3,1.6636276E-4],"categories":[],"categories_nodes":[],"categories_segments":[],"categories_sizes":[],"default_left":[0,0,0,0,0,0,0,0,0,0,0,0,0,0,0],"id":44,"left_children":[1,3,5,7,-1,-1,-1,9,11,13,-1,-1,-1,-1,-1],"loss_changes":[3.9985862E0,1.1594886E0,3.1027431E0,1.5091424E0,0E0,0E0,0E0,9.936242E-1,1.1450891E-1,3.329358E-1,0E0,0E0,0E0,0E0,0E0],"parents":[2147483647,0,0,1,1,2,2,3,3,7,7,8,8,9,9],"right_children":[2,4,6,8,-1,-1,-1,10,12,14,-1,-1,-1,-1,-1],"split_conditions":[1E0,1E0,3E0,1E0,-1.2283295E-3,2.1668843E-3,-6.21479E-3,1E0,3E0,1E0,-0E0,-1.6116066E-3,-0E0,5.988131E-3,1.6636276E-4],"split_indices":[1,5735,19,314,0,0,0,8,19,1155,0,0,0,0,0],"split_type":[0,0,0,0,0,0,0,0,0,0,0,0,0,0,0],"sum_hessian":[1.6393506E2,1.1425865E2,4.9676403E1,9.995762E1,1.4301035E1,1.3280768E1,3.6395634E1,8.093286E1,1.9024761E1,6.1327286E1,1.9605574E1,9.303197E0,9.721563E0,4.838058E1,1.2946703E1],"tree_param":{"num_deleted":"0","num_feature":"6444","num_nodes":"15","size_leaf_vector":"1"}},{"base_weights":[1.6766112E-2,-3.6836746E-1,5.4348356E-1,-9.3950955E-3,-5.4640755E-2,7.185897E-2,1.4610644E-2,7.474466E-2,-4.0755603E-3,-9.219192E-4,4.237827E-3,-2.665323E-4,3.2935648E-3],"categories":[],"categories_nodes":[],"categories_segments":[],"categories_sizes":[],"default_left":[0,0,0,0,0,0,0,0,0,0,0,0,0],"id":45,"left_children":[1,3,5,-1,7,9,-1,11,-1,-1,-1,-1,-1],"loss_changes":[4.1622845E1,2.8221388E0,6.102808E0,0E0,1.2844232E0,1.0212032E0,0E0,4.4648677E-1,0E0,0E0,0E0,0E0,0E0],"parents":[2147483647,0,0,1,1,2,2,4,4,5,5,7,7],"right_children":[2,4,6,-1,8,10,-1,12,-1,-1,-1,-1,-1],"split_conditions":[4E0,1E0,1E0,-9.3950955E-3,1E0,4E0,1.4610644E-2,1E0,-4.0755603E-3,-9.219192E-4,4.237827E-3,-2.665323E-4,3.2935648E-3],"split_indices":[16,1793,3,0,909,18,0,3,0,0,0,0,0],"split_type":[0,0,0,0,0,0,0,0,0,0,0,0,0],"sum_hessian":[1.7451668E2,1.02315216E2,7.220147E1,6.927878E1,3.3036438E1,2.7917946E1,4.4283527E1,1.8105719E1,1.4930719E1,1.673905E1,1.1178896E1,9.985216E0,8.120502E0],"tree_param":{"num_deleted":"0","num_feature":"6444","num_nodes":"13","size_leaf_vector":"1"}},{"base_weights":[2.6840337E-2,-7.450422E-2,3.4786612E-1,-1.5020962E-1,2.0107435E-1,8.53065E-3,-0E0,3.525829E-2,-2.8053942E-1,5.69579E-3,-0E0,1.2042411E-1,-5.4281514E-2,-6.7339656E-3,7.3357933E-4,-0E0,3.321331E-3,-2.489598E-3,4.472584E-5],"categories":[],"categories_nodes":[],"categories_segments":[],"categories_sizes":[],"default_left":[0,0,0,0,0,0,0,0,0,0,0,0,0,0,0,0,0,0,0],"id":46,"left_children":[1,3,5,7,9,-1,-1,11,13,-1,-1,15,17,-1,-1,-1,-1,-1,-1],"loss_changes":[6.857497E0,3.6301062E0,1.0766101E0,3.6039357E0,7.858404E-1,0E0,0E0,6.5963405E-1,1.96104E0,0E0,0E0,1.5231204E-1,2.7038622E-1,0E0,0E0,0E0,0E0,0E0,0E0],"parents":[2147483647,0,0,1,1,2,2,3,3,4,4,7,7,8,8,11,11,12,12],"right_children":[2,4,6,8,10,-1,-1,12,14,-1,-1,16,18,-1,-1,-1,-1,-1,-1],"split_conditions":[1E0,1E0,1E0,1E0,1E0,8.53065E-3,-0E0,1E0,1E0,5.69579E-3,-0E0,1E0,1E0,-6.7339656E-3,7.3357933E-4,-0E0,3.321331E-3,-2.489598E-3,4.472584E-5],"split_indices":[5073,307,7,4510,7,0,0,6265,4775,0,0,3296,814,0,0,0,0,0,0],"split_type":[0,0,0,0,0,0,0,0,0,0,0,0,0,0,0,0,0,0,0],"sum_hessian":[1.7542639E2,1.397215E2,3.570489E1,1.1781006E2,2.1911444E1,2.4644096E1,1.1060793E1,4.9969437E1,6.784062E1,1.3089528E1,8.821915E0,2.868247E1,2.1286964E1,5.9532536E1,8.308089E0,1.5189077E1,1.3493392E1,9.3410425E0,1.1945923E1],"tree_param":{"num_deleted":"0","num_feature":"6444","num_nodes":"19","size_leaf_vector":"1"}},{"base_weights":[1.6207857E-2,1.04043074E-1,-5.648117E-3,1.7912696E-1,-4.2353184E-3,2.274831E-1,-7.08145E-5,2.85926E-1,-4.3113664E-4,6.2861377E-3,-0E0],"categories":[],"categories_nodes":[],"categories_segments":[],"categories_sizes":[],"default_left":[0,0,0,0,0,0,0,0,0,0,0],"id":47,"left_children":[1,3,-1,5,-1,7,-1,9,-1,-1,-1],"loss_changes":[5.415287E0,4.4573135E0,0E0,1.5104532E0,0E0,2.0835524E0,0E0,7.027855E-1,0E0,0E0,0E0],"parents":[2147483647,0,0,1,1,3,3,5,5,7,7],"right_children":[2,4,-1,6,-1,8,-1,10,-1,-1,-1],"split_conditions":[1E0,1E0,-5.648117E-3,1E0,-4.2353184E-3,1E0,-7.08145E-5,1E0,-4.3113664E-4,6.2861377E-3,-0E0],"split_indices":[307,6349,0,314,0,1177,0,4819,0,0,0],"split_type":[0,0,0,0,0,0,0,0,0,0,0],"sum_hessian":[1.8146017E2,1.5035637E2,3.110381E1,1.2927869E2,2.1077671E1,1.0363783E2,2.5640856E1,8.539231E1,1.824553E1,7.519469E1,1.0197621E1],"tree_param":{"num_deleted":"0","num_feature":"6444","num_nodes":"11","size_leaf_vector":"1"}},{"base_weights":[-3.3352684E-2,-2.1807139E-1,3.0088556E-1,-2.7465764E-1,2.4804065E-3,1.8218284E-2,8.594914E-3,-3.5774684E-1,-3.6081788E-3,3.256386E-3,-2.3920296E-3,-7.59042E-3,-2.234835E-4,-2.478578E-3,2.0200913E-3],"categories":[],"categories_nodes":[],"categories_segments":[],"categories_sizes":[],"default_left":[0,0,0,0,0,0,0,0,0,0,0,0,0,0,0],"id":48,"left_children":[1,3,5,7,-1,9,-1,11,13,-1,-1,-1,-1,-1,-1],"loss_changes":[1.2393836E1,3.1879587E0,2.007341E0,2.3029337E0,0E0,1.1366755E0,0E0,2.1147728E-1,7.888659E-1,0E0,0E0,0E0,0E0,0E0,0E0],"parents":[2147483647,0,0,1,1,2,2,3,3,5,5,7,7,8,8],"right_children":[2,4,6,8,-1,10,-1,12,14,-1,-1,-1,-1,-1,-1],"split_conditions":[1E0,1E0,1E0,1E0,2.4804065E-3,1E0,8.594914E-3,1E0,1E0,3.256386E-3,-2.3920296E-3,-7.59042E-3,-2.234835E-4,-2.478578E-3,2.0200913E-3],"split_indices":[1,356,6297,9,0,3550,0,5584,6297,0,0,0,0,0,0],"split_type":[0,0,0,0,0,0,0,0,0,0,0,0,0,0,0],"sum_hessian":[1.7114223E2,1.15510124E2,5.5632107E1,1.0416068E2,1.1349445E1,2.5210806E1,3.04213E1,7.322622E1,3.0934462E1,1.4515768E1,1.0695038E1,6.484101E1,8.385211E0,1.754473E1,1.3389732E1],"tree_param":{"num_deleted":"0","num_feature":"6444","num_nodes":"15","size_leaf_vector":"1"}},{"base_weights":[-8.962489E-3,-2.4082732E-1,2.4262458E-1,-3.0238223E-1,1.8900189E-3,3.5331765E-1,-0E0,-6.642044E-3,-9.87016E-5,7.857221E-3,-0E0,-2.552025E-3,2.3228675E-3],"categories":[],"categories_nodes":[],"categories_segments":[],"categories_sizes":[],"default_left":[0,0,0,0,0,0,0,0,0,0,0,0,0],"id":49,"left_children":[1,3,5,7,-1,9,11,-1,-1,-1,-1,-1,-1],"loss_changes":[1.2467776E1,2.9693303E0,2.911985E0,5.363655E-1,0E0,7.7595043E-1,8.943784E-1,0E0,0E0,0E0,0E0,0E0,0E0],"parents":[2147483647,0,0,1,1,2,2,3,3,5,5,6,6],"right_children":[2,4,6,8,-1,10,12,-1,-1,-1,-1,-1,-1],"split_conditions":[1E0,1E0,1E0,1E0,1.8900189E-3,1E0,1E0,-6.642044E-3,-9.87016E-5,7.857221E-3,-0E0,-2.552025E-3,2.3228675E-3],"split_indices":[6,1873,1793,1967,0,1376,1777,0,0,0,0,0,0],"split_type":[0,0,0,0,0,0,0,0,0,0,0,0,0],"sum_hessian":[1.8373616E2,9.8018105E1,8.571806E1,8.658072E1,1.1437382E1,5.582179E1,2.9896275E1,7.407028E1,1.2510435E1,4.730973E1,8.512056E0,1.5944137E1,1.3952138E1],"tree_param":{"num_deleted":"0","num_feature":"6444","num_nodes":"13","size_leaf_vector":"1"}},{"base_weights":[-3.3985205E-2,1.4097509E-1,-3.0061337E-1,2.049813E-1,-3.7169017E-2,-7.0499605E-3,-4.9813953E-4,2.4648303E-1,-6.599462E-4,-2.523277E-3,8.761785E-4,5.445E-3,-0E0],"categories":[],"categories_nodes":[],"categories_segments":[],"categories_sizes":[],"default_left":[0,0,0,0,0,0,0,0,0,0,0,0,0],"id":50,"left_children":[1,3,5,7,9,-1,-1,11,-1,-1,-1,-1,-1],"loss_changes":[9.625486E0,1.6758902E0,6.6462517E-1,1.2871804E0,4.5985568E-1,0E0,0E0,5.030012E-1,0E0,0E0,0E0,0E0,0E0],"parents":[2147483647,0,0,1,1,2,2,3,3,4,4,7,7],"right_children":[2,4,6,8,10,-1,-1,12,-1,-1,-1,-1,-1],"split_conditions":[4E0,1E0,1E0,1E0,1E0,-7.0499605E-3,-4.9813953E-4,1E0,-6.599462E-4,-2.523277E-3,8.761785E-4,5.445E-3,-0E0],"split_indices":[16,8,2412,5771,1777,0,0,3015,0,0,0,0,0],"split_type":[0,0,0,0,0,0,0,0,0,0,0,0,0],"sum_hessian":[1.7428806E2,1.0723764E2,6.705042E1,8.135936E1,2.5878277E1,4.9862038E1,1.7188381E1,7.2399445E1,8.959917E0,1.4224517E1,1.1653759E1,6.342487E1,8.974577E0],"tree_param":{"num_deleted":"0","num_feature":"6444","num_nodes":"13","size_leaf_vector":"1"}},{"base_weights":[3.3457387E-2,-1.549289E-1,3.9553645E-1,-2.4128087E-1,1.0386706E-1,-0E0,9.145995E-3,-2.941912E-1,-0E0,1.5536633E-1,-0E0,-3.309914E-1,-0E0,-0E0,4.5213494E-3,-7.2986744E-3,-1.6493555E-4],"categories":[],"categories_nodes":[],"categories_segments":[],"categories_sizes":[],"default_left":[0,0,0,0,0,0,0,0,0,0,0,0,0,0,0,0,0],"id":51,"left_children":[1,3,5,7,9,-1,-1,11,-1,13,-1,15,-1,-1,-1,-1,-1],"loss_changes":[1.4589874E1,3.6078007E0,1.5361967E0,1.5929675E0,3.1863278E-1,0E0,0E0,9.701767E-1,0E0,4.3346047E-1,0E0,4.8551083E-1,0E0,0E0,0E0,0E0,0E0],"parents":[2147483647,0,0,1,1,2,2,3,3,4,4,7,7,9,9,11,11],"right_children":[2,4,6,8,10,-1,-1,12,-1,14,-1,16,-1,-1,-1,-1,-1],"split_conditions":[1E0,1E0,3E0,4E0,1E0,-0E0,9.145995E-3,1E0,-0E0,1E0,-0E0,1E0,-0E0,-0E0,4.5213494E-3,-7.2986744E-3,-1.6493555E-4],"split_indices":[1,4852,19,19,2,0,0,1104,0,1793,0,2227,0,0,0,0,0],"split_type":[0,0,0,0,0,0,0,0,0,0,0,0,0,0,0,0,0],"sum_hessian":[1.8189081E2,1.23470276E2,5.842054E1,9.623797E1,2.7232311E1,1.11472845E1,4.7273254E1,7.822924E1,1.8008726E1,1.707507E1,1.0157241E1,6.75065E1,1.072274E1,8.443812E0,8.631257E0,5.6504795E1,1.1001705E1],"tree_param":{"num_deleted":"0","num_feature":"6444","num_nodes":"17","size_leaf_vector":"1"}},{"base_weights":[-2.4836276E-2,1.3772513E-1,-2.5121674E-1,2.529726E-1,-8.1693746E-2,-6.582482E-3,6.0284574E-4,6.5361666E-3,-1.4824583E-4,1.8003177E-3,-4.5876047E-3],"categories":[],"categories_nodes":[],"categories_segments":[],"categories_sizes":[],"default_left":[0,0,0,0,0,0,0,0,0,0,0],"id":52,"left_children":[1,3,5,7,9,-1,-1,-1,-1,-1,-1],"loss_changes":[7.5516667E0,3.4285688E0,2.343124E0,1.952714E0,1.6786661E0,0E0,0E0,0E0,0E0,0E0,0E0],"parents":[2147483647,0,0,1,1,2,2,3,3,4,4],"right_children":[2,4,6,8,10,-1,-1,-1,-1,-1,-1],"split_conditions":[1E0,4E0,1E0,1E0,1E0,-6.582482E-3,6.0284574E-4,6.5361666E-3,-1.4824583E-4,1.8003177E-3,-4.5876047E-3],"split_indices":[14,16,5073,7,6297,0,0,0,0,0,0],"split_type":[0,0,0,0,0,0,0,0,0,0,0],"sum_hessian":[1.730178E2,1.0155162E2,7.146618E1,6.806492E1,3.3486706E1,5.6757824E1,1.4708353E1,5.3038994E1,1.5025927E1,1.5061525E1,1.842518E1],"tree_param":{"num_deleted":"0","num_feature":"6444","num_nodes":"11","size_leaf_vector":"1"}},{"base_weights":[1.918314E-2,1.9918346E-1,-1.8015462E-1,2.7868515E-1,-3.1811693E-3,-1.1360952E-2,-6.6931495E-3,3.4168538E-1,-1.1207272E-3,-7.283415E-2,1.9952827E-3,3.8444337E-1,-0E0,-3.4745021E-3,2.2361076E-3,8.517568E-3,7.506648E-5,1.9330231E-3,-1.8237438E-3],"categories":[],"categories_nodes":[],"categories_segments":[],"categories_sizes":[],"default_left":[0,0,0,0,0,0,0,0,0,0,0,0,0,0,0,0,0,0,0],"id":53,"left_children":[1,3,5,7,-1,9,-1,11,-1,13,-1,15,-1,-1,17,-1,-1,-1,-1],"loss_changes":[7.5743656E0,3.989418E0,2.153706E0,2.677927E0,0E0,5.293213E-1,0E0,1.488864E0,0E0,6.0613334E-1,0E0,8.0977917E-1,0E0,0E0,5.045046E-1,0E0,0E0,0E0,0E0],"parents":[2147483647,0,0,1,1,2,2,3,3,5,5,7,7,9,9,11,11,14,14],"right_children":[2,4,6,8,-1,10,-1,12,-1,14,-1,16,-1,-1,18,-1,-1,-1,-1],"split_conditions":[1E0,1E0,1E0,1E0,-3.1811693E-3,1E0,-6.6931495E-3,1E0,-1.1207272E-3,1E0,1.9952827E-3,1E0,-0E0,-3.4745021E-3,1E0,8.517568E-3,7.506648E-5,1.9330231E-3,-1.8237438E-3],"split_indices":[6,356,3,3015,0,14,0,1967,0,3157,0,5,0,0,307,0,0,0,0],"split_type":[0,0,0,0,0,0,0,0,0,0,0,0,0,0,0,0,0,0,0],"sum_hessian":[1.805661E2,9.7527664E1,8.303844E1,8.482556E1,1.2702102E1,5.0472656E1,3.256578E1,7.364063E1,1.1184925E1,4.161769E1,8.854962E0,6.5093544E1,8.5470915E0,1.5028471E1,2.658922E1,5.4729366E1,1.0364176E1,1.829038E1,8.2988405E0],"tree_param":{"num_deleted":"0","num_feature":"6444","num_nodes":"19","size_leaf_vector":"1"}},{"base_weights":[4.4996165E-2,-2.9152095E-1,1.5441068E-1,-7.353055E-3,-0E0,-2.1462467E-2,3.5252333E-1,-1.3630404E-1,6.2938104E-3,8.142665E-3,3.0854894E-4,-5.0156354E-3,9.35937E-2,-0E0,2.7943265E-3],"categories":[],"categories_nodes":[],"categories_segments":[],"categories_sizes":[],"default_left":[0,0,0,0,0,0,0,0,0,0,0,0,0,0,0],"id":54,"left_children":[1,3,5,-1,-1,7,9,11,-1,-1,-1,-1,13,-1,-1],"loss_changes":[7.580465E0,1.0120378E0,5.8934174E0,0E0,0E0,4.1056933E0,9.0212345E-1,2.69306E0,0E0,0E0,0E0,0E0,1.7379561E-1,0E0,0E0],"parents":[2147483647,0,0,1,1,2,2,5,5,6,6,7,7,12,12],"right_children":[2,4,6,-1,-1,8,10,12,-1,-1,-1,-1,14,-1,-1],"split_conditions":[2E0,4E0,1E0,-7.353055E-3,-0E0,1E0,1E0,1E0,6.2938104E-3,8.142665E-3,3.0854894E-4,-5.0156354E-3,1E0,-0E0,2.7943265E-3],"split_indices":[17,18,7,0,0,4819,6426,10,0,0,0,0,6,0,0],"split_type":[0,0,0,0,0,0,0,0,0,0,0,0,0,0,0],"sum_hessian":[1.7626544E2,3.4880684E1,1.4138475E2,2.3848694E1,1.1031988E1,7.930746E1,6.20773E1,6.7976814E1,1.1330642E1,4.8187805E1,1.3889498E1,4.737403E1,2.0602783E1,1.072307E1,9.879713E0],"tree_param":{"num_deleted":"0","num_feature":"6444","num_nodes":"15","size_leaf_vector":"1"}},{"base_weights":[-2.004319E-2,1.1760529E-1,-2.5563633E-1,1.9669254E-1,-1.583754E-1,-0E0,-3.2892153E-1,2.8667516E-1,-0E0,-0E0,-3.8666218E-3,1.121943E-3,-1.061903E-3,-7.879587E-3,-3.8971214E-4,3.0656552E-1,-0E0,2.514492E-3,-2.14465E-3,7.548496E-3,1.7751469E-3],"categories":[],"categories_nodes":[],"categories_segments":[],"categories_sizes":[],"default_left":[0,0,0,0,0,0,0,0,0,0,0,0,0,0,0,0,0,0,0,0,0],"id":55,"left_children":[1,3,5,7,9,11,13,15,17,-1,-1,-1,-1,-1,-1,19,-1,-1,-1,-1,-1],"loss_changes":[6.8611326E0,3.3359904E0,1.5073061E0,2.1682467E0,1.0471016E-1,1.4101017E-1,7.0925283E-1,1.6768646E-1,8.2183003E-1,0E0,0E0,0E0,0E0,0E0,0E0,1.1570549E-1,0E0,0E0,0E0,0E0,0E0],"parents":[2147483647,0,0,1,1,2,2,3,3,4,4,5,5,6,6,7,7,8,8,15,15],"right_children":[2,4,6,8,10,12,14,16,18,-1,-1,-1,-1,-1,-1,20,-1,-1,-1,-1,-1],"split_conditions":[4E0,1E0,1E0,1E0,1E0,1E0,1E0,1E0,1E0,-0E0,-3.8666218E-3,1.121943E-3,-1.061903E-3,-7.879587E-3,-3.8971214E-4,3E0,-0E0,2.514492E-3,-2.14465E-3,7.548496E-3,1.7751469E-3],"split_indices":[16,6072,4510,14,4551,6297,15,130,13,0,0,0,0,0,0,17,0,0,0,0,0],"split_type":[0,0,0,0,0,0,0,0,0,0,0,0,0,0,0,0,0,0,0,0,0],"sum_hessian":[1.7841118E2,1.1467711E2,6.3734077E1,9.530004E1,1.9377066E1,1.7243998E1,4.649008E1,6.3307648E1,3.1992392E1,8.505961E0,1.0871105E1,8.871159E0,8.372839E0,3.2357143E1,1.4132938E1,5.5260124E1,8.047526E0,1.0300524E1,2.1691868E1,2.9937069E1,2.5323055E1],"tree_param":{"num_deleted":"0","num_feature":"6444","num_nodes":"21","size_leaf_vector":"1"}},{"base_weights":[6.298954E-5,1.9863755E-1,-2.735168E-1,2.4186024E-1,-1.6216799E-3,-6.2885582E-3,-0E0,2.8013656E-1,-0E0,3.4786442E-1,2.2272125E-2,8.009889E-3,-0E0,-2.276116E-4,1.387826E-3],"categories":[],"categories_nodes":[],"categories_segments":[],"categories_sizes":[],"default_left":[0,0,0,0,0,0,0,0,0,0,0,0,0,0,0],"id":56,"left_children":[1,3,5,7,-1,-1,-1,9,-1,11,13,-1,-1,-1,-1],"loss_changes":[1.1051124E1,1.9152431E0,7.248473E-1,9.242821E-1,0E0,0E0,0E0,1.1706014E0,0E0,1.1923294E0,1.3143304E-1,0E0,0E0,0E0,0E0],"parents":[2147483647,0,0,1,1,2,2,3,3,7,7,9,9,10,10],"right_children":[2,4,6,8,-1,-1,-1,10,-1,12,14,-1,-1,-1,-1],"split_conditions":[4E0,1E0,1E0,1E0,-1.6216799E-3,-6.2885582E-3,-0E0,1E0,-0E0,1E0,1E0,8.009889E-3,-0E0,-2.276116E-4,1.387826E-3],"split_indices":[16,5771,5771,5,0,0,0,1793,0,6285,6265,0,0,0,0],"split_type":[0,0,0,0,0,0,0,0,0,0,0,0,0,0,0],"sum_hessian":[1.7479947E2,1.05782646E2,6.901682E1,9.647982E1,9.302822E0,5.5907536E1,1.3109287E1,7.987489E1,1.6604929E1,5.604215E1,2.3832745E1,4.6031E1,1.001115E1,8.159502E0,1.5673243E1],"tree_param":{"num_deleted":"0","num_feature":"6444","num_nodes":"15","size_leaf_vector":"1"}},{"base_weights":[-5.9480728E-3,-1.6680266E-1,2.6293966E-1,-2.5481388E-1,4.7831163E-3,-0E0,3.3125377E-1,-3.1695208E-1,2.4238692E-3,7.898305E-3,6.002826E-4,-7.133237E-3,-0E0],"categories":[],"categories_nodes":[],"categories_segments":[],"categories_sizes":[],"default_left":[0,0,0,0,0,0,0,0,0,0,0,0,0],"id":57,"left_children":[1,3,5,7,-1,-1,9,11,-1,-1,-1,-1,-1],"loss_changes":[8.9479475E0,5.675358E0,1.343782E0,3.5393186E0,0E0,0E0,5.512929E-1,1.7037611E0,0E0,0E0,0E0,0E0,0E0],"parents":[2147483647,0,0,1,1,2,2,3,3,6,6,7,7],"right_children":[2,4,6,8,-1,-1,10,12,-1,-1,-1,-1,-1],"split_conditions":[1E0,1E0,1E0,1E0,4.7831163E-3,-0E0,1E0,1E0,2.4238692E-3,7.898305E-3,6.002826E-4,-7.133237E-3,-0E0],"split_indices":[10,848,6265,4819,0,0,5412,790,0,0,0,0,0],"split_type":[0,0,0,0,0,0,0,0,0,0,0,0,0],"sum_hessian":[1.788924E2,1.17822334E2,6.1070053E1,1.03443886E2,1.4378452E1,1.5894037E1,4.5176018E1,9.307749E1,1.0366389E1,3.0703308E1,1.4472709E1,8.374463E1,9.332864E0],"tree_param":{"num_deleted":"0","num_feature":"6444","num_nodes":"13","size_leaf_vector":"1"}},{"base_weights":[-0E0,-1.1048239E-1,8.350274E-3,-1.6602528E-1,8.431521E-2,4.5794956E-4,-2.2953601E-1,2.7622997E-3,-0E0,-2.5454322E-1,-0E0,-5.5410694E-3,-0E0],"categories":[],"categories_nodes":[],"categories_segments":[],"categories_sizes":[],"default_left":[0,0,0,0,0,0,0,0,0,0,0,0,0],"id":58,"left_children":[1,3,-1,5,7,-1,9,-1,-1,11,-1,-1,-1],"loss_changes":[9.244356E0,1.9330628E0,0E0,1.8104024E0,2.3605406E-1,0E0,6.191087E-1,0E0,0E0,4.2730045E-1,0E0,0E0,0E0],"parents":[2147483647,0,0,1,1,3,3,4,4,6,6,9,9],"right_children":[2,4,-1,6,8,-1,10,-1,-1,12,-1,-1,-1],"split_conditions":[1E0,1E0,8.350274E-3,3E0,1E0,4.5794956E-4,1E0,2.7622997E-3,-0E0,1E0,-0E0,-5.5410694E-3,-0E0],"split_indices":[314,307,0,19,1872,0,4913,0,0,4297,0,0,0],"split_type":[0,0,0,0,0,0,0,0,0,0,0,0,0],"sum_hessian":[1.6411244E2,1.3670361E2,2.7408825E1,1.1209181E2,2.4611801E1,2.6653484E1,8.543833E1,1.2136892E1,1.2474908E1,7.622822E1,9.21011E0,6.757291E1,8.655316E0],"tree_param":{"num_deleted":"0","num_feature":"6444","num_nodes":"13","size_leaf_vector":"1"}},{"base_weights":[-1.3983144E-3,1.686171E-1,-2.7137855E-1,2.5597405E-1,-3.7271576E-3,-2.797337E-2,-7.4924123E-3,2.8841755E-1,-1.3802858E-4,-0E0,-1.5708291E-3,3.212498E-1,-0E0,8.039782E-3,1.6885182E-3],"categories":[],"categories_nodes":[],"categories_segments":[],"categories_sizes":[],"default_left":[0,0,0,0,0,0,0,0,0,0,0,0,0,0,0],"id":59,"left_children":[1,3,5,7,-1,9,-1,11,-1,-1,-1,13,-1,-1,-1],"loss_changes":[9.509184E0,4.616309E0,1.4864779E0,1.230144E0,0E0,1.3455677E-1,0E0,1.1109476E0,0E0,0E0,0E0,7.458744E-1,0E0,0E0,0E0],"parents":[2147483647,0,0,1,1,2,2,3,3,5,5,7,7,11,11],"right_children":[2,4,6,8,-1,10,-1,12,-1,-1,-1,14,-1,-1,-1],"split_conditions":[4E0,1E0,1E0,1E0,-3.7271576E-3,4E0,-7.4924123E-3,1E0,-1.3802858E-4,-0E0,-1.5708291E-3,1E0,-0E0,8.039782E-3,1.6885182E-3],"split_indices":[16,307,3,4775,0,18,0,4947,0,0,0,674,0,0,0],"split_type":[0,0,0,0,0,0,0,0,0,0,0,0,0,0,0],"sum_hessian":[1.7497571E2,1.085475E2,6.64282E1,9.272823E1,1.5819267E1,2.8347017E1,3.808118E1,8.463002E1,8.098216E0,1.603582E1,1.2311197E1,7.6070816E1,8.559204E0,4.5779575E1,3.0291239E1],"tree_param":{"num_deleted":"0","num_feature":"6444","num_nodes":"15","size_leaf_vector":"1"}},{"base_weights":[1.8963328E-2,-3.5876757E-1,5.6390756E-1,-4.214669E-1,-0E0,1.2260076E-2,-0E0,-9.087875E-3,-0E0,-1.7606915E-3,1.3655402E-3],"categories":[],"categories_nodes":[],"categories_segments":[],"categories_sizes":[],"default_left":[0,0,0,0,0,0,0,0,0,0,0],"id":60,"left_children":[1,3,5,7,9,-1,-1,-1,-1,-1,-1],"loss_changes":[4.3437668E1,2.6574621E0,1.9559803E0,1.1974773E0,3.0027574E-1,0E0,0E0,0E0,0E0,0E0,0E0],"parents":[2147483647,0,0,1,1,2,2,3,3,4,4],"right_children":[2,4,6,8,10,-1,-1,-1,-1,-1,-1],"split_conditions":[4E0,1E0,1E0,1E0,4E0,1.2260076E-2,-0E0,-9.087875E-3,-0E0,-1.7606915E-3,1.3655402E-3],"split_indices":[16,5783,4285,2121,18,0,0,0,0,0,0],"split_type":[0,0,0,0,0,0,0,0,0,0,0],"sum_hessian":[1.8028471E2,1.0842143E2,7.186327E1,8.939171E1,1.9029728E1,6.3711704E1,8.151569E0,8.061038E1,8.781328E0,8.220067E0,1.0809661E1],"tree_param":{"num_deleted":"0","num_feature":"6444","num_nodes":"11","size_leaf_vector":"1"}},{"base_weights":[-1.000557E-2,1.2735102E-1,-2.117554E-1,2.6383373E-1,-1.1833072E-1,8.952137E-4,-2.7675363E-1,6.5354495E-3,-1.832702E-4,-0E0,-3.6143411E-3,-6.270442E-2,-6.995378E-3,6.849884E-5,-3.0143068E-3],"categories":[],"categories_nodes":[],"categories_segments":[],"categories_sizes":[],"default_left":[0,0,0,0,0,0,0,0,0,0,0,0,0,0,0],"id":61,"left_children":[1,3,5,7,9,-1,11,-1,-1,-1,-1,13,-1,-1,-1],"loss_changes":[5.6706142E0,4.5592413E0,1.8237135E0,1.7869902E0,5.271401E-1,0E0,3.912258E-1,0E0,0E0,0E0,0E0,3.8896543E-1,0E0,0E0,0E0],"parents":[2147483647,0,0,1,1,2,2,3,3,4,4,6,6,11,11],"right_children":[2,4,6,8,10,-1,12,-1,-1,-1,-1,14,-1,-1,-1],"split_conditions":[1E0,1E0,2E0,1E0,3E0,8.952137E-4,4E0,6.5354495E-3,-1.832702E-4,-0E0,-3.6143411E-3,1E0,-6.995378E-3,6.849884E-5,-3.0143068E-3],"split_indices":[3,14,17,6411,16,0,16,0,0,0,0,3663,0,0,0],"split_type":[0,0,0,0,0,0,0,0,0,0,0,0,0,0,0],"sum_hessian":[1.7198627E2,1.02664474E2,6.932179E1,6.790403E1,3.476044E1,1.1848175E1,5.7473618E1,5.57576E1,1.2146435E1,1.2285118E1,2.2475323E1,2.519381E1,3.227981E1,1.6128942E1,9.064867E0],"tree_param":{"num_deleted":"0","num_feature":"6444","num_nodes":"15","size_leaf_vector":"1"}},{"base_weights":[1.4861714E-2,1.5343258E-1,-1.7171168E-1,1.8735759E-1,-8.968041E-4,-2.2985129E-1,3.8611554E-4,2.3516096E-1,-0E0,-0E0,-2.6961625E-1,5.8433954E-3,1.7073466E-2,-6.5743155E-3,-8.0829835E-4,-1.2908772E-3,2.7713676E-3],"categories":[],"categories_nodes":[],"categories_segments":[],"categories_sizes":[],"default_left":[0,0,0,0,0,0,0,0,0,0,0,0,0,0,0,0,0],"id":62,"left_children":[1,3,5,7,-1,9,-1,11,-1,-1,13,-1,15,-1,-1,-1,-1],"loss_changes":[5.4163184E0,1.0948467E0,1.2441299E0,9.480128E-1,0E0,5.168133E-1,0E0,7.137642E-1,0E0,0E0,2.3604631E-1,0E0,5.8365107E-1,0E0,0E0,0E0,0E0],"parents":[2147483647,0,0,1,1,2,2,3,3,5,5,7,7,10,10,12,12],"right_children":[2,4,6,8,-1,10,-1,12,-1,-1,14,-1,16,-1,-1,-1,-1],"split_conditions":[4E0,1E0,1E0,1E0,-8.968041E-4,1E0,3.8611554E-4,1E0,-0E0,-0E0,5E0,5.8433954E-3,1E0,-6.5743155E-3,-8.0829835E-4,-1.2908772E-3,2.7713676E-3],"split_indices":[18,5489,9,1,0,3296,0,1793,0,0,18,0,14,0,0,0,0],"split_type":[0,0,0,0,0,0,0,0,0,0,0,0,0,0,0,0,0],"sum_hessian":[1.7992053E2,1.0784597E2,7.207457E1,9.710104E1,1.07449255E1,5.693193E1,1.5142637E1,7.330056E1,2.3800484E1,1.2543841E1,4.438809E1,5.04358E1,2.286476E1,2.6642632E1,1.7745459E1,1.2959426E1,9.905334E0],"tree_param":{"num_deleted":"0","num_feature":"6444","num_nodes":"17","size_leaf_vector":"1"}},{"base_weights":[-3.781674E-2,-1.4342777E-1,7.3475824E-3,-2.9376763E-1,1.2371698E-1,-6.972445E-3,1.266106E-3,-0E0,2.1907811E-1,-9.03657E-4,1.2374138E-3,6.2975297E-3,-0E0],"categories":[],"categories_nodes":[],"categories_segments":[],"categories_sizes":[],"default_left":[0,0,0,0,0,0,0,0,0,0,0,0,0],"id":63,"left_children":[1,3,-1,5,7,-1,-1,9,11,-1,-1,-1,-1],"loss_changes":[8.51547E0,7.1450386E0,0E0,2.756918E0,7.044946E-1,0E0,0E0,1.7361543E-1,9.6708953E-1,0E0,0E0,0E0,0E0],"parents":[2147483647,0,0,1,1,3,3,4,4,7,7,8,8],"right_children":[2,4,-1,6,8,-1,-1,10,12,-1,-1,-1,-1],"split_conditions":[1E0,1E0,7.3475824E-3,1E0,1E0,-6.972445E-3,1.266106E-3,1E0,1E0,-9.03657E-4,1.2374138E-3,6.2975297E-3,-0E0],"split_indices":[6349,10,0,790,5524,0,0,7,1777,0,0,0,0],"split_type":[0,0,0,0,0,0,0,0,0,0,0,0,0],"sum_hessian":[1.7075482E2,1.4509528E2,2.5659544E1,9.428396E1,5.0811325E1,8.4463905E1,9.820055E0,3.014536E1,2.0665964E1,1.6693378E1,1.34519825E1,1.2019269E1,8.646694E0],"tree_param":{"num_deleted":"0","num_feature":"6444","num_nodes":"13","size_leaf_vector":"1"}},{"base_weights":[5.568821E-3,2.2054256E-1,-1.1808911E-1,5.400017E-3,-0E0,6.287489E-2,-2.0158412E-1,2.999657E-3,-9.6528925E-4,-2.8034383E-1,1.2856147E-3,-6.954372E-3,-1.4602174E-2,2.8652587E-4,-1.6308344E-3],"categories":[],"categories_nodes":[],"categories_segments":[],"categories_sizes":[],"default_left":[0,0,0,0,0,0,0,0,0,0,0,0,0,0,0],"id":64,"left_children":[1,3,5,-1,-1,7,9,-1,-1,11,-1,-1,13,-1,-1],"loss_changes":[5.5621223E0,6.7403054E-1,2.2608705E0,0E0,0E0,6.752189E-1,2.4723852E0,0E0,0E0,9.736142E-1,0E0,0E0,1.5176155E-1,0E0,0E0],"parents":[2147483647,0,0,1,1,2,2,5,5,6,6,9,9,12,12],"right_children":[2,4,6,-1,-1,8,10,-1,-1,12,-1,-1,14,-1,-1],"split_conditions":[3E0,1E0,1E0,5.400017E-3,-0E0,1E0,1E0,2.999657E-3,-9.6528925E-4,1E0,1.2856147E-3,-6.954372E-3,1E0,2.8652587E-4,-1.6308344E-3],"split_indices":[16,10,4510,0,0,2119,307,0,0,5721,0,0,10,0,0],"split_type":[0,0,0,0,0,0,0,0,0,0,0,0,0,0,0],"sum_hessian":[1.7568478E2,6.2816177E1,1.1286861E2,4.616469E1,1.665149E1,3.302314E1,7.984547E1,2.0618277E1,1.2404864E1,6.3869267E1,1.5976201E1,4.4258015E1,1.9611252E1,1.1494628E1,8.116624E0],"tree_param":{"num_deleted":"0","num_feature":"6444","num_nodes":"15","size_leaf_vector":"1"}},{"base_weights":[-4.0783685E-2,6.7009896E-2,-1.866785E-1,1.1120637E-1,-1.6686525E-3,-8.714893E-3,-6.1210874E-3,7.0640445E-3,1.9190674E-1,-1.6392146E-3,2.8422957E-2,-1.2846698E-2,1.7527682E-3,5.524883E-3,-5.081251E-4,2.3501646E-3,-1.2135287E-3,-1.5734775E-3,1.4561284E-3],"categories":[],"categories_nodes":[],"categories_segments":[],"categories_sizes":[],"default_left":[0,0,0,0,0,0,0,0,0,0,0,0,0,0,0,0,0,0,0],"id":65,"left_children":[1,3,5,7,-1,9,-1,11,13,-1,15,17,-1,-1,-1,-1,-1,-1,-1],"loss_changes":[3.3958304E0,9.650865E-1,1.5859318E0,6.576772E-1,0E0,2.3939314E-1,0E0,1.9843094E-1,1.3239588E0,0E0,4.7247937E-1,4.1027585E-1,0E0,0E0,0E0,0E0,0E0,0E0,0E0],"parents":[2147483647,0,0,1,1,2,2,3,3,5,5,7,7,8,8,10,10,11,11],"right_children":[2,4,6,8,-1,10,-1,12,14,-1,16,18,-1,-1,-1,-1,-1,-1,-1],"split_conditions":[4E0,1E0,1E0,3E0,-1.6686525E-3,1E0,-6.1210874E-3,1E0,1E0,-1.6392146E-3,1E0,1E0,1.7527682E-3,5.524883E-3,-5.081251E-4,2.3501646E-3,-1.2135287E-3,-1.5734775E-3,1.4561284E-3],"split_indices":[18,307,674,18,0,5513,0,3606,8,0,5797,5797,0,0,0,0,0,0,0],"split_type":[0,0,0,0,0,0,0,0,0,0,0,0,0,0,0,0,0,0,0],"sum_hessian":[1.8138936E2,1.0503847E2,7.635089E1,8.9348976E1,1.5689491E1,4.0478367E1,3.5872524E1,5.1540916E1,3.7808064E1,1.6587019E1,2.3891348E1,4.148666E1,1.00542555E1,2.7622091E1,1.0185971E1,1.5167253E1,8.724095E0,3.0750866E1,1.0735794E1],"tree_param":{"num_deleted":"0","num_feature":"6444","num_nodes":"19","size_leaf_vector":"1"}},{"base_weights":[-2.521597E-3,-1.5833183E-1,1.7879938E-1,-2.25474E-1,3.399947E-3,3.0385008E-1,-0E0,-2.8325695E-1,8.876952E-4,7.210012E-2,8.393457E-3,6.0305472E-2,-2.0311857E-3,-7.848609E-3,-3.9015356E-2,-4.588891E-5,3.0327335E-3,3.5329824E-3,-5.485934E-4,-2.4831668E-3,1.2104415E-3],"categories":[],"categories_nodes":[],"categories_segments":[],"categories_sizes":[],"default_left":[0,0,0,0,0,0,0,0,0,0,0,0,0,0,0,0,0,0,0,0,0],"id":66,"left_children":[1,3,5,7,-1,9,11,13,-1,15,-1,17,-1,-1,19,-1,-1,-1,-1,-1,-1],"loss_changes":[5.701219E0,3.0942082E0,2.0429711E0,2.0142956E0,0E0,4.9162054E-1,4.1342872E-1,1.709424E0,0E0,3.8433278E-1,0E0,6.49227E-1,0E0,0E0,5.7423156E-1,0E0,0E0,0E0,0E0,0E0,0E0],"parents":[2147483647,0,0,1,1,2,2,3,3,5,5,6,6,7,7,9,9,11,11,14,14],"right_children":[2,4,6,8,-1,10,12,14,-1,16,-1,18,-1,-1,20,-1,-1,-1,-1,-1,-1],"split_conditions":[4E0,1E0,1E0,1E0,3.399947E-3,1E0,1E0,3E0,8.876952E-4,1E0,8.393457E-3,1E0,-2.0311857E-3,-7.848609E-3,1E0,-4.588891E-5,3.0327335E-3,3.5329824E-3,-5.485934E-4,-2.4831668E-3,1.2104415E-3],"split_indices":[18,4819,6,6072,0,1793,5073,18,0,3550,0,814,0,0,8,0,0,0,0,0,0],"split_type":[0,0,0,0,0,0,0,0,0,0,0,0,0,0,0,0,0,0,0,0,0],"sum_hessian":[1.7249486E2,9.676284E1,7.573202E1,8.676455E1,9.998298E0,3.854573E1,3.7186287E1,7.390146E1,1.2863087E1,2.3831896E1,1.4713837E1,2.6864235E1,1.0322051E1,4.195343E1,3.1948027E1,1.3344532E1,1.0487364E1,9.913955E0,1.6950281E1,2.0634083E1,1.1313944E1],"tree_param":{"num_deleted":"0","num_feature":"6444","num_nodes":"21","size_leaf_vector":"1"}},{"base_weights":[-1.3485438E-2,-2.915559E-1,2.5243258E-1,-6.255972E-3,-2.0127208E-4,4.927543E-1,-6.804398E-2,1.1160397E-2,2.4575193E-4,-3.2931115E-3,1.2556275E-3],"categories":[],"categories_nodes":[],"categories_segments":[],"categories_sizes":[],"default_left":[0,0,0,0,0,0,0,0,0,0,0],"id":67,"left_children":[1,3,5,-1,-1,7,9,-1,-1,-1,-1],"loss_changes":[1.5902458E1,2.6597786E-1,9.263374E0,0E0,0E0,1.3793354E0,9.872025E-1,0E0,0E0,0E0,0E0],"parents":[2147483647,0,0,1,1,2,2,5,5,6,6],"right_children":[2,4,6,-1,-1,8,10,-1,-1,-1,-1],"split_conditions":[1E0,1E0,1E0,-6.255972E-3,-2.0127208E-4,1E0,1E0,1.1160397E-2,2.4575193E-4,-3.2931115E-3,1.2556275E-3],"split_indices":[6,3300,4,0,0,0,2,0,0,0,0],"split_type":[0,0,0,0,0,0,0,0,0,0,0],"sum_hessian":[1.8460202E2,9.137038E1,9.3231636E1,8.010458E1,1.1265796E1,5.045377E1,4.277787E1,4.0455845E1,9.997924E0,2.677215E1,1.6005718E1],"tree_param":{"num_deleted":"0","num_feature":"6444","num_nodes":"11","size_leaf_vector":"1"}},{"base_weights":[-0E0,7.893897E-2,-5.340728E-3,1.4498547E-1,-4.397397E-3,2.527124E-1,1.00681465E-2,3.2279715E-1,-4.5318535E-4,7.831054E-2,-2.4869856E-3,7.0807934E-3,3.9354304E-4,-0E0,3.9584683E-3],"categories":[],"categories_nodes":[],"categories_segments":[],"categories_sizes":[],"default_left":[0,0,0,0,0,0,0,0,0,0,0,0,0,0,0],"id":68,"left_children":[1,3,-1,5,-1,7,9,11,-1,13,-1,-1,-1,-1,-1],"loss_changes":[4.218818E0,3.6114125E0,0E0,1.8052349E0,0E0,1.8733525E0,8.7129444E-1,1.3096619E-1,0E0,7.353455E-1,0E0,0E0,0E0,0E0,0E0],"parents":[2147483647,0,0,1,1,3,3,5,5,6,6,7,7,9,9],"right_children":[2,4,-1,6,-1,8,10,12,-1,14,-1,-1,-1,-1,-1],"split_conditions":[1E0,1E0,-5.340728E-3,1E0,-4.397397E-3,1E0,1E0,1E0,-4.5318535E-4,1E0,-2.4869856E-3,7.0807934E-3,3.9354304E-4,-0E0,3.9584683E-3],"split_indices":[307,3015,0,4,0,5073,1376,11,0,909,0,0,0,0,0],"split_type":[0,0,0,0,0,0,0,0,0,0,0,0,0,0,0],"sum_hessian":[1.7751569E2,1.4755804E2,2.995765E1,1.2991176E2,1.7646286E1,6.0831516E1,6.908024E1,4.9325745E1,1.1505773E1,5.4905758E1,1.41744795E1,3.9441692E1,9.884052E0,4.019077E1,1.4714987E1],"tree_param":{"num_deleted":"0","num_feature":"6444","num_nodes":"15","size_leaf_vector":"1"}},{"base_weights":[-1.8930681E-2,-3.785001E-1,2.8108054E-1,-8.993597E-3,4.6206353E-4,3.2833096E-1,-1.1660515E-3,1.0451123E-1,1.0017374E-2,-0E0,4.9537853E-3,-2.5981003E-3,2.8888131E-3],"categories":[],"categories_nodes":[],"categories_segments":[],"categories_sizes":[],"default_left":[0,0,0,0,0,0,0,0,0,0,0,0,0],"id":69,"left_children":[1,3,5,-1,-1,7,-1,9,-1,11,-1,-1,-1],"loss_changes":[2.1820415E1,3.2344513E0,2.30196E0,0E0,0E0,2.484911E0,0E0,7.665789E-1,0E0,1.3457109E0,0E0,0E0,0E0],"parents":[2147483647,0,0,1,1,2,2,5,5,7,7,9,9],"right_children":[2,4,6,-1,-1,8,-1,10,-1,12,-1,-1,-1],"split_conditions":[1E0,1E0,1E0,-8.993597E-3,4.6206353E-4,1E0,-1.1660515E-3,1E0,1.0017374E-2,4E0,4.9537853E-3,-2.5981003E-3,2.8888131E-3],"split_indices":[4,28,234,0,0,10,0,3475,0,18,0,0,0],"split_type":[0,0,0,0,0,0,0,0,0,0,0,0,0],"sum_hessian":[1.715788E2,7.777401E1,9.380479E1,6.6654564E1,1.1119442E1,8.5356125E1,8.448657E0,5.016402E1,3.5192104E1,4.10672E1,9.09682E0,1.9347708E1,2.1719494E1],"tree_param":{"num_deleted":"0","num_feature":"6444","num_nodes":"13","size_leaf_vector":"1"}},{"base_weights":[-2.184994E-2,2.4782605E-1,-1.5449578E-1,3.4661865E-1,-6.461996E-4,-2.1863638E-1,-0E0,7.900393E-3,5.43262E-4,-5.553599E-3,-0E0,6.766811E-2,-3.3951115E-3,1.7533858E-3,-1.7653095E-3,3.4544608E-3,-1.5749247E-3],"categories":[],"categories_nodes":[],"categories_segments":[],"categories_sizes":[],"default_left":[0,0,0,0,0,0,0,0,0,0,0,0,0,0,0,0,0],"id":70,"left_children":[1,3,5,7,-1,9,11,-1,-1,-1,13,15,-1,-1,-1,-1,-1],"loss_changes":[7.3608356E0,2.327838E0,1.2116735E0,2.3971415E-1,0E0,1.2499833E0,9.4729525E-1,0E0,0E0,0E0,3.877424E-1,1.0696295E0,0E0,0E0,0E0,0E0,0E0],"parents":[2147483647,0,0,1,1,2,2,3,3,5,5,6,6,10,10,11,11],"right_children":[2,4,6,8,-1,10,12,-1,-1,-1,14,16,-1,-1,-1,-1,-1],"split_conditions":[3E0,1E0,1E0,1E0,-6.461996E-4,1E0,1E0,7.900393E-3,5.43262E-4,-5.553599E-3,1E0,4E0,-3.3951115E-3,1.7533858E-3,-1.7653095E-3,3.4544608E-3,-1.5749247E-3],"split_indices":[19,10,2958,6426,0,5412,1376,0,0,0,1087,19,0,0,0,0,0],"split_type":[0,0,0,0,0,0,0,0,0,0,0,0,0,0,0,0,0],"sum_hessian":[1.773281E2,5.1685318E1,1.25642784E2,3.8217434E1,1.3467883E1,8.05751E1,4.5067677E1,2.7389236E1,1.08281975E1,6.0462864E1,2.0112244E1,3.5166164E1,9.90151E0,1.0472569E1,9.639674E0,2.2882322E1,1.2283843E1],"tree_param":{"num_deleted":"0","num_feature":"6444","num_nodes":"17","size_leaf_vector":"1"}},{"base_weights":[-4.9743008E-2,7.3974326E-2,-2.067961E-1,1.2503953E-1,-2.0186822E-3,-2.5365537E-1,6.803978E-4,1.6885935E-1,-6.3277583E-4,-6.324336E-3,-0E0,2.2228496E-1,-3.223107E-4,5.5228383E-4,5.740173E-3],"categories":[],"categories_nodes":[],"categories_segments":[],"categories_sizes":[],"default_left":[0,0,0,0,0,0,0,0,0,0,0,0,0,0,0],"id":71,"left_children":[1,3,5,7,-1,9,-1,11,-1,-1,-1,13,-1,-1,-1],"loss_changes":[4.062536E0,1.2317305E0,1.380785E0,8.9960814E-1,0E0,1.3253417E0,0E0,1.0999894E0,0E0,0E0,0E0,4.6317983E-1,0E0,0E0,0E0],"parents":[2147483647,0,0,1,1,2,2,3,3,5,5,7,7,11,11],"right_children":[2,4,6,8,-1,10,-1,12,-1,-1,-1,14,-1,-1,-1],"split_conditions":[1E0,1E0,1E0,1E0,-2.0186822E-3,1E0,6.803978E-4,1E0,-6.3277583E-4,-6.324336E-3,-0E0,3E0,-3.223107E-4,5.5228383E-4,5.740173E-3],"split_indices":[3,1177,1942,6343,0,6026,0,5014,0,0,0,18,0,0,0],"split_type":[0,0,0,0,0,0,0,0,0,0,0,0,0,0,0],"sum_hessian":[1.7543817E2,9.901074E1,7.642743E1,8.4372E1,1.463874E1,6.6784874E1,9.642558E0,7.000837E1,1.4363632E1,5.087923E1,1.5905643E1,5.6166576E1,1.3841794E1,2.3209352E1,3.2957222E1],"tree_param":{"num_deleted":"0","num_feature":"6444","num_nodes":"15","size_leaf_vector":"1"}},{"base_weights":[2.6591578E-2,-2.4927251E-1,3.588887E-1,-3.1525546E-1,1.8990985E-3,-1.442318E-3,9.829084E-3,-7.300299E-3,-0E0],"categories":[],"categories_nodes":[],"categories_segments":[],"categories_sizes":[],"default_left":[0,0,0,0,0,0,0,0,0],"id":72,"left_children":[1,3,5,7,-1,-1,-1,-1,-1],"loss_changes":[1.8083515E1,3.084715E0,6.098506E0,1.7115297E0,0E0,0E0,0E0,0E0,0E0],"parents":[2147483647,0,0,1,1,2,2,3,3],"right_children":[2,4,6,8,-1,-1,-1,-1,-1],"split_conditions":[1E0,1E0,3E0,4E0,1.8990985E-3,-1.442318E-3,9.829084E-3,-7.300299E-3,-0E0],"split_indices":[3,4819,19,19,0,0,0,0,0],"split_type":[0,0,0,0,0,0,0,0,0],"sum_hessian":[1.6643552E2,9.134323E1,7.5092285E1,8.014772E1,1.1195515E1,1.7498075E1,5.7594208E1,6.882033E1,1.1327386E1],"tree_param":{"num_deleted":"0","num_feature":"6444","num_nodes":"9","size_leaf_vector":"1"}},{"base_weights":[-0E0,-2.1805872E-1,2.3560911E-1,-2.9043084E-1,-0E0,8.267685E-3,-0E0,-4.626186E-2,-7.2635487E-3,1.6510818E-3,-1.3586544E-3,6.333124E-2,-2.5797188E-3,1.2247608E-3,-3.159199E-3,-9.772708E-4,3.6631126E-3],"categories":[],"categories_nodes":[],"categories_segments":[],"categories_sizes":[],"default_left":[0,0,0,0,0,0,0,0,0,0,0,0,0,0,0,0,0],"id":73,"left_children":[1,3,5,7,9,-1,11,13,-1,-1,-1,15,-1,-1,-1,-1,-1],"loss_changes":[1.0427158E1,1.8851657E0,4.187891E0,7.862649E-1,3.1119412E-1,0E0,5.986224E-1,7.107625E-1,0E0,0E0,0E0,8.999455E-1,0E0,0E0,0E0,0E0,0E0],"parents":[2147483647,0,0,1,1,2,2,3,3,4,4,6,6,7,7,11,11],"right_children":[2,4,6,8,10,-1,12,14,-1,-1,-1,16,-1,-1,-1,-1,-1],"split_conditions":[1E0,1E0,1E0,1E0,1E0,8.267685E-3,1E0,1E0,-7.2635487E-3,1.6510818E-3,-1.3586544E-3,1E0,-2.5797188E-3,1.2247608E-3,-3.159199E-3,-9.772708E-4,3.6631126E-3],"split_indices":[6,6426,4,3296,5464,0,5584,4,0,0,0,3550,0,0,0,0,0],"split_type":[0,0,0,0,0,0,0,0,0,0,0,0,0,0,0,0,0],"sum_hessian":[1.7288853E2,8.9937836E1,8.295069E1,6.65046E1,2.3433239E1,4.1325653E1,4.162504E1,2.4054075E1,4.2450523E1,1.4362728E1,9.07051E0,3.1967E1,9.65804E0,1.1148347E1,1.2905728E1,1.6786713E1,1.5180286E1],"tree_param":{"num_deleted":"0","num_feature":"6444","num_nodes":"17","size_leaf_vector":"1"}},{"base_weights":[7.530631E-3,1.6580972E-1,-2.3324098E-1,2.5127304E-1,-2.9076764E-2,-2.824852E-1,-0E0,6.164997E-3,-1.2534464E-4,2.1017038E-3,-1.2217593E-1,-6.347933E-3,-1.3611627E-4,-3.593966E-3,-0E0],"categories":[],"categories_nodes":[],"categories_segments":[],"categories_sizes":[],"default_left":[0,0,0,0,0,0,0,0,0,0,0,0,0,0,0],"id":74,"left_children":[1,3,5,7,9,11,-1,-1,-1,-1,13,-1,-1,-1,-1],"loss_changes":[7.8133545E0,2.444741E0,9.5176554E-1,1.7001867E0,8.1608456E-1,2.8120327E-1,0E0,0E0,0E0,0E0,4.335072E-1,0E0,0E0,0E0,0E0],"parents":[2147483647,0,0,1,1,2,2,3,3,4,4,5,5,10,10],"right_children":[2,4,6,8,10,12,-1,-1,-1,-1,14,-1,-1,-1,-1],"split_conditions":[4E0,1E0,1E0,1E0,1E0,1E0,-0E0,6.164997E-3,-1.2534464E-4,2.1017038E-3,1E0,-6.347933E-3,-1.3611627E-4,-3.593966E-3,-0E0],"split_indices":[16,1793,6411,1715,814,6426,0,0,0,0,6411,0,0,0,0],"split_type":[0,0,0,0,0,0,0,0,0,0,0,0,0,0,0],"sum_hessian":[1.7657312E2,1.1186102E2,6.471209E1,7.831075E1,3.355027E1,5.1270073E1,1.3442017E1,6.488528E1,1.3425475E1,8.55277E0,2.49975E1,4.027273E1,1.0997339E1,1.691394E1,8.08356E0],"tree_param":{"num_deleted":"0","num_feature":"6444","num_nodes":"15","size_leaf_vector":"1"}},{"base_weights":[-0E0,-1.8411572E-1,3.5292372E-1,-2.6687327E-1,7.740026E-2,-1.810787E-3,9.866271E-3,-3.1259704E-1,1.491985E-4,3.2848716E-3,-9.678395E-4,-1.3123523E-3,5.023609E-4,-3.369564E-1,-1.4916544E-4,-7.4331667E-3,-1.1271983E-3],"categories":[],"categories_nodes":[],"categories_segments":[],"categories_sizes":[],"default_left":[0,0,0,0,0,0,0,0,0,0,0,0,0,0,0,0,0],"id":75,"left_children":[1,3,5,7,9,11,-1,13,-1,-1,-1,-1,-1,15,-1,-1,-1],"loss_changes":[1.3985139E1,3.6280012E0,4.1372433E0,1.7962875E0,7.0998585E-1,1.22966185E-1,0E0,3.8332748E-1,0E0,0E0,0E0,0E0,0E0,1.5352249E-1,0E0,0E0,0E0],"parents":[2147483647,0,0,1,1,2,2,3,3,4,4,5,5,7,7,13,13],"right_children":[2,4,6,8,10,12,-1,14,-1,-1,-1,-1,-1,16,-1,-1,-1],"split_conditions":[1E0,1E0,1E0,1E0,1E0,1E0,9.866271E-3,1E0,1.491985E-4,3.2848716E-3,-9.678395E-4,-1.3123523E-3,5.023609E-4,1E0,-1.4916544E-4,-7.4331667E-3,-1.1271983E-3],"split_indices":[1,4738,13,4302,6426,8,0,5771,0,0,0,0,0,3194,0,0,0],"split_type":[0,0,0,0,0,0,0,0,0,0,0,0,0,0,0,0,0],"sum_hessian":[1.874996E2,1.2956271E2,5.793689E1,1.0108928E2,2.847344E1,1.860631E1,3.9330578E1,8.797867E1,1.3110611E1,1.883489E1,9.63855E0,1.0147218E1,8.459092E0,7.699114E1,1.0987525E1,6.1013676E1,1.5977468E1],"tree_param":{"num_deleted":"0","num_feature":"6444","num_nodes":"17","size_leaf_vector":"1"}},{"base_weights":[2.8427174E-2,2.8497E-1,-1.8755649E-1,6.9551733E-3,-1.4613239E-3,-2.4313326E-1,-0E0,-5.966856E-3,5.4111186E-4,2.2736676E-3,-2.732586E-3],"categories":[],"categories_nodes":[],"categories_segments":[],"categories_sizes":[],"default_left":[0,0,0,0,0,0,0,0,0,0,0],"id":76,"left_children":[1,3,5,-1,-1,7,9,-1,-1,-1,-1],"loss_changes":[1.12155485E1,2.7504134E0,1.1789577E0,0E0,0E0,1.6486859E0,8.3053327E-1,0E0,0E0,0E0,0E0],"parents":[2147483647,0,0,1,1,2,2,5,5,6,6],"right_children":[2,4,6,-1,-1,8,10,-1,-1,-1,-1],"split_conditions":[1E0,1E0,1E0,6.9551733E-3,-1.4613239E-3,1E0,1E0,-5.966856E-3,5.4111186E-4,2.2736676E-3,-2.732586E-3],"split_indices":[4,1104,15,0,0,5735,14,0,0,0,0],"split_type":[0,0,0,0,0,0,0,0,0,0,0],"sum_hessian":[1.7118646E2,7.817273E1,9.301373E1,6.925168E1,8.921049E0,6.922069E1,2.3793045E1,5.9251514E1,9.969174E0,1.523371E1,8.559335E0],"tree_param":{"num_deleted":"0","num_feature":"6444","num_nodes":"11","size_leaf_vector":"1"}},{"base_weights":[-5.9047225E-3,1.3130887E-1,-1.293097E-1,1.8909937E-1,-1.7920746E-3,3.6464168E-3,-6.650765E-3,2.672043E-1,-1.8730357E-2,1.6208836E-1,-1.1974169E-1,6.4360206E-3,-0E0,-3.884355E-3,2.4782727E-3,4.8207194E-3,-0E0,-0E0,-4.1379044E-3,-1.2041465E-3,8.098789E-4],"categories":[],"categories_nodes":[],"categories_segments":[],"categories_sizes":[],"default_left":[0,0,0,0,0,0,0,0,0,0,0,0,0,0,0,0,0,0,0,0,0],"id":77,"left_children":[1,3,5,7,-1,9,-1,11,13,15,17,-1,-1,-1,-1,-1,-1,19,-1,-1,-1],"loss_changes":[3.4874322E0,1.5545038E0,3.3726215E0,1.6703234E0,0E0,1.8886986E0,0E0,6.910367E-1,1.2619497E0,7.5080454E-1,3.3878016E-1,0E0,0E0,0E0,0E0,0E0,0E0,1.5183465E-1,0E0,0E0,0E0],"parents":[2147483647,0,0,1,1,2,2,3,3,5,5,7,7,8,8,9,9,10,10,17,17],"right_children":[2,4,6,8,-1,10,-1,12,14,16,18,-1,-1,-1,-1,-1,-1,20,-1,-1,-1],"split_conditions":[1E0,1E0,1E0,1E0,-1.7920746E-3,1E0,-6.650765E-3,1E0,1E0,1E0,1E0,6.4360206E-3,-0E0,-3.884355E-3,2.4782727E-3,4.8207194E-3,-0E0,1E0,-4.1379044E-3,-1.2041465E-3,8.098789E-4],"split_indices":[4,1177,1,314,0,101,0,674,101,7,3194,0,0,0,0,0,0,1155,0,0,0],"split_type":[0,0,0,0,0,0,0,0,0,0,0,0,0,0,0,0,0,0,0,0,0],"sum_hessian":[1.7603345E2,7.906131E1,9.697214E1,6.7967804E1,1.1093508E1,6.4551544E1,3.2420593E1,4.978449E1,1.8183313E1,2.9749804E1,3.480174E1,3.6339703E1,1.3444788E1,8.864683E0,9.318631E0,1.8159296E1,1.1590507E1,2.5205885E1,9.595855E0,1.5884255E1,9.321629E0],"tree_param":{"num_deleted":"0","num_feature":"6444","num_nodes":"21","size_leaf_vector":"1"}},{"base_weights":[-0E0,-3.7174797E-1,2.8423747E-1,-8.387206E-3,-0E0,3.152045E-1,-7.1392904E-5,1.08445704E-1,9.315396E-3,-1.8558992E-4,1.9400403E-1,4.910733E-3,-0E0],"categories":[],"categories_nodes":[],"categories_segments":[],"categories_sizes":[],"default_left":[0,0,0,0,0,0,0,0,0,0,0,0,0],"id":78,"left_children":[1,3,5,-1,-1,7,-1,9,-1,-1,11,-1,-1],"loss_changes":[2.1686457E1,1.8737965E0,1.366581E0,0E0,0E0,2.0446587E0,0E0,8.9719385E-1,0E0,0E0,4.6971595E-1,0E0,0E0],"parents":[2147483647,0,0,1,1,2,2,5,5,7,7,10,10],"right_children":[2,4,6,-1,-1,8,-1,10,-1,-1,12,-1,-1],"split_conditions":[1E0,1E0,1E0,-8.387206E-3,-0E0,1E0,-7.1392904E-5,1E0,9.315396E-3,-1.8558992E-4,1E0,4.910733E-3,-0E0],"split_indices":[4,6349,1873,0,0,10,0,3157,0,0,2318,0,0],"split_type":[0,0,0,0,0,0,0,0,0,0,0,0,0],"sum_hessian":[1.7530653E2,7.383365E1,1.01472885E2,6.546202E1,8.371626E0,9.346322E1,8.009664E0,5.3054028E1,4.0409195E1,2.3038738E1,3.0015287E1,2.0893927E1,9.121362E0],"tree_param":{"num_deleted":"0","num_feature":"6444","num_nodes":"13","size_leaf_vector":"1"}},{"base_weights":[3.2613294E-3,-2.5428897E-1,2.6191399E-1,1.2995789E-3,-3.1044766E-1,4.0018326E-1,-5.7485618E-2,-6.9069294E-3,-1.0943516E-4,8.81111E-3,5.2986277E-4,-2.51052E-3,7.5211114E-4],"categories":[],"categories_nodes":[],"categories_segments":[],"categories_sizes":[],"default_left":[0,0,0,0,0,0,0,0,0,0,0,0,0],"id":79,"left_children":[1,3,5,-1,7,9,11,-1,-1,-1,-1,-1,-1],"loss_changes":[1.3643162E1,2.3539686E0,5.2794003E0,0E0,5.8847237E-1,5.13937E-1,4.326812E-1,0E0,0E0,0E0,0E0,0E0,0E0],"parents":[2147483647,0,0,1,1,2,2,4,4,5,5,6,6],"right_children":[2,4,6,-1,8,10,12,-1,-1,-1,-1,-1,-1],"split_conditions":[1E0,2E0,1E0,1.2995789E-3,1E0,1E0,1E0,-6.9069294E-3,-1.0943516E-4,8.81111E-3,5.2986277E-4,-2.51052E-3,7.5211114E-4],"split_indices":[6,18,0,0,